svm_type c_svc
kernel_type rbf
gamma 0.0078125
nr_class 2
total_sv 147
rho 10.0647
label 0 1
nr_sv 78 69
SV
32768 1:-1 2:1 3:1 4:-1 5:-1 6:-0.940992 7:1 8:-0.511403 9:-0.407683 10:-0.955053 11:1 12:-0.884748 13:-0.920855 14:-0.946602 15:-1 16:-1 
32768 1:-1 2:1 3:1 4:-1 5:-1 6:-0.940992 7:1 8:-0.511403 9:-0.407683 10:-0.955044 11:1 12:-0.884748 13:-0.920855 14:-0.946635 15:-1 16:-1 
32768 1:-1 2:1 3:1 4:-1 5:-1 6:-0.940992 7:1 8:-0.511403 9:-0.407683 10:-0.95502 11:1 12:-0.884748 13:-0.920855 14:-0.946635 15:-1 16:-1 
32669.4628645054 1:-1 2:1 3:1 4:-1 5:-1 6:-0.940992 7:1 8:-0.511403 9:-0.407683 10:-0.95495 11:1 12:-0.884748 13:-0.920855 14:-0.946504 15:-1 16:-1 
32768 1:-1 2:1 3:1 4:-1 5:-1 6:-0.940992 7:1 8:-0.511403 9:-0.407683 10:-0.955016 11:1 12:-0.884748 13:-0.920855 14:-0.946602 15:-1 16:-1 
32768 1:-1 2:1 3:1 4:-1 5:-1 6:-0.940992 7:1 8:-0.511403 9:-0.407683 10:-0.954994 11:1 12:-0.884748 13:-0.920855 14:-0.946602 15:-1 16:-1 
32768 1:-1 2:1 3:1 4:-1 5:-1 6:-0.940992 7:1 8:-0.511403 9:-0.407683 10:-0.955053 11:1 12:-0.884748 13:-0.920855 14:-0.946602 15:-1 16:-1 
32768 1:-1 2:1 3:1 4:-1 5:-1 6:-0.940992 7:1 8:-0.511403 9:-0.407683 10:-0.955016 11:1 12:-0.884748 13:-0.920855 14:-0.946602 15:-1 16:-1 
32768 1:-1 2:1 3:1 4:-1 5:-1 6:-0.940992 7:1 8:-0.511403 9:-0.407683 10:-0.955016 11:1 12:-0.884748 13:-0.920855 14:-0.946602 15:-1 16:-1 
32768 1:-1 2:1 3:1 4:-1 5:-1 6:-0.940992 7:1 8:-0.511403 9:-0.407683 10:-0.955016 11:1 12:-0.884748 13:-0.920855 14:-0.946602 15:-1 16:-1 
32768 1:-1 2:1 3:1 4:-1 5:-1 6:-0.940992 7:1 8:-0.511403 9:-0.407683 10:-0.954939 11:1 12:-0.884748 13:-0.920855 14:-0.946536 15:-1 16:-1 
32768 1:-1 2:1 3:1 4:-1 5:-1 6:-0.940992 7:1 8:-0.511403 9:-0.407683 10:-0.955005 11:1 12:-0.884748 13:-0.920855 14:-0.946602 15:-1 16:-1 
32768 1:-1 2:1 3:1 4:-1 5:-1 6:-0.940992 7:1 8:-0.511403 9:-0.407683 10:-0.955015 11:1 12:-0.884748 13:-0.920855 14:-0.946569 15:-1 16:-1 
32768 1:-1 2:1 3:1 4:-1 5:-1 6:-0.940992 7:1 8:-0.511403 9:-0.407683 10:-0.95502 11:1 12:-0.884748 13:-0.920855 14:-0.946569 15:-1 16:-1 
32768 1:-0.944444 2:-0.935484 3:-0.614679 4:1 5:-0.481325 6:-1 7:-0.42464 8:-0.907665 9:-0.879014 10:-0.954842 11:-0.375 12:-0.987763 13:-0.970537 14:-0.946471 15:-1 16:3.00004e-12 
32768 1:-0.944444 2:-0.935484 3:-0.614679 4:1 5:-0.481325 6:-1 7:-0.42464 8:-0.907665 9:-0.879014 10:-0.954895 11:-0.375 12:-0.987763 13:-0.970537 14:-0.946536 15:-1 16:-1 
32768 1:-0.944444 2:-0.935484 3:-0.614679 4:1 5:-0.481325 6:-1 7:-0.42464 8:-0.907665 9:-0.879014 10:-0.954842 11:-0.375 12:-0.987763 13:-0.970537 14:-0.946471 15:-1 16:3.00004e-12 
32768 1:-0.944444 2:-0.935484 3:-0.614679 4:1 5:-0.481325 6:-1 7:-0.42464 8:-0.907665 9:-0.879014 10:-0.954871 11:-0.375 12:-0.987763 13:-0.970537 14:-0.946536 15:-1 16:-1 
32768 1:-0.944444 2:-0.935484 3:-0.614679 4:1 5:-0.481325 6:-1 7:-0.42464 8:-0.907665 9:-0.879014 10:-0.954888 11:-0.375 12:-0.987763 13:-0.970537 14:-0.946438 15:-1 16:3.00004e-12 
32768 1:-0.944444 2:-0.935484 3:-0.614679 4:1 5:-0.481325 6:-1 7:-0.42464 8:-0.907665 9:-0.879014 10:-0.954723 11:-0.375 12:-0.987763 13:-0.970537 14:-0.946438 15:-1 16:-1 
32768 1:-0.944444 2:-0.935484 3:-0.614679 4:1 5:-0.481325 6:-1 7:-0.42464 8:-0.907665 9:-0.879014 10:-0.954918 11:-0.375 12:-0.987763 13:-0.970537 14:-0.946536 15:-1 16:3.00004e-12 
32768 1:-0.944444 2:-0.935484 3:-0.614679 4:1 5:-0.481325 6:-1 7:-0.42464 8:-0.907665 9:-0.879014 10:-0.954954 11:-0.375 12:-0.987763 13:-0.970537 14:-0.946504 15:-1 16:1 
32768 1:-0.944444 2:-0.935484 3:-0.614679 4:1 5:-0.481325 6:-1 7:-0.42464 8:-0.907665 9:-0.879014 10:-0.954918 11:-0.375 12:-0.987763 13:-0.970537 14:-0.946536 15:-1 16:3.00004e-12 
32768 1:-0.944444 2:-0.935484 3:-0.614679 4:1 5:-0.481325 6:-1 7:-0.42464 8:-0.907665 9:-0.879014 10:-0.954862 11:-0.375 12:-0.987763 13:-0.970537 14:-0.946471 15:-1 16:3.00004e-12 
32768 1:-0.944444 2:-0.935484 3:-0.614679 4:1 5:-0.481325 6:-1 7:-0.42464 8:-0.907665 9:-0.879014 10:-0.954772 11:-0.375 12:-0.987763 13:-0.970537 14:-0.946471 15:-1 16:3.00004e-12 
32768 1:-0.944444 2:-0.935484 3:-0.614679 4:1 5:-0.481325 6:-1 7:-0.42464 8:-0.907665 9:-0.879014 10:-0.954793 11:-0.375 12:-0.987763 13:-0.970537 14:-0.946438 15:-1 16:3.00004e-12 
32768 1:-0.944444 2:-0.935484 3:-0.614679 4:1 5:-0.481325 6:-1 7:-0.42464 8:-0.907665 9:-0.879014 10:-0.954747 11:-0.375 12:-0.987763 13:-0.970537 14:-0.946438 15:-1 16:3.00004e-12 
32768 1:-0.944444 2:-0.935484 3:-0.614679 4:1 5:-0.481325 6:-1 7:-0.42464 8:-0.907665 9:-0.879014 10:-0.954772 11:-0.375 12:-0.987763 13:-0.970537 14:-0.946471 15:-1 16:-1 
32768 1:-0.944444 2:-0.935484 3:-0.614679 4:1 5:-0.481325 6:-1 7:-0.42464 8:-0.907665 9:-0.879014 10:-0.954796 11:-0.375 12:-0.987763 13:-0.970537 14:-0.946471 15:-1 16:-1 
32768 1:-0.944444 2:-0.935484 3:-0.614679 4:1 5:-0.481325 6:-1 7:-0.42464 8:-0.907665 9:-0.879014 10:-0.954772 11:-0.375 12:-0.987763 13:-0.970537 14:-0.946471 15:-1 16:3.00004e-12 
32768 1:-0.944444 2:-0.935484 3:-0.614679 4:1 5:-0.481325 6:-1 7:-0.42464 8:-0.907665 9:-0.879014 10:-0.954796 11:-0.375 12:-0.987763 13:-0.970537 14:-0.946438 15:-1 16:-1 
32768 1:-0.944444 2:-0.935484 3:-0.614679 4:1 5:-0.481325 6:-1 7:-0.42464 8:-0.907665 9:-0.879014 10:-0.954747 11:-0.375 12:-0.987763 13:-0.970537 14:-0.946438 15:-1 16:3.00004e-12 
32768 1:-0.944444 2:-0.935484 3:-0.614679 4:1 5:-0.481325 6:-1 7:-0.42464 8:-0.907665 9:-0.879014 10:-0.954822 11:-0.375 12:-0.987763 13:-0.970537 14:-0.946504 15:-1 16:3.00004e-12 
32768 1:-0.944444 2:-0.935484 3:-0.614679 4:1 5:-0.481325 6:-1 7:-0.42464 8:-0.907665 9:-0.879014 10:-0.954941 11:-0.375 12:-0.987763 13:-0.970537 14:-0.946504 15:-1 16:1 
32768 1:-0.944444 2:-0.935484 3:-0.614679 4:1 5:-0.481325 6:-1 7:-0.42464 8:-0.907665 9:-0.879014 10:-0.95477 11:-0.375 12:-0.987763 13:-0.970537 14:-0.946438 15:-1 16:-1 
32768 1:-0.944444 2:-0.935484 3:-0.614679 4:1 5:-0.481325 6:-1 7:-0.42464 8:-0.907665 9:-0.879014 10:-0.954747 11:-0.375 12:-0.987763 13:-0.970537 14:-0.946438 15:-1 16:-1 
32768 1:-0.944444 2:-0.935484 3:-0.614679 4:1 5:-0.481325 6:-1 7:-0.42464 8:-0.907665 9:-0.879014 10:-0.954772 11:-0.375 12:-0.987763 13:-0.970537 14:-0.946471 15:-1 16:3.00004e-12 
32768 1:-0.944444 2:-0.935484 3:-0.614679 4:1 5:-0.481325 6:-1 7:-0.42464 8:-0.907665 9:-0.879014 10:-0.954723 11:-0.375 12:-0.987763 13:-0.970537 14:-0.946438 15:-1 16:-1 
32768 1:-0.944444 2:-0.935484 3:-0.614679 4:1 5:-0.481325 6:-1 7:-0.42464 8:-0.907665 9:-0.879014 10:-0.954869 11:-0.375 12:-0.987763 13:-0.970537 14:-0.946504 15:-1 16:3.00004e-12 
32768 1:-0.944444 2:-0.935484 3:-0.614679 4:1 5:-0.481325 6:-1 7:-0.42464 8:-0.907665 9:-0.879014 10:-0.95477 11:-0.375 12:-0.987763 13:-0.970537 14:-0.946438 15:-1 16:-1 
32768 1:-0.944444 2:-0.935484 3:-0.614679 4:1 5:-0.481325 6:-1 7:-0.42464 8:-0.907665 9:-0.879014 10:-0.95485 11:-0.375 12:-0.987763 13:-0.970537 14:-0.946438 15:-1 16:-1 
32768 1:-0.944444 2:-0.935484 3:-0.614679 4:1 5:-0.481325 6:-1 7:-0.42464 8:-0.907665 9:-0.879014 10:-0.954814 11:-0.375 12:-0.987763 13:-0.970537 14:-0.946438 15:-1 16:3.00004e-12 
32768 1:-0.944444 2:-0.935484 3:-0.614679 4:1 5:-0.481325 6:-1 7:-0.42464 8:-0.907665 9:-0.879014 10:-0.954723 11:-0.375 12:-0.987763 13:-0.970537 14:-0.946438 15:-1 16:-1 
32768 1:-0.944444 2:-0.935484 3:-0.614679 4:1 5:-0.481325 6:-1 7:-0.42464 8:-0.907665 9:-0.879014 10:-0.954822 11:-0.375 12:-0.987763 13:-0.970537 14:-0.946504 15:-1 16:3.00004e-12 
32768 1:-0.944444 2:-0.935484 3:-0.614679 4:1 5:-0.481325 6:-1 7:-0.42464 8:-0.907665 9:-0.879014 10:-0.95497 11:-0.375 12:-0.987763 13:-0.970537 14:-0.946602 15:-1 16:-1 
32768 1:-0.944444 2:-0.935484 3:-0.614679 4:1 5:-0.481325 6:-1 7:-0.42464 8:-0.907665 9:-0.879014 10:-0.954796 11:-0.375 12:-0.987763 13:-0.970537 14:-0.946471 15:-1 16:-1 
32768 1:-0.944444 2:-0.935484 3:-0.614679 4:1 5:-0.481325 6:-1 7:-0.42464 8:-0.907665 9:-0.879014 10:-0.954793 11:-0.375 12:-0.987763 13:-0.970537 14:-0.946438 15:-1 16:-1 
32768 1:-0.944444 2:-0.935484 3:-0.614679 4:1 5:-0.481325 6:-1 7:-0.42464 8:-0.907665 9:-0.879014 10:-0.954921 11:-0.375 12:-0.987763 13:-0.970537 14:-0.946471 15:-1 16:1 
32768 1:-0.944444 2:-0.935484 3:-0.614679 4:1 5:-0.481325 6:-1 7:-0.42464 8:-0.907665 9:-0.879014 10:-0.95477 11:-0.375 12:-0.987763 13:-0.970537 14:-0.946438 15:-1 16:-1 
32768 1:-0.944444 2:-0.935484 3:-0.614679 4:1 5:-0.481325 6:-1 7:-0.42464 8:-0.907665 9:-0.879014 10:-0.954822 11:-0.375 12:-0.987763 13:-0.970537 14:-0.946504 15:-1 16:-1 
32768 1:-0.944444 2:-0.935484 3:-0.614679 4:1 5:-0.481325 6:-1 7:-0.42464 8:-0.907665 9:-0.879014 10:-0.95482 11:-0.375 12:-0.987763 13:-0.970537 14:-0.946471 15:-1 16:-1 
32768 1:-0.944444 2:-0.935484 3:-0.614679 4:1 5:-0.481325 6:-1 7:-0.42464 8:-0.907665 9:-0.879014 10:-0.954921 11:-0.375 12:-0.987763 13:-0.970537 14:-0.946569 15:-1 16:-1 
32768 1:-0.944444 2:-0.935484 3:-0.614679 4:1 5:-0.481325 6:-1 7:-0.42464 8:-0.907665 9:-0.879014 10:-0.954747 11:-0.375 12:-0.987763 13:-0.970537 14:-0.946438 15:-1 16:-1 
792.5455884547026 1:-0.666667 2:-0.825806 3:0.00917431 4:1 5:1 6:-0.874377 7:0.125789 8:-0.428635 9:-0.372133 10:-0.673985 11:0.15625 12:-0.884748 13:-0.927787 14:-0.946767 15:-0.950627 16:-1 
390.0846255322522 1:1 2:-0.980645 3:-0.87156 4:1 5:-0.0335752 6:0.895251 7:-0.651287 8:-0.0621873 9:-0.00401376 10:-0.974748 11:-0.59375 12:-0.925464 13:-0.938186 14:-0.966287 15:-0.0916057 16:-1 
55.97624412974042 1:-0.388889 2:-0.445161 3:0.412844 4:-0.25 5:-0.135614 6:-0.216248 7:-0.942691 8:-0.929915 9:-0.93578 10:1 11:-0.875 12:-0.929914 13:-0.935298 14:1 15:-0.388366 16:-0.915434 
124.9717700549968 1:-0.388889 2:-0.767742 3:-0.504587 4:-0.25 5:-0.153834 6:-0.208222 7:-0.926502 8:-0.91879 9:-0.923739 10:-0.955095 11:-0.859375 12:-0.978863 13:-0.985557 14:-0.946767 15:-0.579937 16:-0.895906 
21291.18994149443 1:-0.388889 2:-0.651613 3:-0.174312 4:-0.25 5:-0.123268 6:-0.234593 7:-0.845556 8:-0.866059 9:-0.881881 10:-0.956725 11:-0.78125 12:-0.957504 13:-0.982669 14:-0.94835 15:-0.58551 16:-0.974785 
3175.240611359714 1:-0.388889 2:-0.696774 3:-0.302752 4:-0.25 5:-0.209575 6:-0.193473 7:-0.907884 8:-0.999999 9:-1 10:-0.955218 11:-1 12:-1 13:-1 14:-0.946767 15:-1 16:-1 
16797.83476448326 1:-0.388889 2:-0.845161 3:-0.724771 4:-0.25 5:-0.068365 6:-0.294035 7:-0.942691 8:-0.949939 9:-0.947248 10:-0.959985 11:-0.875 12:-0.989098 13:-0.986135 14:-0.952631 15:-0.53814 16:-0.951357 
17693.51074768605 1:-0.388889 2:-0.587097 3:0.00917431 4:-0.25 5:-0.0804356 6:-0.240865 7:-0.813178 8:-0.849372 9:-0.866399 10:-0.955209 11:-0.75 12:-0.951496 13:-0.981514 14:-0.946767 15:-0.386973 16:-0.890024 
9645.44689413619 1:-0.388889 2:-0.851613 3:-0.743119 4:-0.25 5:0.0348989 6:-0.310056 7:-0.957908 8:-0.999998 9:-1 10:-0.955218 11:-1 12:-1 13:-1 14:-0.946767 15:-1 16:-1 
2705.221342911824 1:-0.388889 2:-0.703226 3:-0.321101 4:-0.25 5:-0.191232 6:-0.192039 7:-0.894123 8:-0.893871 9:-0.90711 10:-0.955201 11:-0.828125 12:-0.966181 13:-0.984402 14:-0.946767 15:-0.256705 16:-0.920245 
32768 1:-0.388889 2:-0.612903 3:-0.0642202 4:-0.25 5:-0.161412 6:-0.21253 7:-0.877934 8:-0.902548 9:-0.90539 10:-0.95695 11:-0.8125 12:-0.973746 13:-0.983824 14:-0.949084 15:-0.48241 16:-0.962457 
28045.13187401627 1:-0.388889 2:-0.767742 3:-0.504587 4:-0.25 5:-0.0619666 6:-0.276111 7:-0.942691 8:-0.92947 9:-0.938647 10:-0.95659 11:-0.875 12:-0.977083 13:-0.986135 14:-0.952072 15:-0.499129 16:-0.879845 
32768 1:-0.388889 2:-0.683871 3:-0.266055 4:-0.25 5:0.00201494 6:-0.290976 7:-0.926502 8:-0.915453 9:-0.926606 10:-0.955093 11:-0.859375 12:-0.972856 13:-0.985557 14:-0.951729 15:-0.4434 16:-0.906125 
29457.16146909295 1:-0.388889 2:-0.516129 3:0.211009 4:-0.25 5:-0.139909 6:-0.219487 7:-0.95888 8:-0.948159 9:-0.951261 10:-0.959053 11:-0.890625 12:-0.98576 13:-0.986713 14:-0.95165 15:-0.37931 16:-0.940646 
20876.55476280146 1:-0.388889 2:-0.574194 3:0.0458716 4:-0.25 5:-0.221505 6:-0.201117 7:-0.926502 8:-0.918568 9:-0.922592 10:-0.958996 11:-0.859375 12:-0.979531 13:-0.985557 14:-0.951669 15:-0.576454 16:-0.923579 
32001.46332085785 1:-0.388889 2:-0.612903 3:-0.0642202 4:-0.25 5:-0.0598152 6:-0.271668 7:-0.877934 8:-0.90544 9:-0.909404 10:-0.956716 11:-0.8125 12:-0.975303 13:-0.983824 14:-0.948592 15:-0.685127 16:-0.934148 
16054.13631192864 1:-0.388889 2:-0.580645 3:0.0275229 4:-0.25 5:-0.0776616 6:-0.263575 7:-0.877934 8:-0.894093 9:-0.900803 10:-0.955203 11:-0.8125 12:-0.971743 13:-0.983824 14:-0.947433 15:-0.297109 16:-0.89075 
32768 1:-0.388889 2:-0.683871 3:-0.266055 4:-0.25 5:-0.0940014 6:-0.261434 7:-0.942691 8:-0.942152 9:-0.941514 10:-0.960207 11:-0.875 12:-0.987763 13:-0.986135 14:-0.95185 15:-0.680947 16:-0.90268 
27226.43678336648 1:0.166667 2:-0.700461 3:0.100917 4:0.25 5:0.0285206 6:0.218549 7:0.206735 8:0.838914 9:0.806193 10:-0.971624 11:0.234375 12:-0.566581 13:-0.924899 14:-0.963838 15:-0.313828 16:-0.95605 
6062.394478558726 1:0.166667 2:-0.686636 3:0.155963 4:0.25 5:-0.00785078 6:0.251022 7:0.255302 8:0.921237 9:0.919725 10:-0.974349 11:0.28125 12:-0.571031 13:-0.923166 14:-0.968378 15:-0.0379659 16:-0.922397 
6295.588185307428 1:0.166667 2:-0.672811 3:0.211009 4:0.25 5:-0.0303925 6:0.256425 7:0.303869 8:0.977751 9:1 10:-0.978287 11:0.328125 12:-0.575481 13:-0.921433 14:-0.970474 15:-0.166144 16:-0.907351 
5033.427564287763 1:0.166667 2:-0.714286 3:0.0458716 4:0.25 5:-0.118876 6:0.324941 7:0.158167 8:0.861609 9:0.867546 10:-0.976526 11:0.1875 12:-0.592613 13:-0.926632 14:-0.972323 15:-0.136189 16:-0.946794 
30402.82271886684 1:0.166667 2:-0.718894 3:0.0275229 4:0.25 5:0.00296038 6:0.254004 7:0.141978 8:0.770163 9:0.759174 10:-0.978932 11:0.171875 12:-0.600623 13:-0.92721 14:-0.972583 15:-0.168931 16:-0.952729 
20676.2192764553 1:0.166667 2:-0.705069 3:0.0825688 4:0.25 5:-0.0195589 6:0.258845 7:0.190546 8:0.843809 9:0.827408 10:-0.983186 11:0.21875 12:-0.578596 13:-0.925477 14:-0.979889 15:0.0811564 16:-0.940427 
4051.804433359099 1:-0.111111 2:-0.967742 3:-0.908257 4:0.5 5:0.051873 6:-0.104283 7:-0.683665 8:-0.526755 9:-0.541284 10:-0.963077 11:-0.625 12:-0.909667 13:-0.962449 14:-0.957106 15:-0.676071 16:-0.96875 
-32768 1:-1 2:1 3:1 4:-1 5:-1 6:-0.940992 7:1 8:-0.511403 9:-0.407683 10:-0.954895 11:1 12:-0.884748 13:-0.920855 14:-0.946536 15:-1 16:-1 
-32768 1:-1 2:1 3:1 4:-1 5:-1 6:-0.940992 7:1 8:-0.511403 9:-0.407683 10:-0.954984 11:1 12:-0.884748 13:-0.920855 14:-0.946602 15:-1 16:-1 
-32768 1:-1 2:1 3:1 4:-1 5:-1 6:-0.940992 7:1 8:-0.511403 9:-0.407683 10:-0.954814 11:1 12:-0.884748 13:-0.920855 14:-0.946438 15:-1 16:-1 
-32768 1:-1 2:1 3:1 4:-1 5:-1 6:-0.940992 7:1 8:-0.511403 9:-0.407683 10:-0.954796 11:1 12:-0.884748 13:-0.920855 14:-0.946471 15:-1 16:-1 
-32768 1:-1 2:1 3:1 4:-1 5:-1 6:-0.940992 7:1 8:-0.511403 9:-0.407683 10:-0.954921 11:1 12:-0.884748 13:-0.920855 14:-0.946569 15:-1 16:-1 
-32768 1:-1 2:1 3:1 4:-1 5:-1 6:-0.940992 7:1 8:-0.511403 9:-0.407683 10:-0.954865 11:1 12:-0.884748 13:-0.920855 14:-0.946438 15:-1 16:-1 
-32768 1:-1 2:1 3:1 4:-1 5:-1 6:-0.940992 7:1 8:-0.511403 9:-0.407683 10:-0.954954 11:1 12:-0.884748 13:-0.920855 14:-0.946504 15:-1 16:-1 
-32768 1:-1 2:1 3:1 4:-1 5:-1 6:-0.940992 7:1 8:-0.511403 9:-0.407683 10:-0.954842 11:1 12:-0.884748 13:-0.920855 14:-0.946471 15:-1 16:-1 
-32768 1:-1 2:1 3:1 4:-1 5:-1 6:-0.940992 7:1 8:-0.511403 9:-0.407683 10:-0.954987 11:1 12:-0.884748 13:-0.920855 14:-0.946536 15:-1 16:-1 
-32768 1:-1 2:1 3:1 4:-1 5:-1 6:-0.940992 7:1 8:-0.511403 9:-0.407683 10:-0.95485 11:1 12:-0.884748 13:-0.920855 14:-0.946438 15:-1 16:-1 
-32768 1:-1 2:1 3:1 4:-1 5:-1 6:-0.940992 7:1 8:-0.511403 9:-0.407683 10:-0.954745 11:1 12:-0.884748 13:-0.920855 14:-0.946438 15:-1 16:-1 
-32768 1:-1 2:1 3:1 4:-1 5:-1 6:-0.940992 7:1 8:-0.511403 9:-0.407683 10:-0.95497 11:1 12:-0.884748 13:-0.920855 14:-0.946602 15:-1 16:-1 
-32768 1:-1 2:1 3:1 4:-1 5:-1 6:-0.940992 7:1 8:-0.511403 9:-0.407683 10:-0.95477 11:1 12:-0.884748 13:-0.920855 14:-0.946438 15:-1 16:-1 
-32768 1:-1 2:1 3:1 4:-1 5:-1 6:-0.940992 7:1 8:-0.511403 9:-0.407683 10:-0.954846 11:1 12:-0.884748 13:-0.920855 14:-0.946504 15:-1 16:-1 
-32768 1:-0.944444 2:-0.935484 3:-0.614679 4:1 5:-0.481325 6:-1 7:-0.42464 8:-0.907665 9:-0.879014 10:-0.954939 11:-0.375 12:-0.987763 13:-0.970537 14:-0.946536 15:-1 16:-1 
-32768 1:-0.944444 2:-0.935484 3:-0.614679 4:1 5:-0.481325 6:-1 7:-0.42464 8:-0.907665 9:-0.879014 10:-0.954842 11:-0.375 12:-0.987763 13:-0.970537 14:-0.946471 15:-1 16:-1 
-32768 1:-0.944444 2:-0.935484 3:-0.614679 4:1 5:-0.481325 6:-1 7:-0.42464 8:-0.907665 9:-0.879014 10:-0.954972 11:-0.375 12:-0.987763 13:-0.970537 14:-0.946536 15:-1 16:3.00004e-12 
-32768 1:-0.944444 2:-0.935484 3:-0.614679 4:1 5:-0.481325 6:-1 7:-0.42464 8:-0.907665 9:-0.879014 10:-0.954945 11:-0.375 12:-0.987763 13:-0.970537 14:-0.946569 15:-1 16:3.00004e-12 
-32768 1:-0.944444 2:-0.935484 3:-0.614679 4:1 5:-0.481325 6:-1 7:-0.42464 8:-0.907665 9:-0.879014 10:-0.954793 11:-0.375 12:-0.987763 13:-0.970537 14:-0.946438 15:-1 16:3.00004e-12 
-32768 1:-0.944444 2:-0.935484 3:-0.614679 4:1 5:-0.481325 6:-1 7:-0.42464 8:-0.907665 9:-0.879014 10:-0.954793 11:-0.375 12:-0.987763 13:-0.970537 14:-0.946438 15:-1 16:1 
-32768 1:-0.944444 2:-0.935484 3:-0.614679 4:1 5:-0.481325 6:-1 7:-0.42464 8:-0.907665 9:-0.879014 10:-0.954793 11:-0.375 12:-0.987763 13:-0.970537 14:-0.946438 15:-1 16:3.00004e-12 
-32768 1:-0.944444 2:-0.935484 3:-0.614679 4:1 5:-0.481325 6:-1 7:-0.42464 8:-0.907665 9:-0.879014 10:-0.954862 11:-0.375 12:-0.987763 13:-0.970537 14:-0.946471 15:-1 16:-1 
-32768 1:-0.944444 2:-0.935484 3:-0.614679 4:1 5:-0.481325 6:-1 7:-0.42464 8:-0.907665 9:-0.879014 10:-0.954972 11:-0.375 12:-0.987763 13:-0.970537 14:-0.946536 15:-1 16:3.00004e-12 
-32768 1:-0.944444 2:-0.935484 3:-0.614679 4:1 5:-0.481325 6:-1 7:-0.42464 8:-0.907665 9:-0.879014 10:-0.954921 11:-0.375 12:-0.987763 13:-0.970537 14:-0.946471 15:-1 16:3.00004e-12 
-32768 1:-0.944444 2:-0.935484 3:-0.614679 4:1 5:-0.481325 6:-1 7:-0.42464 8:-0.907665 9:-0.879014 10:-0.95489 11:-0.375 12:-0.987763 13:-0.970537 14:-0.946471 15:-1 16:-1 
-32768 1:-0.944444 2:-0.935484 3:-0.614679 4:1 5:-0.481325 6:-1 7:-0.42464 8:-0.907665 9:-0.879014 10:-0.954747 11:-0.375 12:-0.987763 13:-0.970537 14:-0.946438 15:-1 16:3.00004e-12 
-32768 1:-0.944444 2:-0.935484 3:-0.614679 4:1 5:-0.481325 6:-1 7:-0.42464 8:-0.907665 9:-0.879014 10:-0.954921 11:-0.375 12:-0.987763 13:-0.970537 14:-0.946569 15:-1 16:-1 
-32768 1:-0.944444 2:-0.935484 3:-0.614679 4:1 5:-0.481325 6:-1 7:-0.42464 8:-0.907665 9:-0.879014 10:-0.954869 11:-0.375 12:-0.987763 13:-0.970537 14:-0.946504 15:-1 16:-1 
-32768 1:-0.944444 2:-0.935484 3:-0.614679 4:1 5:-0.481325 6:-1 7:-0.42464 8:-0.907665 9:-0.879014 10:-0.954921 11:-0.375 12:-0.987763 13:-0.970537 14:-0.946471 15:-1 16:3.00004e-12 
-32768 1:-0.944444 2:-0.935484 3:-0.614679 4:1 5:-0.481325 6:-1 7:-0.42464 8:-0.907665 9:-0.879014 10:-0.954747 11:-0.375 12:-0.987763 13:-0.970537 14:-0.946438 15:-1 16:3.00004e-12 
-32768 1:-0.944444 2:-0.935484 3:-0.614679 4:1 5:-0.481325 6:-1 7:-0.42464 8:-0.907665 9:-0.879014 10:-0.954842 11:-0.375 12:-0.987763 13:-0.970537 14:-0.946471 15:-1 16:-1 
-32768 1:-0.944444 2:-0.935484 3:-0.614679 4:1 5:-0.481325 6:-1 7:-0.42464 8:-0.907665 9:-0.879014 10:-0.954945 11:-0.375 12:-0.987763 13:-0.970537 14:-0.946536 15:-1 16:3.00004e-12 
-32768 1:-0.944444 2:-0.935484 3:-0.614679 4:1 5:-0.481325 6:-1 7:-0.42464 8:-0.907665 9:-0.879014 10:-0.954869 11:-0.375 12:-0.987763 13:-0.970537 14:-0.946504 15:-1 16:-1 
-32768 1:-0.944444 2:-0.935484 3:-0.614679 4:1 5:-0.481325 6:-1 7:-0.42464 8:-0.907665 9:-0.879014 10:-0.954877 11:-0.375 12:-0.987763 13:-0.970537 14:-0.946438 15:-1 16:3.00004e-12 
-32768 1:-0.944444 2:-0.935484 3:-0.614679 4:1 5:-0.481325 6:-1 7:-0.42464 8:-0.907665 9:-0.879014 10:-0.954862 11:-0.375 12:-0.987763 13:-0.970537 14:-0.946471 15:-1 16:-1 
-32768 1:-0.944444 2:-0.935484 3:-0.614679 4:1 5:-0.481325 6:-1 7:-0.42464 8:-0.907665 9:-0.879014 10:-0.954869 11:-0.375 12:-0.987763 13:-0.970537 14:-0.946504 15:-1 16:-1 
-32768 1:-0.944444 2:-0.935484 3:-0.614679 4:1 5:-0.481325 6:-1 7:-0.42464 8:-0.907665 9:-0.879014 10:-0.954909 11:-0.375 12:-0.987763 13:-0.970537 14:-0.946471 15:-1 16:-1 
-32768 1:-0.944444 2:-0.935484 3:-0.614679 4:1 5:-0.481325 6:-1 7:-0.42464 8:-0.907665 9:-0.879014 10:-0.954842 11:-0.375 12:-0.987763 13:-0.970537 14:-0.946471 15:-1 16:-1 
-32768 1:-0.944444 2:-0.935484 3:-0.614679 4:1 5:-0.481325 6:-1 7:-0.42464 8:-0.907665 9:-0.879014 10:-0.954921 11:-0.375 12:-0.987763 13:-0.970537 14:-0.946569 15:-1 16:-1 
-32768 1:-0.944444 2:-0.935484 3:-0.614679 4:1 5:-0.481325 6:-1 7:-0.42464 8:-0.907665 9:-0.879014 10:-0.954793 11:-0.375 12:-0.987763 13:-0.970537 14:-0.946438 15:-1 16:3.00004e-12 
-32768 1:-0.944444 2:-0.935484 3:-0.614679 4:1 5:-0.481325 6:-1 7:-0.42464 8:-0.907665 9:-0.879014 10:-0.954723 11:-0.375 12:-0.987763 13:-0.970537 14:-0.946438 15:-1 16:3.00004e-12 
-32768 1:-0.944444 2:-0.935484 3:-0.614679 4:1 5:-0.481325 6:-1 7:-0.42464 8:-0.907665 9:-0.879014 10:-0.954921 11:-0.375 12:-0.987763 13:-0.970537 14:-0.946569 15:-1 16:-1 
-32768 1:-0.944444 2:-0.935484 3:-0.614679 4:1 5:-0.481325 6:-1 7:-0.42464 8:-0.907665 9:-0.879014 10:-0.954865 11:-0.375 12:-0.987763 13:-0.970537 14:-0.946438 15:-1 16:3.00004e-12 
-32768 1:-0.944444 2:-0.935484 3:-0.614679 4:1 5:-0.481325 6:-1 7:-0.42464 8:-0.907665 9:-0.879014 10:-0.954921 11:-0.375 12:-0.987763 13:-0.970537 14:-0.946569 15:-1 16:3.00004e-12 
-32768 1:-0.944444 2:-0.935484 3:-0.614679 4:1 5:-0.481325 6:-1 7:-0.42464 8:-0.907665 9:-0.879014 10:-0.954723 11:-0.375 12:-0.987763 13:-0.970537 14:-0.946438 15:-1 16:3.00004e-12 
-1149.571023241225 1:-0.944444 2:-0.935484 3:-0.614679 4:1 5:-0.481325 6:-1 7:-0.42464 8:-0.907665 9:-0.879014 10:-0.954822 11:-0.375 12:-0.987763 13:-0.970537 14:-0.946504 15:-1 16:-1 
-32768 1:-0.944444 2:-0.935484 3:-0.614679 4:1 5:-0.481325 6:-1 7:-0.42464 8:-0.907665 9:-0.879014 10:-0.954909 11:-0.375 12:-0.987763 13:-0.970537 14:-0.946471 15:-1 16:-1 
-32768 1:-0.944444 2:-0.935484 3:-0.614679 4:1 5:-0.481325 6:-1 7:-0.42464 8:-0.907665 9:-0.879014 10:-0.954869 11:-0.375 12:-0.987763 13:-0.970537 14:-0.946504 15:-1 16:-1 
-32768 1:-0.944444 2:-0.935484 3:-0.614679 4:1 5:-0.481325 6:-1 7:-0.42464 8:-0.907665 9:-0.879014 10:-0.954842 11:-0.375 12:-0.987763 13:-0.970537 14:-0.946471 15:-1 16:-1 
-32361.64148679189 1:-0.944444 2:-0.935484 3:-0.614679 4:1 5:-0.481325 6:-1 7:-0.42464 8:-0.907665 9:-0.879014 10:-0.954994 11:-0.375 12:-0.987763 13:-0.970537 14:-0.946569 15:-1 16:1 
-32768 1:-0.944444 2:-0.935484 3:-0.614679 4:1 5:-0.481325 6:-1 7:-0.42464 8:-0.907665 9:-0.879014 10:-0.954896 11:-0.375 12:-0.987763 13:-0.970537 14:-0.946471 15:-1 16:-1 
-32768 1:-0.944444 2:-0.935484 3:-0.614679 4:1 5:-0.481325 6:-1 7:-0.42464 8:-0.907665 9:-0.879014 10:-0.954869 11:-0.375 12:-0.987763 13:-0.970537 14:-0.946504 15:-1 16:-1 
-32768 1:-0.944444 2:-0.935484 3:-0.614679 4:1 5:-0.481325 6:-1 7:-0.42464 8:-0.907665 9:-0.879014 10:-0.95477 11:-0.375 12:-0.987763 13:-0.970537 14:-0.946438 15:-1 16:1 
-32768 1:-0.944444 2:-0.935484 3:-0.614679 4:1 5:-0.481325 6:-1 7:-0.42464 8:-0.907665 9:-0.879014 10:-0.954842 11:-0.375 12:-0.987763 13:-0.970537 14:-0.946471 15:-1 16:-1 
-1108.551204041951 1:-0.944444 2:-0.935484 3:-0.614679 4:1 5:-0.481325 6:-1 7:-0.42464 8:-0.907665 9:-0.879014 10:-0.954967 11:-0.375 12:-0.987763 13:-0.970537 14:-0.946569 15:-1 16:3.00004e-12 
-68.17630403263541 1:-0.388889 2:-0.754839 3:-0.46789 4:-0.25 5:-0.0905743 6:-0.248778 7:-0.942691 8:-0.929915 9:-0.93578 10:1 11:-0.875 12:-0.981533 13:-0.986135 14:-0.948398 15:-0.503309 16:-0.957737 
-32768 1:-0.388889 2:-0.664516 3:-0.211009 4:-0.25 5:-0.0774432 6:-0.254415 7:-0.861745 8:-0.877184 9:-0.887615 10:-0.951062 11:-0.796875 12:-0.964846 13:-0.983247 14:-0.948621 15:-0.592476 16:-0.963472 
-32768 1:-0.388889 2:-0.651613 3:-0.174312 4:-0.25 5:-0.115122 6:-0.251047 7:-0.910312 8:-0.909445 9:-0.918005 10:-0.959941 11:-0.84375 12:-0.973301 13:-0.98498 14:-0.956296 15:-0.794497 16:-0.912464 
-32768 1:-0.388889 2:-0.754839 3:-0.46789 4:-0.25 5:-0.101324 6:-0.232135 7:-0.942691 8:-0.951942 9:-0.947821 10:-0.963196 11:-0.875 12:-0.990433 13:-0.986135 14:-0.95471 15:-0.725531 16:-0.908571 
-32768 1:-0.388889 2:-0.806452 3:-0.614679 4:-0.25 5:0.0409235 6:-0.339106 7:-0.926502 8:-0.937257 9:-0.936353 10:-0.962368 11:-0.859375 12:-0.986205 13:-0.985557 14:-0.954004 15:-0.520028 16:-0.951846 
-32768 1:-0.388889 2:-0.6 3:-0.0275229 4:-0.25 5:-0.158224 6:-0.196074 7:-0.942691 8:-0.927022 9:-0.932339 10:-0.954924 11:-0.875 12:-0.980421 13:-0.986135 14:-0.94659 15:-0.531174 16:-0.936637 
-32768 1:-0.388889 2:-0.722581 3:-0.376147 4:-0.25 5:0.0225565 6:-0.308 7:-0.926502 8:-0.918568 9:-0.925459 10:-0.953956 11:-0.859375 12:-0.977528 13:-0.985557 14:-0.94551 15:-0.511668 16:-0.932366 
-32768 1:-0.388889 2:-0.56129 3:0.0825688 4:-0.25 5:-0.184754 6:-0.187616 7:-0.894123 8:-0.90811 9:-0.90883 10:-0.959468 11:-0.828125 12:-0.977083 13:-0.984402 14:-0.954011 15:-0.451062 16:-0.924397 
-32768 1:-0.388889 2:-0.6 3:-0.0275229 4:-0.25 5:-0.152291 6:-0.239448 7:-0.910312 8:-0.90099 9:-0.915711 10:-0.950861 11:-0.84375 12:-0.967961 13:-0.98498 14:-0.94551 15:-0.296412 16:-0.924323 
-32768 1:-0.388889 2:-0.522581 3:0.192661 4:-0.25 5:-0.0928865 6:-0.261639 7:-0.910312 8:-0.914563 9:-0.918578 10:-0.95762 11:-0.84375 12:-0.979086 13:-0.98498 14:-0.951782 15:-0.361895 16:-0.861863 
-32768 1:0.166667 2:-0.672811 3:0.211009 4:0.25 5:-0.00844672 6:0.249589 7:0.303869 8:1 9:0.985092 10:-0.971209 11:0.328125 12:-0.541662 13:-0.921433 14:-0.963077 15:-0.209335 16:-0.970066 
-1924.686555539818 1:0.166667 2:-0.778802 3:-0.211009 4:0.25 5:-0.0163961 6:0.252208 7:-0.0684798 8:-0.678274 9:-0.935206 10:-0.969458 11:-0.845313 12:-0.999999 13:-1 14:-0.946767 15:-1 16:-1 
-32768 1:0.166667 2:-0.764977 3:-0.155963 4:0.25 5:0.0260176 6:0.214525 7:-0.0199126 8:0.494493 9:0.498853 10:-0.972114 11:0.015625 12:-0.678718 13:-0.932987 14:-0.965352 15:-0.305468 16:-0.956314 
-32768 1:0.166667 2:-0.695853 3:0.119266 4:0.25 5:-0.00433981 6:0.272765 7:0.222924 8:0.919457 9:0.882454 10:-0.981508 11:0.25 12:-0.544777 13:-0.924321 14:-0.978471 15:0.0498084 16:-0.948203 
