svm_type c_svc
kernel_type rbf
gamma 0.5
nr_class 2
total_sv 1264
rho 1.01947
label 1 0
nr_sv 631 633
SV
0.125 1:0.865383 2:-1 3:-0.750656 4:-0.103203 
0.125 1:0.865383 2:-1 3:-0.750656 4:-0.103203 
0.125 1:-0.726271 2:-1 3:-0.598783 4:-0.0735095 
0.125 1:0.747321 2:-1 3:-0.4802 4:-0.55617 
0.125 1:-0.289003 2:-0.994303 3:-0.705811 4:-0.241548 
0.125 1:-0.421495 2:-0.999086 3:-0.724598 4:-0.310318 
0.125 1:0.865383 2:-1 3:-0.750656 4:-0.103203 
0.125 1:-0.656308 2:-0.989031 3:-0.612383 4:-0.0945381 
0.125 1:-0.386076 2:-1 3:-0.730143 4:-0.319607 
0.125 1:-0.580879 2:-1 3:-0.688789 4:-0.257859 
0.125 1:-0.669426 2:-1 3:-0.685783 4:-0.248651 
0.125 1:-0.917356 2:-1 3:-0.646968 4:-0.192314 
0.125 1:-0.787488 2:-1 3:-0.674861 4:-0.229315 
0.125 1:0.865383 2:-0.910323 3:-0.750656 4:-0.103203 
0.125 1:0.747321 2:-1 3:-0.4802 4:-0.55617 
0.125 1:-0.622201 2:-0.998843 3:-0.685871 4:-0.25185 
0.125 1:0.865383 2:-1 3:-0.750656 4:-0.103203 
0.125 1:-0.673798 2:-0.974541 3:-0.608983 4:-0.0892354 
0.125 1:-0.456914 2:-0.988322 3:-0.719053 4:-0.301154 
0.125 1:-0.761252 2:-0.948042 3:-0.620402 4:-0.0941443 
0.125 1:-0.456914 2:-1 3:-0.708898 4:-0.289228 
0.125 1:0.865383 2:-0.974497 3:-0.750656 4:-0.103203 
0.125 1:-0.693038 2:-1 3:-0.674517 4:-0.234875 
0.125 1:-0.634007 2:-0.970962 3:-0.691328 4:-0.257117 
0.125 1:-0.56317 2:-0.975554 3:-0.702418 4:-0.274384 
0.125 1:-0.693038 2:-0.983776 3:-0.689312 4:-0.251086 
0.125 1:-0.498891 2:-1 3:-0.642985 4:-0.143683 
0.125 1:0.865383 2:-1 3:-0.750656 4:-0.103203 
0.125 1:-0.504139 2:-0.95192 3:-0.704794 4:-0.281155 
0.125 1:-0.669426 2:-0.956872 3:-0.685783 4:-0.248651 
0.125 1:-0.56317 2:-0.991048 3:-0.702418 4:-0.274384 
0.125 1:0.747321 2:-1 3:-0.4802 4:-0.55617 
0.125 1:0.747321 2:-1 3:-0.4802 4:-0.55617 
0.125 1:-0.787488 2:-1 3:-0.674861 4:-0.229315 
0.125 1:0.747321 2:-1 3:-0.4802 4:-0.55617 
0.125 1:-0.586345 2:-0.97265 3:-0.625984 4:-0.11606 
0.125 1:0.957316 2:1 3:-0.542314 4:-0.65834 
0.125 1:0.865383 2:-0.884942 3:-0.750656 4:-0.103203 
0.125 1:-0.393947 2:-1 3:-0.663386 4:-0.177936 
0.125 1:-0.834713 2:-0.988246 3:-0.667636 4:-0.218699 
0.125 1:-0.598588 2:-0.9665 3:-0.696873 4:-0.265694 
0.125 1:-0.551364 2:-0.934664 3:-0.710988 4:-0.285162 
0.125 1:0.865383 2:-0.884942 3:-0.750656 4:-0.103203 
0.125 1:-0.669426 2:-0.954957 3:-0.685783 4:-0.248651 
0.125 1:-0.551364 2:-0.967266 3:-0.710988 4:-0.285162 
0.125 1:0.747321 2:-1 3:-0.4802 4:-0.55617 
0.125 1:-0.8111 2:-1 3:-0.663603 4:-0.215851 
0.125 1:0.865383 2:-1 3:-0.750656 4:-0.103203 
0.125 1:-0.813724 2:-0.956369 3:-0.581782 4:-0.0478919 
0.125 1:0.747321 2:-1 3:-0.4802 4:-0.55617 
0.125 1:-0.848705 2:-0.957514 3:-0.574982 4:-0.0378464 
0.125 1:0.865383 2:-0.847548 3:-0.750656 4:-0.103203 
0.125 1:0.865383 2:-0.884942 3:-0.750656 4:-0.103203 
0.125 1:-0.669426 2:-0.99912 3:-0.685783 4:-0.248651 
0.125 1:-0.409689 2:-0.953482 3:-0.719933 4:-0.305562 
0.125 1:-0.574976 2:-0.975768 3:-0.69344 4:-0.263416 
0.125 1:-0.551364 2:-0.979224 3:-0.658361 4:-0.156857 
0.125 1:-0.669426 2:-0.933467 3:-0.685783 4:-0.248651 
0.125 1:-0.787488 2:-0.98809 3:-0.659378 4:-0.212917 
0.125 1:0.865383 2:-0.878621 3:-0.750656 4:-0.103203 
0.125 1:-0.846519 2:-1 3:-0.658058 4:-0.207907 
0.125 1:-0.551364 2:-0.998204 3:-0.697225 4:-0.269276 
0.125 1:-0.929163 2:-1 3:-0.653185 4:-0.197986 
0.125 1:0.865383 2:-0.889167 3:-0.750656 4:-0.103203 
0.125 1:-0.8111 2:-1 3:-0.663603 4:-0.215851 
0.125 1:-0.693038 2:-0.988382 3:-0.674517 4:-0.234875 
0.125 1:-0.368367 2:-0.99019 3:-0.723262 4:-0.312568 
0.125 1:0.865383 2:-0.884942 3:-0.750656 4:-0.103203 
0.125 1:-0.220789 2:-0.989116 3:-0.750211 4:-0.357154 
0.125 1:0.747321 2:-1 3:-0.4802 4:-0.55617 
0.125 1:0.747321 2:-1 3:-0.4802 4:-0.55617 
0.125 1:-0.456914 2:-0.943773 3:-0.725438 4:-0.308884 
0.125 1:-0.622201 2:-1 3:-0.685871 4:-0.25185 
0.125 1:0.865383 2:-1 3:-0.750656 4:-0.103203 
0.125 1:0.865383 2:-1 3:-0.750656 4:-0.103203 
0.125 1:0.865383 2:-0.847548 3:-0.750656 4:-0.103203 
0.125 1:0.747321 2:-1 3:-0.4802 4:-0.55617 
0.125 1:0.747321 2:-1 3:-0.4802 4:-0.55617 
0.125 1:-0.645813 2:-0.917098 3:-0.696537 4:-0.26225 
0.125 1:0.865383 2:-0.889167 3:-0.750656 4:-0.103203 
0.125 1:-0.603836 2:-0.960445 3:-0.622584 4:-0.110632 
0.125 1:0.747321 2:-0.847548 3:-0.4802 4:-0.55617 
0.125 1:0.865383 2:-0.870759 3:-0.750656 4:-0.103203 
0.125 1:0.865383 2:-1 3:-0.750656 4:-0.103203 
0.125 1:0.865383 2:-1 3:-0.750656 4:-0.103203 
0.125 1:0.747321 2:-1 3:-0.4802 4:-0.55617 
0.125 1:0.747321 2:-1 3:-0.4802 4:-0.55617 
0.125 1:-0.498891 2:-0.998528 3:-0.667851 4:-0.173211 
0.125 1:-0.693038 2:-1 3:-0.674517 4:-0.234875 
0.125 1:-0.393947 2:-0.995882 3:-0.686831 4:-0.20678 
0.125 1:0.865383 2:-1 3:-0.750656 4:-0.103203 
0.125 1:0.865383 2:-0.884942 3:-0.750656 4:-0.103203 
0.125 1:0.747321 2:-0.86815 3:-0.4802 4:-0.55617 
0.125 1:-0.622201 2:-0.977792 3:-0.685871 4:-0.25185 
0.125 1:0.865383 2:-1 3:-0.750656 4:-0.103203 
0.125 1:0.235718 2:-0.961241 3:-0.800711 4:-0.435838 
0.125 1:-0.704844 2:-0.980326 3:-0.680238 4:-0.240293 
0.125 1:-0.603836 2:-0.963297 3:-0.622584 4:-0.110632 
0.125 1:-0.456914 2:-0.964163 3:-0.725438 4:-0.308884 
0.125 1:0.747321 2:-1 3:-0.4802 4:-0.55617 
0.125 1:0.865383 2:-1 3:-0.750656 4:-0.103203 
0.125 1:0.747321 2:-1 3:-0.4802 4:-0.55617 
0.125 1:-0.831215 2:-0.928831 3:-0.578382 4:-0.042855 
0.125 1:-0.787488 2:-0.954429 3:-0.659378 4:-0.212917 
0.125 1:-0.669426 2:-0.967634 3:-0.685783 4:-0.248651 
0.125 1:-0.669426 2:-0.985476 3:-0.678302 4:-0.240484 
0.125 1:-0.56317 2:-0.993497 3:-0.702418 4:-0.274384 
0.125 1:0.865383 2:-0.870759 3:-0.750656 4:-0.103203 
0.125 1:-0.693038 2:-0.998528 3:-0.689312 4:-0.251086 
0.125 1:0.865383 2:-1 3:-0.750656 4:-0.103203 
0.125 1:0.865383 2:-1 3:-0.750656 4:-0.103203 
0.125 1:-0.669426 2:-1 3:-0.678302 4:-0.240484 
0.125 1:-0.936159 2:-0.977986 3:-0.557981 4:-0.0132195 
0.125 1:0.865383 2:-1 3:-0.750656 4:-0.103203 
0.125 1:0.747321 2:-1 3:-0.4802 4:-0.55617 
0.125 1:0.865383 2:-1 3:-0.750656 4:-0.103203 
0.125 1:-0.740263 2:-0.975462 3:-0.674693 4:-0.232042 
0.125 1:-0.527751 2:-0.99063 3:-0.707963 4:-0.283189 
0.125 1:-0.8111 2:-0.897224 3:-0.663603 4:-0.215851 
0.125 1:-0.622201 2:-0.983637 3:-0.685871 4:-0.25185 
0.125 1:-0.634007 2:-0.971728 3:-0.691328 4:-0.257117 
0.125 1:-0.0266425 2:-1 3:-0.753261 4:-0.334154 
0.125 1:0.865383 2:-0.984906 3:-0.750656 4:-0.103203 
0.125 1:0.865383 2:-0.901262 3:-0.750656 4:-0.103203 
0.125 1:0.865383 2:-0.996551 3:-0.750656 4:-0.103203 
0.125 1:-0.386076 2:-1 3:-0.730143 4:-0.319607 
0.125 1:-0.881938 2:-1 3:-0.652513 4:-0.200062 
0.125 1:0.865383 2:-1 3:-0.750656 4:-0.103203 
0.125 1:-0.8111 2:-1 3:-0.663603 4:-0.215851 
0.125 1:-0.740263 2:-0.99382 3:-0.666948 4:-0.223802 
0.125 1:-0.673798 2:-1 3:-0.608983 4:-0.0892354 
0.125 1:0.865383 2:-0.889167 3:-0.750656 4:-0.103203 
0.125 1:-0.27982 2:-0.98419 3:-0.737625 4:-0.336733 
0.125 1:0.865383 2:-1 3:-0.750656 4:-0.103203 
0.125 1:0.865383 2:-0.910323 3:-0.750656 4:-0.103203 
0.125 1:-0.693038 2:-1 3:-0.689312 4:-0.251086 
0.125 1:-0.834713 2:-1 3:-0.651809 4:-0.202216 
0.125 1:-0.341475 2:-1 3:-0.696321 4:-0.22401 
0.125 1:-0.8111 2:-0.978513 3:-0.655594 4:-0.207544 
0.125 1:0.865383 2:-1 3:-0.750656 4:-0.103203 
0.125 1:-0.669426 2:-0.99408 3:-0.685783 4:-0.248651 
0.125 1:0.865383 2:-0.866068 3:-0.750656 4:-0.103203 
0.125 1:-0.184059 2:-0.960575 3:-0.724791 4:-0.27758 
0.125 1:-0.8111 2:-1 3:-0.663603 4:-0.215851 
0.125 1:0.865383 2:-0.847548 3:-0.750656 4:-0.103203 
0.125 1:-0.693038 2:-0.975632 3:-0.689312 4:-0.251086 
0.125 1:-0.883687 2:-0.974002 3:-0.568181 4:-0.0279131 
0.125 1:0.865383 2:-0.884942 3:-0.750656 4:-0.103203 
0.125 1:-0.598588 2:-0.927428 3:-0.703762 4:-0.273607 
0.125 1:0.865383 2:-0.903983 3:-0.750656 4:-0.103203 
0.125 1:0.865383 2:-1 3:-0.750656 4:-0.103203 
0.125 1:0.747321 2:-1 3:-0.4802 4:-0.55617 
0.125 1:-0.740263 2:-0.992675 3:-0.674693 4:-0.232042 
0.125 1:0.865383 2:-1 3:-0.750656 4:-0.103203 
0.125 1:-0.220789 2:-0.994259 3:-0.761565 4:-0.372034 
0.125 1:-0.56317 2:-0.983176 3:-0.702418 4:-0.274384 
0.125 1:-0.796233 2:-1 3:-0.585182 4:-0.0529574 
0.125 1:0.938928 2:-0.812533 3:-0.68871 4:-0.626335 
0.125 1:0.865383 2:-1 3:-0.750656 4:-0.103203 
0.125 1:-0.704844 2:-1 3:-0.680238 4:-0.240293 
0.125 1:0.747321 2:-1 3:-0.4802 4:-0.55617 
0.125 1:0.865383 2:-1 3:-0.750656 4:-0.103203 
0.125 1:0.865383 2:-1 3:-0.750656 4:-0.103203 
0.125 1:-0.598588 2:-0.975179 3:-0.696873 4:-0.265694 
0.125 1:-0.498891 2:-0.972334 3:-0.667851 4:-0.173211 
0.125 1:-0.775682 2:-1 3:-0.669148 4:-0.223895 
0.125 1:0.747321 2:-1 3:-0.4802 4:-0.55617 
0.125 1:0.865383 2:-1 3:-0.750656 4:-0.103203 
0.125 1:0.865383 2:-0.874123 3:-0.750656 4:-0.103203 
0.125 1:-0.693038 2:-0.945886 3:-0.689312 4:-0.251086 
0.125 1:-0.634007 2:-0.993585 3:-0.691328 4:-0.257117 
0.125 1:-0.498891 2:-0.946953 3:-0.667851 4:-0.173211 
0.125 1:0.865383 2:-1 3:-0.750656 4:-0.103203 
0.125 1:0.747321 2:-1 3:-0.4802 4:-0.55617 
0.125 1:-0.498891 2:-0.977524 3:-0.667851 4:-0.173211 
0.125 1:-0.244402 2:-0.953234 3:-0.752323 4:-0.358062 
0.125 1:0.865383 2:-0.894457 3:-0.750656 4:-0.103203 
0.125 1:-0.952775 2:-1 3:-0.641423 4:-0.18466 
0.125 1:0.865383 2:-1 3:-0.750656 4:-0.103203 
0.125 1:-0.289003 2:-0.943773 3:-0.705811 4:-0.241548 
0.125 1:-0.704844 2:-0.974221 3:-0.680238 4:-0.240293 
0.002843715609996245 1:0.865383 2:-0.910323 3:-0.750656 4:-0.103203 
0.125 1:-0.761252 2:-0.912969 3:-0.620402 4:-0.0941443 
0.125 1:0.865383 2:-0.894457 3:-0.750656 4:-0.103203 
0.125 1:-0.492332 2:-0.996213 3:-0.713508 4:-0.292112 
0.125 1:0.747321 2:-1 3:-0.4802 4:-0.55617 
0.125 1:0.865383 2:-1 3:-0.750656 4:-0.103203 
0.125 1:-0.787488 2:-0.966635 3:-0.674861 4:-0.229315 
0.125 1:0.865383 2:-1 3:-0.750656 4:-0.103203 
0.125 1:0.747321 2:-1 3:-0.4802 4:-0.55617 
0.125 1:-0.56317 2:-0.980934 3:-0.702418 4:-0.274384 
0.125 1:-0.341475 2:-0.963235 3:-0.696321 4:-0.22401 
0.125 1:0.865383 2:-1 3:-0.750656 4:-0.103203 
0.125 1:-0.669426 2:-1 3:-0.685783 4:-0.248651 
0.125 1:0.865383 2:-1 3:-0.750656 4:-0.103203 
0.125 1:0.865383 2:-0.884942 3:-0.750656 4:-0.103203 
0.125 1:-0.551364 2:-0.975801 3:-0.710988 4:-0.285162 
0.125 1:-0.778743 2:-0.991962 3:-0.588582 4:-0.0580516 
0.125 1:-0.929163 2:-0.968286 3:-0.63667 4:-0.181347 
0.125 1:-0.393947 2:-0.983776 3:-0.686831 4:-0.20678 
0.125 1:0.865383 2:-1 3:-0.750656 4:-0.103203 
0.125 1:0.865383 2:-0.976546 3:-0.750656 4:-0.103203 
0.125 1:-0.656308 2:-0.997815 3:-0.612383 4:-0.0945381 
0.125 1:-0.551364 2:-0.991533 3:-0.658361 4:-0.156857 
0.125 1:0.865383 2:-0.903983 3:-0.750656 4:-0.103203 
0.125 1:0.865383 2:-1 3:-0.750656 4:-0.103203 
0.125 1:-0.622201 2:-1 3:-0.685871 4:-0.25185 
0.125 1:0.865383 2:-1 3:-0.750656 4:-0.103203 
0.125 1:-0.740263 2:-0.903111 3:-0.682086 4:-0.240109 
0.125 1:-0.510042 2:-1 3:-0.70028 4:-0.275602 
0.125 1:0.747321 2:-1 3:-0.4802 4:-0.55617 
0.125 1:-0.787488 2:-1 3:-0.674861 4:-0.229315 
0.125 1:-0.8111 2:-1 3:-0.655594 4:-0.207544 
0.125 1:-0.976388 2:-0.917539 3:-0.64596 4:-0.18788 
0.125 1:0.865383 2:-0.903983 3:-0.750656 4:-0.103203 
0.125 1:-0.244402 2:-0.995541 3:-0.743371 4:-0.346639 
0.125 1:0.865383 2:-0.847548 3:-0.750656 4:-0.103203 
0.125 1:-0.988194 2:-1 3:-0.635878 4:-0.177101 
0.125 1:0.747321 2:-1 3:-0.4802 4:-0.55617 
0.125 1:0.747321 2:-1 3:-0.4802 4:-0.55617 
0.125 1:-0.551364 2:-0.998926 3:-0.710988 4:-0.285162 
0.125 1:-0.244402 2:-0.94197 3:-0.752323 4:-0.358062 
0.125 1:0.747321 2:-1 3:-0.4802 4:-0.55617 
0.125 1:-0.268014 2:-0.968978 3:-0.742641 4:-0.343893 
0.125 1:0.747321 2:-0.867707 3:-0.4802 4:-0.55617 
0.125 1:-0.763876 2:-0.995201 3:-0.663163 4:-0.218337 
0.125 1:-0.669426 2:-1 3:-0.678302 4:-0.240484 
0.125 1:-0.56317 2:-0.970318 3:-0.702418 4:-0.274384 
0.125 1:-0.669426 2:-1 3:-0.685783 4:-0.248651 
0.125 1:0.865383 2:-1 3:-0.750656 4:-0.103203 
0.125 1:0.865383 2:-1 3:-0.750656 4:-0.103203 
0.125 1:-0.693038 2:-1 3:-0.689312 4:-0.251086 
0.125 1:-0.881938 2:-0.982124 3:-0.652513 4:-0.200062 
0.125 1:-0.504139 2:-0.990158 3:-0.704794 4:-0.281155 
0.125 1:-0.456914 2:-0.999104 3:-0.725438 4:-0.308884 
0.125 1:0.865383 2:-1 3:-0.750656 4:-0.103203 
0.125 1:-0.236531 2:-0.961655 3:-0.715301 4:-0.259402 
0.125 1:-0.551364 2:-0.924942 3:-0.658361 4:-0.156857 
0.125 1:-0.403786 2:-1 3:-0.717516 4:-0.303135 
0.125 1:-0.952775 2:-1 3:-0.641423 4:-0.18466 
0.125 1:0.865383 2:-0.866068 3:-0.750656 4:-0.103203 
0.125 1:-0.350658 2:-0.997778 3:-0.726135 4:-0.317334 
0.125 1:-0.492332 2:-1 3:-0.703153 4:-0.280113 
0.125 1:-0.598588 2:-1 3:-0.689656 4:-0.257607 
0.125 1:0.747321 2:-1 3:-0.4802 4:-0.55617 
0.125 1:0.747321 2:-1 3:-0.4802 4:-0.55617 
0.125 1:-0.603836 2:-0.956791 3:-0.648871 4:-0.140781 
0.125 1:-0.46391 2:-0.986054 3:-0.649785 4:-0.154964 
0.125 1:-0.527751 2:-0.976527 3:-0.707963 4:-0.283189 
0.125 1:-0.598588 2:-0.96992 3:-0.703762 4:-0.273607 
0.125 1:-0.527751 2:-1 3:-0.70101 4:-0.275189 
0.125 1:0.865383 2:-1 3:-0.750656 4:-0.103203 
0.125 1:-0.433301 2:-0.993684 3:-0.716148 4:-0.299377 
0.125 1:-0.492332 2:-0.989003 3:-0.713508 4:-0.292112 
0.125 1:-0.510042 2:-0.9974 3:-0.70028 4:-0.275602 
0.125 1:-0.90555 2:-1 3:-0.640455 4:-0.186499 
0.125 1:-0.693038 2:-0.966003 3:-0.689312 4:-0.251086 
0.125 1:0.865383 2:-1 3:-0.750656 4:-0.103203 
0.125 1:-0.8111 2:-0.993517 3:-0.663603 4:-0.215851 
0.125 1:0.747321 2:-1 3:-0.4802 4:-0.55617 
0.125 1:-0.669426 2:-1 3:-0.685783 4:-0.248651 
0.125 1:0.865383 2:-1 3:-0.750656 4:-0.103203 
0.125 1:-0.740263 2:-0.940625 3:-0.674693 4:-0.232042 
0.125 1:-0.155855 2:-0.996651 3:-0.757734 4:-0.372034 
0.125 1:-0.362464 2:-0.937599 3:-0.739889 4:-0.333462 
0.125 1:-0.236531 2:-0.92388 3:-0.715301 4:-0.259402 
0.125 1:0.130774 2:-0.937599 3:-0.781731 4:-0.393991 
0.125 1:0.747321 2:-1 3:-0.4802 4:-0.55617 
0.125 1:-0.716651 2:-1 3:-0.670732 4:-0.229315 
0.125 1:-0.834713 2:-0.975782 3:-0.667636 4:-0.218699 
0.125 1:0.865383 2:-1 3:-0.750656 4:-0.103203 
0.125 1:-0.492332 2:-0.999364 3:-0.713508 4:-0.292112 
0.125 1:0.865383 2:-1 3:-0.750656 4:-0.103203 
0.125 1:-0.208983 2:-0.994916 3:-0.757868 4:-0.368014 
0.125 1:0.865383 2:-1 3:-0.750656 4:-0.103203 
0.125 1:0.865383 2:-1 3:-0.750656 4:-0.103203 
0.125 1:0.865383 2:-1 3:-0.750656 4:-0.103203 
0.125 1:-0.598588 2:-0.983507 3:-0.696873 4:-0.265694 
0.125 1:-0.740263 2:-1 3:-0.674693 4:-0.232042 
0.125 1:-0.598588 2:-0.996067 3:-0.696873 4:-0.265694 
0.125 1:-0.393947 2:-1 3:-0.663386 4:-0.177936 
0.125 1:0.865383 2:-0.884942 3:-0.750656 4:-0.103203 
0.125 1:-0.693038 2:-0.982432 3:-0.674517 4:-0.234875 
0.125 1:0.747321 2:-1 3:-0.4802 4:-0.55617 
0.125 1:-0.456914 2:-0.947674 3:-0.725438 4:-0.308884 
0.125 1:0.865383 2:-1 3:-0.750656 4:-0.103203 
0.125 1:0.865383 2:-0.847548 3:-0.750656 4:-0.103203 
0.125 1:-0.480526 2:-1 3:-0.708579 4:-0.287174 
0.125 1:-0.56317 2:-0.924352 3:-0.702418 4:-0.274384 
0.125 1:0.865383 2:-1 3:-0.750656 4:-0.103203 
0.125 1:-0.504139 2:-0.964562 3:-0.704794 4:-0.281155 
0.125 1:0.747321 2:-1 3:-0.4802 4:-0.55617 
0.125 1:-0.456914 2:-0.932537 3:-0.725438 4:-0.308884 
0.125 1:-0.480526 2:-0.977333 3:-0.708579 4:-0.287174 
0.125 1:-0.787488 2:-0.997754 3:-0.659378 4:-0.212917 
0.125 1:0.865383 2:-1 3:-0.750656 4:-0.103203 
0.125 1:0.865383 2:-0.847548 3:-0.750656 4:-0.103203 
0.125 1:0.865383 2:-0.870759 3:-0.750656 4:-0.103203 
0.125 1:-0.8111 2:-0.914302 3:-0.663603 4:-0.215851 
0.125 1:-0.598588 2:-0.974387 3:-0.689656 4:-0.257607 
0.125 1:0.235718 2:-0.937402 3:-0.800711 4:-0.435838 
0.125 1:-0.456914 2:-1 3:-0.725438 4:-0.308884 
0.125 1:0.747321 2:-0.864255 3:-0.4802 4:-0.55617 
0.125 1:-0.787488 2:-1 3:-0.674861 4:-0.229315 
0.125 1:0.865383 2:-1 3:-0.750656 4:-0.103203 
0.125 1:-0.669426 2:-0.959565 3:-0.685783 4:-0.248651 
0.125 1:0.865383 2:-0.987504 3:-0.750656 4:-0.103203 
0.125 1:0.747321 2:-1 3:-0.4802 4:-0.55617 
0.125 1:0.747321 2:-1 3:-0.4802 4:-0.55617 
0.125 1:-0.131587 2:-0.994259 3:-0.734281 4:-0.296092 
0.125 1:-0.693038 2:-0.980016 3:-0.674517 4:-0.234875 
0.125 1:-0.598588 2:-0.98085 3:-0.689656 4:-0.257607 
0.125 1:0.747321 2:-1 3:-0.4802 4:-0.55617 
0.125 1:0.747321 2:-0.958797 3:-0.4802 4:-0.55617 
0.125 1:-0.510042 2:-0.970116 3:-0.70028 4:-0.275602 
0.125 1:0.865383 2:-1 3:-0.750656 4:-0.103203 
0.125 1:0.865383 2:-0.903983 3:-0.750656 4:-0.103203 
0.125 1:-1 2:-1 3:-0.625316 4:-0.166144 
0.125 1:0.747321 2:-0.922918 3:-0.4802 4:-0.55617 
0.125 1:0.865383 2:-1 3:-0.750656 4:-0.103203 
0.125 1:-0.289003 2:-0.909643 3:-0.705811 4:-0.241548 
0.125 1:0.865383 2:-0.889167 3:-0.750656 4:-0.103203 
0.125 1:0.747321 2:-1 3:-0.4802 4:-0.55617 
0.125 1:0.865383 2:-1 3:-0.750656 4:-0.103203 
0.125 1:-0.350658 2:-0.997169 3:-0.735688 4:-0.329023 
0.125 1:-0.673798 2:-0.998205 3:-0.608983 4:-0.0892354 
0.125 1:-0.645813 2:-0.970962 3:-0.682086 4:-0.246142 
0.125 1:-0.603836 2:-0.967706 3:-0.648871 4:-0.140781 
0.125 1:0.865383 2:-1 3:-0.750656 4:-0.103203 
0.125 1:0.865383 2:-0.874123 3:-0.750656 4:-0.103203 
0.125 1:-0.70878 2:-0.978131 3:-0.602183 4:-0.0787213 
0.125 1:-0.598588 2:-0.92388 3:-0.703762 4:-0.273607 
0.125 1:-0.763876 2:-0.97425 3:-0.663163 4:-0.218337 
0.125 1:0.747321 2:-1 3:-0.4802 4:-0.55617 
0.125 1:-0.8111 2:-0.991087 3:-0.663603 4:-0.215851 
0.125 1:-0.166568 2:-0.989065 3:-0.707587 4:-0.256598 
0.125 1:0.865383 2:-0.984906 3:-0.750656 4:-0.103203 
0.125 1:-0.504139 2:-0.952847 3:-0.704794 4:-0.281155 
0.125 1:-0.656308 2:-0.983643 3:-0.639381 4:-0.124974 
0.125 1:-0.691289 2:-0.977738 3:-0.605583 4:-0.0839632 
0.125 1:0.0783017 2:-0.991788 3:-0.772241 4:-0.373665 
0.125 1:-0.8111 2:-0.959735 3:-0.655594 4:-0.207544 
0.125 1:0.747321 2:-0.910323 3:-0.4802 4:-0.55617 
0.125 1:-0.492332 2:-0.990478 3:-0.713508 4:-0.292112 
0.125 1:-0.8111 2:-0.961953 3:-0.655594 4:-0.207544 
0.125 1:-0.332948 2:-0.993325 3:-0.729007 4:-0.322132 
0.125 1:0.747321 2:-1 3:-0.4802 4:-0.55617 
0.125 1:-0.834713 2:-1 3:-0.651809 4:-0.202216 
0.125 1:0.865383 2:-1 3:-0.750656 4:-0.103203 
0.125 1:-0.858325 2:-1 3:-0.648024 4:-0.196933 
0.125 1:-0.184059 2:-0.997319 3:-0.724791 4:-0.27758 
0.125 1:-0.634007 2:-1 3:-0.691328 4:-0.257117 
0.125 1:-0.740263 2:-1 3:-0.666948 4:-0.223802 
0.125 1:-0.0673084 2:-1 3:-0.772098 4:-0.398366 
0.00703388416572915 1:0.865383 2:-0.910323 3:-0.750656 4:-0.103203 
0.125 1:-0.0791146 2:-0.984608 3:-0.743771 4:-0.314947 
0.125 1:0.865383 2:-0.889167 3:-0.750656 4:-0.103203 
0.125 1:-0.341475 2:-0.930616 3:-0.696321 4:-0.22401 
0.125 1:-0.456914 2:-0.962354 3:-0.725438 4:-0.308884 
0.125 1:0.865383 2:-0.847548 3:-0.750656 4:-0.103203 
0.125 1:-0.634007 2:-0.973009 3:-0.691328 4:-0.257117 
0.125 1:-0.726271 2:-1 3:-0.598783 4:-0.0735095 
0.125 1:-0.236531 2:-0.99889 3:-0.715301 4:-0.259402 
0.125 1:-0.929163 2:-0.977986 3:-0.63667 4:-0.181347 
0.125 1:0.865383 2:-0.996551 3:-0.750656 4:-0.103203 
0.125 1:-0.645813 2:-0.998219 3:-0.682086 4:-0.246142 
0.125 1:-0.289003 2:-0.906683 3:-0.705811 4:-0.241548 
0.125 1:0.865383 2:-1 3:-0.750656 4:-0.103203 
0.125 1:0.747321 2:-1 3:-0.4802 4:-0.55617 
0.125 1:-0.669426 2:-0.998313 3:-0.685783 4:-0.248651 
0.125 1:0.00352891 2:-0.993059 3:-0.783589 4:-0.420142 
0.125 1:0.747321 2:-0.870759 3:-0.4802 4:-0.55617 
0.125 1:-0.598588 2:-1 3:-0.696873 4:-0.265694 
0.125 1:0.865383 2:-1 3:-0.750656 4:-0.103203 
0.125 1:0.865383 2:-1 3:-0.750656 4:-0.103203 
0.125 1:0.865383 2:-1 3:-0.750656 4:-0.103203 
0.125 1:-0.693038 2:-0.975878 3:-0.674517 4:-0.234875 
0.125 1:0.747321 2:-1 3:-0.4802 4:-0.55617 
0.125 1:-0.551364 2:-1 3:-0.658361 4:-0.156857 
0.125 1:-0.498891 2:-0.919115 3:-0.667851 4:-0.173211 
0.125 1:-0.716651 2:-1 3:-0.670732 4:-0.229315 
0.125 1:-0.456914 2:-0.964259 3:-0.719053 4:-0.301154 
0.125 1:-0.8111 2:-0.989442 3:-0.655594 4:-0.207544 
0.125 1:-0.131587 2:-0.969928 3:-0.734281 4:-0.296092 
0.125 1:0.747321 2:-1 3:-0.4802 4:-0.55617 
0.125 1:-0.831215 2:-0.959195 3:-0.578382 4:-0.042855 
0.125 1:-0.634007 2:-0.950495 3:-0.691328 4:-0.257117 
0.125 1:0.340662 2:-0.965047 3:-0.819691 4:-0.479359 
0.125 1:0.747321 2:-1 3:-0.4802 4:-0.55617 
0.125 1:-0.102727 2:-0.9326 3:-0.774503 4:-0.39873 
0.125 1:0.865383 2:-1 3:-0.750656 4:-0.103203 
0.125 1:0.865383 2:-1 3:-0.750656 4:-0.103203 
0.125 1:-0.0791146 2:-0.917225 3:-0.743771 4:-0.314947 
0.125 1:-0.740263 2:-0.939849 3:-0.682086 4:-0.240109 
0.125 1:0.747321 2:-1 3:-0.4802 4:-0.55617 
0.125 1:0.865383 2:-0.894457 3:-0.750656 4:-0.103203 
0.125 1:-0.386076 2:-0.989884 3:-0.723718 4:-0.311804 
0.125 1:-0.480526 2:-0.983303 3:-0.708579 4:-0.287174 
0.125 1:0.865383 2:-0.884942 3:-0.750656 4:-0.103203 
0.125 1:-0.341475 2:-0.984749 3:-0.696321 4:-0.22401 
0.125 1:0.747321 2:-1 3:-0.4802 4:-0.55617 
0.125 1:-0.191274 2:-1 3:-0.751989 4:-0.361767 
0.125 1:0.747321 2:-1 3:-0.4802 4:-0.55617 
0.125 1:0.747321 2:-1 3:-0.4802 4:-0.55617 
0.125 1:-0.704844 2:-1 3:-0.680238 4:-0.240293 
0.125 1:-0.527751 2:-0.964706 3:-0.70101 4:-0.275189 
0.125 1:-0.574976 2:-1 3:-0.69344 4:-0.263416 
0.125 1:-0.621326 2:-1 3:-0.619184 4:-0.105236 
0.125 1:0.865383 2:-1 3:-0.750656 4:-0.103203 
0.125 1:-0.638817 2:-1 3:-0.615783 4:-0.0998717 
0.125 1:0.747321 2:-1 3:-0.4802 4:-0.55617 
0.125 1:-0.634007 2:-0.989766 3:-0.691328 4:-0.257117 
0.125 1:0.865383 2:-1 3:-0.750656 4:-0.103203 
0.125 1:-0.673798 2:-0.953475 3:-0.608983 4:-0.0892354 
0.125 1:-0.761252 2:-0.896922 3:-0.620402 4:-0.0941443 
0.125 1:-0.917356 2:-1 3:-0.646968 4:-0.192314 
0.125 1:0.747321 2:-1 3:-0.4802 4:-0.55617 
0.125 1:-0.669426 2:-0.992236 3:-0.685783 4:-0.248651 
0.125 1:0.865383 2:-0.847548 3:-0.750656 4:-0.103203 
0.125 1:0.95188 2:-1 3:-0.778123 4:-0.448771 
0.125 1:0.747321 2:-1 3:-0.4802 4:-0.55617 
0.125 1:-0.622201 2:-1 3:-0.685871 4:-0.25185 
0.125 1:0.747321 2:-1 3:-0.4802 4:-0.55617 
0.125 1:-0.778743 2:-1 3:-0.588582 4:-0.0580516 
0.125 1:-0.289003 2:-0.947674 3:-0.705811 4:-0.241548 
0.125 1:0.865383 2:-0.866068 3:-0.750656 4:-0.103203 
0.125 1:-0.693038 2:-0.959357 3:-0.674517 4:-0.234875 
0.125 1:-0.315239 2:-0.970381 3:-0.741233 4:-0.338569 
0.125 1:-0.8111 2:-1 3:-0.655594 4:-0.207544 
0.125 1:0.865383 2:-0.894457 3:-0.750656 4:-0.103203 
0.125 1:-0.0266425 2:-0.917992 3:-0.753261 4:-0.334154 
0.125 1:-0.669426 2:-1 3:-0.685783 4:-0.248651 
0.125 1:0.865383 2:-1 3:-0.750656 4:-0.103203 
0.125 1:0.747321 2:-1 3:-0.4802 4:-0.55617 
0.125 1:0.747321 2:-0.847548 3:-0.4802 4:-0.55617 
0.125 1:-0.393947 2:-0.927428 3:-0.686831 4:-0.20678 
0.125 1:-0.70878 2:-0.992232 3:-0.629892 4:-0.109431 
0.125 1:0.865383 2:-1 3:-0.750656 4:-0.103203 
0.125 1:-0.740263 2:-1 3:-0.682086 4:-0.240109 
0.125 1:-0.492332 2:-0.998315 3:-0.713508 4:-0.292112 
0.125 1:0.865383 2:-0.870759 3:-0.750656 4:-0.103203 
0.125 1:-0.551364 2:-0.944237 3:-0.710988 4:-0.285162 
0.125 1:0.865383 2:-1 3:-0.750656 4:-0.103203 
0.125 1:-0.362464 2:-0.966393 3:-0.739889 4:-0.333462 
0.125 1:0.865383 2:-0.847548 3:-0.750656 4:-0.103203 
0.125 1:-0.598588 2:-1 3:-0.696873 4:-0.265694 
0.125 1:0.747321 2:-1 3:-0.4802 4:-0.55617 
0.125 1:0.865383 2:-1 3:-0.750656 4:-0.103203 
0.125 1:0.865383 2:-0.870759 3:-0.750656 4:-0.103203 
0.125 1:-0.480526 2:-0.954185 3:-0.708579 4:-0.287174 
0.125 1:-0.598588 2:-0.967577 3:-0.696873 4:-0.265694 
0.125 1:-0.492332 2:-0.994638 3:-0.713508 4:-0.292112 
0.125 1:0.747321 2:-1 3:-0.4802 4:-0.55617 
0.125 1:0.865383 2:-0.903983 3:-0.750656 4:-0.103203 
0.125 1:-0.498891 2:-0.977317 3:-0.667851 4:-0.173211 
0.125 1:-0.56317 2:-0.957471 3:-0.702418 4:-0.274384 
0.125 1:-0.669426 2:-0.972986 3:-0.685783 4:-0.248651 
0.125 1:-0.56317 2:-0.923596 3:-0.702418 4:-0.274384 
0.125 1:-0.669426 2:-0.979822 3:-0.685783 4:-0.248651 
0.125 1:-0.787488 2:-0.976525 3:-0.659378 4:-0.212917 
0.125 1:-0.775682 2:-0.934675 3:-0.669148 4:-0.223895 
0.125 1:-0.323984 2:-1 3:-0.676986 4:-0.201472 
0.125 1:-0.645813 2:-1 3:-0.682086 4:-0.246142 
0.125 1:0.865383 2:-1 3:-0.750656 4:-0.103203 
0.125 1:0.865383 2:-1 3:-0.750656 4:-0.103203 
0.125 1:0.865383 2:-0.974497 3:-0.750656 4:-0.103203 
0.125 1:0.747321 2:-1 3:-0.4802 4:-0.55617 
0.125 1:-0.634007 2:-0.926645 3:-0.691328 4:-0.257117 
0.125 1:-0.498891 2:-1 3:-0.667851 4:-0.173211 
0.125 1:0.865383 2:-1 3:-0.750656 4:-0.103203 
0.125 1:-0.740263 2:-0.973778 3:-0.674693 4:-0.232042 
0.125 1:0.973021 2:-0.990817 3:0.943715 4:-0.539152 
0.125 1:-0.598588 2:-0.977784 3:-0.696873 4:-0.265694 
0.125 1:-0.90555 2:-0.932019 3:-0.640455 4:-0.186499 
0.125 1:-0.393947 2:-1 3:-0.686831 4:-0.20678 
0.125 1:0.865383 2:-0.866068 3:-0.750656 4:-0.103203 
0.125 1:0.865383 2:-1 3:-0.750656 4:-0.103203 
0.125 1:0.865383 2:-1 3:-0.750656 4:-0.103203 
0.125 1:0.865383 2:-1 3:-0.750656 4:-0.103203 
0.125 1:0.747321 2:-1 3:-0.4802 4:-0.55617 
0.125 1:-0.881938 2:-0.881904 3:-0.66041 4:-0.208258 
0.125 1:0.865383 2:-1 3:-0.750656 4:-0.103203 
0.125 1:0.747321 2:-0.884942 3:-0.4802 4:-0.55617 
0.125 1:-0.787488 2:-1 3:-0.659378 4:-0.212917 
0.125 1:0.865383 2:-0.884942 3:-0.750656 4:-0.103203 
0.125 1:-0.929163 2:-1 3:-0.653185 4:-0.197986 
0.125 1:0.747321 2:-1 3:-0.4802 4:-0.55617 
0.125 1:0.747321 2:-1 3:-0.4802 4:-0.55617 
0.125 1:-0.551364 2:-0.946953 3:-0.710988 4:-0.285162 
0.125 1:0.865383 2:-1 3:-0.750656 4:-0.103203 
0.125 1:0.747321 2:-1 3:-0.4802 4:-0.55617 
0.125 1:-0.498891 2:-0.892347 3:-0.667851 4:-0.173211 
0.125 1:-0.393947 2:-0.947911 3:-0.686831 4:-0.20678 
0.125 1:-0.341475 2:-1 3:-0.696321 4:-0.22401 
0.125 1:-0.527751 2:-0.990629 3:-0.70101 4:-0.275189 
0.125 1:0.865383 2:-0.894457 3:-0.750656 4:-0.103203 
0.125 1:0.865383 2:-1 3:-0.750656 4:-0.103203 
0.125 1:0.747321 2:-1 3:-0.4802 4:-0.55617 
0.125 1:0.865383 2:-0.870759 3:-0.750656 4:-0.103203 
0.125 1:-0.8111 2:-0.998953 3:-0.663603 4:-0.215851 
0.125 1:-0.634007 2:-0.921004 3:-0.691328 4:-0.257117 
0.125 1:-0.622201 2:-0.953244 3:-0.685871 4:-0.25185 
0.125 1:-0.669426 2:-0.995628 3:-0.685783 4:-0.248651 
0.125 1:-0.634007 2:-0.95285 3:-0.691328 4:-0.257117 
0.125 1:-0.638817 2:-0.978254 3:-0.615783 4:-0.0998717 
0.125 1:-0.551364 2:-0.970379 3:-0.632784 4:-0.127012 
0.125 1:-0.208983 2:-0.965457 3:-0.757868 4:-0.368014 
0.125 1:-0.54546 2:-1 3:-0.694535 4:-0.266671 
0.125 1:-0.603836 2:-0.976838 3:-0.622584 4:-0.110632 
0.125 1:-0.669426 2:-1 3:-0.678302 4:-0.240484 
0.125 1:0.865383 2:-0.847548 3:-0.750656 4:-0.103203 
0.125 1:-0.551364 2:-0.931346 3:-0.710988 4:-0.285162 
0.125 1:-0.56317 2:-1 3:-0.702418 4:-0.274384 
0.125 1:-0.778743 2:-0.980209 3:-0.588582 4:-0.0580516 
0.125 1:0.865383 2:-1 3:-0.750656 4:-0.103203 
0.125 1:-0.551364 2:-0.964325 3:-0.658361 4:-0.156857 
0.125 1:0.865383 2:-0.866068 3:-0.750656 4:-0.103203 
0.125 1:0.865383 2:-1 3:-0.750656 4:-0.103203 
0.125 1:-0.846519 2:-1 3:-0.658058 4:-0.207907 
0.125 1:0.865383 2:-0.884942 3:-0.750656 4:-0.103203 
0.125 1:0.865383 2:-1 3:-0.750656 4:-0.103203 
0.125 1:0.865383 2:-0.901262 3:-0.750656 4:-0.103203 
0.125 1:0.747321 2:-1 3:-0.4802 4:-0.55617 
0.125 1:0.0389476 2:-0.995301 3:-0.796683 4:-0.441808 
0.125 1:-0.645813 2:-0.978387 3:-0.682086 4:-0.246142 
0.125 1:-0.634007 2:-0.996704 3:-0.691328 4:-0.257117 
0.125 1:-0.131587 2:-0.972777 3:-0.734281 4:-0.296092 
0.125 1:-0.691289 2:-1 3:-0.605583 4:-0.0839632 
0.125 1:0.865383 2:-0.866068 3:-0.750656 4:-0.103203 
0.125 1:-0.598588 2:-0.998616 3:-0.689656 4:-0.257607 
0.125 1:0.865383 2:-1 3:-0.750656 4:-0.103203 
0.125 1:0.747321 2:-1 3:-0.4802 4:-0.55617 
0.125 1:0.865383 2:-0.870759 3:-0.750656 4:-0.103203 
0.125 1:-0.634007 2:-0.964535 3:-0.691328 4:-0.257117 
0.125 1:0.865383 2:-1 3:-0.750656 4:-0.103203 
0.125 1:0.865383 2:-0.86815 3:-0.750656 4:-0.103203 
0.125 1:0.865383 2:-1 3:-0.750656 4:-0.103203 
0.125 1:0.865383 2:-1 3:-0.750656 4:-0.103203 
0.125 1:0.865383 2:-1 3:-0.750656 4:-0.103203 
0.125 1:-0.598588 2:-0.96657 3:-0.689656 4:-0.257607 
0.125 1:0.865383 2:-0.884942 3:-0.750656 4:-0.103203 
0.125 1:-0.656308 2:-0.97428 3:-0.639381 4:-0.124974 
0.125 1:0.865383 2:-0.903983 3:-0.750656 4:-0.103203 
0.125 1:0.865383 2:-0.996551 3:-0.750656 4:-0.103203 
0.125 1:-0.516382 2:-0.953506 3:-0.639584 4:-0.138093 
0.125 1:0.865383 2:-1 3:-0.750656 4:-0.103203 
0.125 1:-0.498891 2:-0.965662 3:-0.667851 4:-0.173211 
0.125 1:-0.693038 2:-0.964325 3:-0.689312 4:-0.251086 
0.125 1:0.747321 2:-1 3:-0.4802 4:-0.55617 
0.125 1:-0.56317 2:-0.938645 3:-0.702418 4:-0.274384 
0.125 1:-0.704844 2:-0.972715 3:-0.680238 4:-0.240293 
0.125 1:-0.56317 2:-1 3:-0.702418 4:-0.274384 
0.125 1:0.865383 2:-0.889167 3:-0.750656 4:-0.103203 
0.125 1:-0.341475 2:-0.955197 3:-0.696321 4:-0.22401 
0.125 1:-0.456914 2:-0.997797 3:-0.712364 4:-0.293248 
0.125 1:0.865383 2:-1 3:-0.750656 4:-0.103203 
0.125 1:0.865383 2:-0.903983 3:-0.750656 4:-0.103203 
0.125 1:-0.551364 2:-1 3:-0.658361 4:-0.156857 
0.125 1:0.747321 2:-1 3:-0.4802 4:-0.55617 
0.125 1:-0.393947 2:-0.989884 3:-0.663386 4:-0.177936 
0.125 1:-0.834713 2:-1 3:-0.651809 4:-0.202216 
0.125 1:0.747321 2:-1 3:-0.4802 4:-0.55617 
0.125 1:-0.763876 2:-0.98768 3:-0.663163 4:-0.218337 
0.125 1:0.747321 2:-0.874123 3:-0.4802 4:-0.55617 
0.125 1:0.865383 2:-1 3:-0.750656 4:-0.103203 
0.125 1:0.865383 2:-0.847548 3:-0.750656 4:-0.103203 
0.125 1:-0.568854 2:-0.948135 3:-0.629384 4:-0.12152 
0.125 1:0.865383 2:-1 3:-0.750656 4:-0.103203 
0.125 1:-0.586345 2:-0.975768 3:-0.625984 4:-0.11606 
0.125 1:-0.693038 2:-0.972334 3:-0.689312 4:-0.251086 
0.125 1:-0.881938 2:-0.913986 3:-0.66041 4:-0.208258 
0.125 1:-0.634007 2:-1 3:-0.691328 4:-0.257117 
0.125 1:0.865383 2:-0.874123 3:-0.750656 4:-0.103203 
0.125 1:0.865383 2:-0.884942 3:-0.750656 4:-0.103203 
0.125 1:-0.669426 2:-0.954304 3:-0.685783 4:-0.248651 
0.125 1:0.865383 2:-1 3:-0.750656 4:-0.103203 
0.125 1:-0.551364 2:-0.989034 3:-0.710988 4:-0.285162 
0.125 1:-0.704844 2:-1 3:-0.680238 4:-0.240293 
0.125 1:0.865383 2:-0.884942 3:-0.750656 4:-0.103203 
0.125 1:-0.645813 2:-0.965662 3:-0.696537 4:-0.26225 
0.125 1:-0.704844 2:-0.963946 3:-0.680238 4:-0.240293 
0.125 1:-0.56317 2:-0.919839 3:-0.702418 4:-0.274384 
0.125 1:0.865383 2:-1 3:-0.750656 4:-0.103203 
0.125 1:-0.56317 2:-1 3:-0.702418 4:-0.274384 
0.125 1:-0.551364 2:-0.945886 3:-0.658361 4:-0.156857 
0.125 1:0.984259 2:-0.993727 3:-0.726594 4:-0.513833 
0.125 1:0.865383 2:-1 3:-0.750656 4:-0.103203 
0.125 1:-0.622201 2:-0.968389 3:-0.685871 4:-0.25185 
0.125 1:-0.691289 2:-0.939997 3:-0.605583 4:-0.0839632 
0.125 1:-0.778743 2:-0.98997 3:-0.588582 4:-0.0580516 
0.125 1:-0.634007 2:-0.979406 3:-0.691328 4:-0.257117 
0.125 1:-0.693038 2:-1 3:-0.674517 4:-0.234875 
0.125 1:0.940279 2:-0.580118 3:-0.63012 4:-0.71361 
0.125 1:-0.56317 2:-0.968228 3:-0.702418 4:-0.274384 
0.125 1:-0.598588 2:-0.975643 3:-0.696873 4:-0.265694 
0.125 1:-0.656308 2:-0.989971 3:-0.612383 4:-0.0945381 
0.125 1:-0.740263 2:-1 3:-0.674693 4:-0.232042 
0.125 1:0.747321 2:-1 3:-0.4802 4:-0.55617 
0.125 1:0.954327 2:-0.236464 3:-0.708579 4:-0.61703 
0.125 1:0.865383 2:-1 3:-0.750656 4:-0.103203 
0.125 1:-0.492332 2:-0.975411 3:-0.713508 4:-0.292112 
0.125 1:-0.386076 2:-0.975939 3:-0.720389 4:-0.307835 
0.125 1:0.747321 2:-1 3:-0.4802 4:-0.55617 
0.125 1:-0.0441332 2:-1 3:-0.731388 4:-0.301688 
0.125 1:-0.598588 2:-1 3:-0.689656 4:-0.257607 
0.125 1:-0.56317 2:-1 3:-0.702418 4:-0.274384 
0.125 1:0.865383 2:-0.847548 3:-0.750656 4:-0.103203 
0.125 1:-0.834713 2:-0.965479 3:-0.667636 4:-0.218699 
0.125 1:0.865383 2:-1 3:-0.750656 4:-0.103203 
0.125 1:-0.656308 2:-1 3:-0.612383 4:-0.0945381 
0.125 1:0.865383 2:-0.847548 3:-0.750656 4:-0.103203 
0.125 1:0.865383 2:-0.903983 3:-0.750656 4:-0.103203 
0.125 1:-0.603836 2:-0.983637 3:-0.622584 4:-0.110632 
0.125 1:0.747321 2:-1 3:-0.4802 4:-0.55617 
0.125 1:-0.27982 2:-0.956164 3:-0.746778 4:-0.348248 
0.125 1:-0.858325 2:-1 3:-0.648024 4:-0.196933 
0.125 1:-0.669426 2:-1 3:-0.678302 4:-0.240484 
0.125 1:-0.0850178 2:-1 3:-0.769225 4:-0.393023 
0.125 1:-0.409689 2:-1 3:-0.732663 4:-0.321063 
0.125 1:-0.704844 2:-1 3:-0.680238 4:-0.240293 
0.125 1:-0.568854 2:-0.952005 3:-0.629384 4:-0.12152 
0.125 1:0.747321 2:-1 3:-0.4802 4:-0.55617 
0.125 1:-0.634007 2:-1 3:-0.691328 4:-0.257117 
0.125 1:-0.498891 2:-0.926336 3:-0.667851 4:-0.173211 
0.125 1:0.865383 2:-1 3:-0.750656 4:-0.103203 
0.125 1:-0.716651 2:-0.964417 3:-0.670732 4:-0.229315 
0.125 1:0.865383 2:-1 3:-0.750656 4:-0.103203 
0.125 1:-0.693038 2:-0.970379 3:-0.674517 4:-0.234875 
0.125 1:-0.0141804 2:-1 3:-0.780716 4:-0.414637 
0.125 1:0.865383 2:-1 3:-0.750656 4:-0.103203 
0.125 1:-0.0318898 2:-0.963642 3:-0.785593 4:-0.419955 
-0.125 1:0.747321 2:-0.963702 3:-0.4802 4:-0.55617 
-0.0510772859273854 1:0.966197 2:-0.960962 3:-0.0190689 4:0.0672659 
-0.125 1:-0.12634 2:-0.965047 3:-0.776015 4:-0.398963 
-0.125 1:0.865383 2:-1 3:-0.750656 4:-0.103203 
-0.125 1:0.0920756 2:-0.999585 3:-0.797952 4:-0.448297 
-0.125 1:0.9772 2:-0.979921 3:0.036306 4:0.565904 
-0.125 1:0.865383 2:-0.847548 3:-0.750656 4:-0.103203 
-0.125 1:-0.693038 2:-1 3:-0.674517 4:-0.234875 
-0.125 1:-0.881938 2:-0.974002 3:-0.644239 4:-0.191694 
-0.125 1:-0.138146 2:-0.965071 3:-0.760607 4:-0.377224 
-0.125 1:-0.131587 2:-0.925592 3:-0.734281 4:-0.296092 
-0.125 1:-0.775682 2:-0.980115 3:-0.669148 4:-0.223895 
-0.125 1:0.747321 2:-0.976546 3:-0.4802 4:-0.55617 
-0.125 1:-0.787488 2:-0.975087 3:-0.674861 4:-0.229315 
-0.125 1:-0.740263 2:-0.978065 3:-0.682086 4:-0.240109 
-0.125 1:-0.763876 2:-0.986107 3:-0.663163 4:-0.218337 
-0.125 1:-0.498891 2:-0.933085 3:-0.667851 4:-0.173211 
-0.125 1:-0.0673084 2:-0.983137 3:-0.772098 4:-0.398366 
-0.125 1:-0.834713 2:-0.994037 3:-0.667636 4:-0.218699 
-0.125 1:-0.516382 2:-1 3:-0.639584 4:-0.138093 
-0.125 1:0.865383 2:-0.847548 3:-0.750656 4:-0.103203 
-0.125 1:-0.428929 2:-1 3:-0.656585 4:-0.166381 
-0.125 1:0.865383 2:-1 3:-0.750656 4:-0.103203 
-0.125 1:-0.358966 2:-0.982029 3:-0.670186 4:-0.189632 
-0.125 1:-0.740263 2:-0.986472 3:-0.674693 4:-0.232042 
-0.125 1:0.865383 2:-0.866068 3:-0.750656 4:-0.103203 
-0.125 1:0.865383 2:-0.910323 3:-0.750656 4:-0.103203 
-0.125 1:-0.716651 2:-0.987707 3:-0.670732 4:-0.229315 
-0.125 1:-0.881938 2:-1 3:-0.652513 4:-0.200062 
-0.125 1:-0.184059 2:-0.983918 3:-0.724791 4:-0.27758 
-0.125 1:0.970383 2:-0.939294 3:-0.0688136 4:0.253855 
-0.125 1:-0.775682 2:-0.942494 3:-0.669148 4:-0.223895 
-0.125 1:-0.740263 2:-0.994905 3:-0.674693 4:-0.232042 
-0.125 1:-0.881938 2:-0.987391 3:-0.644239 4:-0.191694 
-0.125 1:-0.393947 2:-0.89262 3:-0.686831 4:-0.20678 
-0.125 1:0.865383 2:-0.874123 3:-0.750656 4:-0.103203 
-0.125 1:-0.704844 2:-0.989324 3:-0.680238 4:-0.240293 
-0.125 1:-0.881938 2:-0.937979 3:-0.66041 4:-0.208258 
-0.125 1:-0.46391 2:-0.958528 3:-0.649785 4:-0.154964 
-0.125 1:-0.236531 2:-0.934664 3:-0.715301 4:-0.259402 
-0.125 1:-0.716651 2:-0.982277 3:-0.670732 4:-0.229315 
-0.125 1:-0.0141804 2:-1 3:-0.780716 4:-0.414637 
-0.125 1:-0.787488 2:-1 3:-0.674861 4:-0.229315 
-0.125 1:0.957879 2:-0.909876 3:-0.0346021 4:0.0916338 
-0.125 1:-0.173564 2:-0.998115 3:-0.754862 4:-0.366882 
-0.125 1:0.865383 2:-0.907426 3:-0.750656 4:-0.103203 
-0.125 1:0.977748 2:-0.906401 3:-0.0612954 4:-0.0304907 
-0.125 1:-0.289003 2:-0.938789 3:-0.705811 4:-0.241548 
-0.125 1:0.865383 2:-1 3:-0.750656 4:-0.103203 
-0.125 1:0.865383 2:-0.981408 3:-0.750656 4:-0.103203 
-0.125 1:0.865383 2:-1 3:-0.750656 4:-0.103203 
-0.125 1:0.865383 2:-1 3:-0.750656 4:-0.103203 
-0.125 1:-0.716651 2:-0.980174 3:-0.670732 4:-0.229315 
-0.125 1:-0.138146 2:-0.986657 3:-0.760607 4:-0.377224 
-0.125 1:-0.834713 2:-0.958453 3:-0.667636 4:-0.218699 
-0.125 1:-0.740263 2:-0.986988 3:-0.682086 4:-0.240109 
-0.125 1:-0.656308 2:-0.991635 3:-0.639381 4:-0.124974 
-0.125 1:0.957266 2:-0.202174 3:-0.588415 4:-0.62349 
-0.125 1:-0.120436 2:-1 3:-0.76348 4:-0.382452 
-0.125 1:-0.918668 2:-0.949452 3:-0.591932 4:-0.0497647 
-0.125 1:0.865383 2:-1 3:-0.750656 4:-0.103203 
-0.125 1:-0.929163 2:-0.957514 3:-0.63667 4:-0.181347 
-0.125 1:-0.498891 2:-0.948187 3:-0.667851 4:-0.173211 
-0.125 1:-0.376457 2:-1 3:-0.666786 4:-0.183766 
-0.125 1:-0.102727 2:-0.98363 3:-0.766353 4:-0.387718 
-0.125 1:-0.498891 2:-0.969408 3:-0.667851 4:-0.173211 
-0.125 1:0.96727 2:-1 3:-1 4:-1 
-0.125 1:-0.341475 2:-1 3:-0.673586 4:-0.195534 
-0.125 1:-0.551364 2:-0.966913 3:-0.658361 4:-0.156857 
-0.125 1:-0.12634 2:-0.985871 3:-0.776015 4:-0.398963 
-0.125 1:-0.46391 2:-1 3:-0.649785 4:-0.154964 
-0.125 1:0.747321 2:-0.974497 3:-0.4802 4:-0.55617 
-0.125 1:-0.787488 2:-0.956369 3:-0.659378 4:-0.212917 
-0.125 1:-0.740263 2:-0.999791 3:-0.666948 4:-0.223802 
-0.125 1:-0.481401 2:-0.988143 3:-0.646385 4:-0.149307 
-0.125 1:-0.669426 2:-1 3:-0.685783 4:-0.248651 
-0.125 1:0.747321 2:-0.96951 3:-0.4802 4:-0.55617 
-0.125 1:-0.8111 2:-1 3:-0.655594 4:-0.207544 
-0.125 1:-0.551364 2:-0.966635 3:-0.658361 4:-0.156857 
-0.125 1:0.865383 2:-0.866068 3:-0.750656 4:-0.103203 
-0.125 1:0.950417 2:-0.938344 3:0.00460726 4:0.236887 
-0.125 1:-0.763876 2:-1 3:-0.663163 4:-0.218337 
-0.125 1:-0.881938 2:-0.891656 3:-0.66041 4:-0.208258 
-0.125 1:-0.603836 2:-0.922068 3:-0.648871 4:-0.140781 
-0.125 1:0.976703 2:-0.915219 3:-0.0952525 4:0.0431147 
-0.125 1:-0.498891 2:-0.981806 3:-0.642985 4:-0.143683 
-0.125 1:-0.323984 2:-0.984471 3:-0.676986 4:-0.201472 
-0.125 1:-0.138146 2:-0.958217 3:-0.760607 4:-0.377224 
-0.125 1:-0.740263 2:-0.984407 3:-0.682086 4:-0.240109 
-0.125 1:0.865383 2:-1 3:-0.750656 4:-0.103203 
-0.125 1:-0.0850178 2:-1 3:-0.769225 4:-0.393023 
-0.125 1:0.968485 2:-0.982073 3:0.0184147 4:0.695573 
-0.125 1:-0.917356 2:-0.948656 3:-0.646968 4:-0.192314 
-0.125 1:-0.393947 2:-0.966926 3:-0.663386 4:-0.177936 
-0.125 1:-0.21904 2:-0.969248 3:-0.697387 4:-0.237878 
-0.125 1:-0.787488 2:-0.948187 3:-0.674861 4:-0.229315 
-0.125 1:0.959256 2:-0.931797 3:-0.642347 4:-0.711193 
-0.125 1:-0.952775 2:-0.968615 3:-0.641423 4:-0.18466 
-0.125 1:-0.834713 2:-1 3:-0.651809 4:-0.202216 
-0.125 1:-0.761252 2:-1 3:-0.620402 4:-0.0941443 
-0.125 1:0.747321 2:-0.996551 3:-0.4802 4:-0.55617 
-0.125 1:-0.740263 2:-0.973676 3:-0.674693 4:-0.232042 
-0.125 1:-0.775682 2:-0.979341 3:-0.669148 4:-0.223895 
-0.125 1:-0.8111 2:-1 3:-0.655594 4:-0.207544 
-0.125 1:-0.740263 2:-0.979869 3:-0.674693 4:-0.232042 
-0.125 1:0.0566569 2:-0.996394 3:-0.792207 4:-0.436907 
-0.125 1:-0.846519 2:-1 3:-0.658058 4:-0.207907 
-0.125 1:-0.8111 2:-0.993272 3:-0.655594 4:-0.207544 
-0.125 1:0.0212382 2:-0.977829 3:-0.786462 4:-0.425688 
-0.125 1:0.958923 2:-0.88491 3:-0.0365926 4:0.0435726 
-0.125 1:0.865383 2:-1 3:-0.750656 4:-0.103203 
-0.125 1:-0.787488 2:-0.976387 3:-0.659378 4:-0.212917 
-0.125 1:-0.656308 2:-0.94401 3:-0.639381 4:-0.124974 
-0.125 1:0.978185 2:-0.92519 3:-0.0218855 4:0.0706953 
-0.125 1:0.944305 2:-0.431787 3:-0.675728 4:-0.695002 
-0.125 1:-0.481401 2:-1 3:-0.646385 4:-0.149307 
-0.125 1:-0.787488 2:-0.985819 3:-0.659378 4:-0.212917 
-0.125 1:0.95705 2:-0.803774 3:-0.103349 4:0.00981943 
-0.125 1:-0.881938 2:-1 3:-0.66041 4:-0.208258 
-0.1237671274767451 1:0.747321 2:-1 3:-0.4802 4:-0.55617 
-0.125 1:-0.498891 2:-0.96398 3:-0.642985 4:-0.143683 
-0.125 1:-0.498891 2:-1 3:-0.667851 4:-0.173211 
-0.125 1:-0.428929 2:-1 3:-0.656585 4:-0.166381 
-0.125 1:0.971993 2:-0.93615 3:0.044794 4:0.844929 
-0.125 1:0.747321 2:-1 3:-0.4802 4:-0.55617 
-0.125 1:0.747321 2:-1 3:-0.4802 4:-0.55617 
-0.125 1:0.747321 2:-1 3:-0.4802 4:-0.55617 
-0.125 1:-0.740263 2:-0.944004 3:-0.666948 4:-0.223802 
-0.125 1:0.865383 2:-1 3:-0.750656 4:-0.103203 
-0.125 1:-0.138146 2:-0.995497 3:-0.760607 4:-0.377224 
-0.125 1:-0.120436 2:-1 3:-0.76348 4:-0.382452 
-0.125 1:-0.716651 2:-0.989625 3:-0.670732 4:-0.229315 
-0.125 1:0.747321 2:-1 3:-0.4802 4:-0.55617 
-0.125 1:-0.8111 2:-0.942049 3:-0.663603 4:-0.215851 
-0.125 1:0.977185 2:-0.932486 3:-0.0197661 4:0.113025 
-0.125 1:-0.775682 2:-0.901048 3:-0.669148 4:-0.223895 
-0.125 1:0.747321 2:-1 3:-0.4802 4:-0.55617 
-0.125 1:-0.428929 2:-0.977275 3:-0.656585 4:-0.166381 
-0.125 1:0.747321 2:-1 3:-0.4802 4:-0.55617 
-0.125 1:-0.428929 2:-0.965707 3:-0.656585 4:-0.166381 
-0.125 1:-0.428929 2:-0.997276 3:-0.656585 4:-0.166381 
-0.110816696272852 1:-0.669426 2:-0.997497 3:-0.685783 4:-0.248651 
-0.125 1:0.865383 2:-1 3:-0.750656 4:-0.103203 
-0.125 1:-0.881938 2:-0.989691 3:-0.644239 4:-0.191694 
-0.125 1:0.865383 2:-1 3:-0.750656 4:-0.103203 
-0.125 1:0.970411 2:-0.942673 3:-0.0356618 4:0.0931069 
-0.125 1:0.939928 2:-0.238875 3:-0.656653 4:-0.610601 
-0.125 1:0.747321 2:-1 3:-0.4802 4:-0.55617 
-0.125 1:-0.46391 2:-1 3:-0.649785 4:-0.154964 
-0.125 1:-0.184059 2:-0.935874 3:-0.724791 4:-0.27758 
-0.125 1:-0.0141804 2:-1 3:-0.780716 4:-0.414637 
-0.125 1:-0.8111 2:-0.974004 3:-0.663603 4:-0.215851 
-0.125 1:0.865383 2:-0.847548 3:-0.750656 4:-0.103203 
-0.125 1:-0.155855 2:-0.984458 3:-0.757734 4:-0.372034 
-0.125 1:0.747321 2:-1 3:-0.4802 4:-0.55617 
-0.125 1:0.951471 2:-0.876815 3:-0.56698 4:-0.648089 
-0.125 1:0.865383 2:-1 3:-0.750656 4:-0.103203 
-0.125 1:-0.775682 2:-1 3:-0.669148 4:-0.223895 
-0.125 1:0.865383 2:-1 3:-0.750656 4:-0.103203 
-0.125 1:-0.155855 2:-1 3:-0.757734 4:-0.372034 
-0.125 1:-0.740263 2:-0.929531 3:-0.674693 4:-0.232042 
-0.125 1:-0.0141804 2:-0.971112 3:-0.780716 4:-0.414637 
-0.125 1:0.747321 2:-0.980115 3:-0.4802 4:-0.55617 
-0.125 1:-0.551364 2:-0.971419 3:-0.658361 4:-0.156857 
-0.125 1:0.865383 2:-1 3:-0.750656 4:-0.103203 
-0.125 1:0.747321 2:-0.976546 3:-0.4802 4:-0.55617 
-0.125 1:-0.70878 2:-0.943557 3:-0.629892 4:-0.109431 
-0.125 1:-0.693038 2:-1 3:-0.674517 4:-0.234875 
-0.125 1:-0.376457 2:-1 3:-0.666786 4:-0.183766 
-0.125 1:-0.0495991 2:-0.995324 3:-0.774971 4:-0.40375 
-0.125 1:-0.393947 2:-1 3:-0.663386 4:-0.177936 
-0.125 1:0.865383 2:-1 3:-0.750656 4:-0.103203 
-0.125 1:-0.740263 2:-0.946671 3:-0.674693 4:-0.232042 
-0.125 1:-0.138146 2:-0.986384 3:-0.760607 4:-0.377224 
-0.125 1:0.966801 2:-0.947595 3:-0.0301484 4:0.0552226 
-0.125 1:-0.656308 2:-0.960219 3:-0.639381 4:-0.124974 
-0.125 1:0.956021 2:-0.958421 3:0.00812105 4:0.201318 
-0.125 1:-0.881938 2:-1 3:-0.66041 4:-0.208258 
-0.125 1:-0.428929 2:-0.975141 3:-0.656585 4:-0.166381 
-0.125 1:0.0566569 2:-0.983505 3:-0.792207 4:-0.436907 
-0.125 1:0.747321 2:-1 3:-0.4802 4:-0.55617 
-0.125 1:-0.131587 2:-0.944237 3:-0.734281 4:-0.296092 
-0.125 1:-0.813724 2:-0.983639 3:-0.610912 4:-0.0791086 
-0.125 1:-0.716651 2:-0.971348 3:-0.670732 4:-0.229315 
-0.125 1:0.865383 2:-0.901262 3:-0.750656 4:-0.103203 
-0.125 1:0.747321 2:-1 3:-0.4802 4:-0.55617 
-0.125 1:0.00352891 2:-0.980264 3:-0.783589 4:-0.420142 
-0.125 1:-0.834713 2:-0.983736 3:-0.667636 4:-0.218699 
-0.125 1:0.747321 2:-0.968674 3:-0.4802 4:-0.55617 
-0.125 1:0.960839 2:-0.549899 3:-0.725137 4:-0.715337 
-0.125 1:-0.740263 2:-1 3:-0.674693 4:-0.232042 
-0.125 1:0.747321 2:-1 3:-0.4802 4:-0.55617 
-0.125 1:-0.498891 2:-0.95438 3:-0.667851 4:-0.173211 
-0.125 1:0.969164 2:-0.981509 3:-0.0293035 4:0.0366985 
-0.125 1:-0.323984 2:-0.971563 3:-0.676986 4:-0.201472 
-0.125 1:-0.90555 2:-1 3:-0.640455 4:-0.186499 
-0.125 1:-0.446419 2:-0.979097 3:-0.653185 4:-0.160655 
-0.125 1:0.865383 2:-1 3:-0.750656 4:-0.103203 
-0.125 1:-0.131587 2:-0.960846 3:-0.734281 4:-0.296092 
-0.125 1:-0.516382 2:-0.969419 3:-0.639584 4:-0.138093 
-0.125 1:-0.393947 2:-1 3:-0.663386 4:-0.177936 
-0.125 1:0.747321 2:-1 3:-0.4802 4:-0.55617 
-0.125 1:0.865383 2:-1 3:-0.750656 4:-0.103203 
-0.125 1:-0.533873 2:-0.99984 3:-0.636184 4:-0.132536 
-0.125 1:0.9724 2:-0.947371 3:0.0523249 4:0.58271 
-0.125 1:-0.761252 2:-0.975087 3:-0.620402 4:-0.0941443 
-0.125 1:0.937537 2:-0.974361 3:-0.653474 4:-0.701865 
-0.125 1:0.960834 2:-0.923212 3:-0.630993 4:-0.61242 
-0.125 1:-0.740263 2:-0.984026 3:-0.682086 4:-0.240109 
-0.125 1:0.747321 2:-0.987504 3:-0.4802 4:-0.55617 
-0.125 1:0.963387 2:-0.974598 3:-0.0893097 4:0.0703631 
-0.125 1:0.865383 2:-1 3:-0.750656 4:-0.103203 
-0.125 1:0.747321 2:-0.986627 3:-0.4802 4:-0.55617 
-0.125 1:-0.740263 2:-0.934134 3:-0.674693 4:-0.232042 
-0.125 1:-0.155855 2:-0.982222 3:-0.757734 4:-0.372034 
-0.125 1:-0.740263 2:-1 3:-0.682086 4:-0.240109 
-0.125 1:-0.656308 2:-0.961241 3:-0.639381 4:-0.124974 
-0.125 1:-0.669426 2:-1 3:-0.685783 4:-0.248651 
-0.125 1:-0.411438 2:-0.963136 3:-0.659985 4:-0.172141 
-0.125 1:0.747321 2:-1 3:-0.4802 4:-0.55617 
-0.125 1:-0.787488 2:-0.984427 3:-0.659378 4:-0.212917 
-0.125 1:0.865383 2:-1 3:-0.750656 4:-0.103203 
-0.125 1:0.747321 2:-1 3:-0.4802 4:-0.55617 
-0.125 1:0.747321 2:-1 3:-0.4802 4:-0.55617 
-0.125 1:-0.498891 2:-0.983156 3:-0.667851 4:-0.173211 
-0.125 1:0.747321 2:-1 3:-0.4802 4:-0.55617 
-0.125 1:-0.8111 2:-0.949959 3:-0.655594 4:-0.207544 
-0.125 1:-0.533873 2:-1 3:-0.636184 4:-0.132536 
-0.125 1:0.0783017 2:-0.955522 3:-0.772241 4:-0.373665 
-0.125 1:-0.775682 2:-1 3:-0.669148 4:-0.223895 
-0.125 1:0.0566569 2:-0.980166 3:-0.792207 4:-0.436907 
-0.125 1:-0.976388 2:-0.991483 3:-0.64596 4:-0.18788 
-0.125 1:0.747321 2:-1 3:-0.4802 4:-0.55617 
-0.125 1:-0.481401 2:-1 3:-0.646385 4:-0.149307 
-0.125 1:0.980691 2:-1 3:-1 4:-1 
-0.125 1:-0.763876 2:-0.971501 3:-0.663163 4:-0.218337 
-0.125 1:0.865383 2:-1 3:-0.750656 4:-0.103203 
-0.125 1:-0.376457 2:-0.967454 3:-0.666786 4:-0.183766 
-0.125 1:0.865383 2:-1 3:-0.750656 4:-0.103203 
-0.125 1:0.865383 2:-1 3:-0.750656 4:-0.103203 
-0.125 1:-0.481401 2:-0.964706 3:-0.646385 4:-0.149307 
-0.125 1:0.747321 2:-1 3:-0.4802 4:-0.55617 
-0.125 1:0.747321 2:-1 3:-0.4802 4:-0.55617 
-0.125 1:-0.834713 2:-1 3:-0.667636 4:-0.218699 
-0.125 1:-0.341475 2:-0.948505 3:-0.673586 4:-0.195534 
-0.125 1:-0.446419 2:-1 3:-0.653185 4:-0.160655 
-0.125 1:-0.834713 2:-0.962299 3:-0.667636 4:-0.218699 
-0.125 1:0.924524 2:-0.899607 3:-0.650295 4:-0.591946 
-0.125 1:0.944918 2:-0.927119 3:-0.0713001 4:0.140846 
-0.125 1:0.747321 2:-1 3:-0.4802 4:-0.55617 
-0.125 1:-0.8111 2:-0.985954 3:-0.655594 4:-0.207544 
-0.125 1:0.747321 2:-1 3:-0.4802 4:-0.55617 
-0.125 1:0.0783017 2:-0.980892 3:-0.772241 4:-0.373665 
-0.125 1:0.865383 2:-1 3:-0.750656 4:-0.103203 
-0.125 1:-0.289003 2:-0.993176 3:-0.705811 4:-0.241548 
-0.125 1:-0.8111 2:-0.979527 3:-0.663603 4:-0.215851 
-0.125 1:-0.551364 2:-0.903111 3:-0.658361 4:-0.156857 
-0.125 1:0.747321 2:-1 3:-0.4802 4:-0.55617 
-0.125 1:-0.775682 2:-0.924626 3:-0.669148 4:-0.223895 
-0.125 1:-0.716651 2:-0.98642 3:-0.670732 4:-0.229315 
-0.125 1:0.747321 2:-1 3:-0.4802 4:-0.55617 
-0.125 1:0.0783017 2:-0.924848 3:-0.772241 4:-0.373665 
-0.125 1:-0.763876 2:-0.976338 3:-0.663163 4:-0.218337 
-0.125 1:-0.740263 2:-0.983389 3:-0.674693 4:-0.232042 
-0.125 1:0.971607 2:-0.915847 3:-0.0680338 4:0.0631014 
-0.125 1:0.978256 2:-0.98312 3:0.0509671 4:0.643146 
-0.125 1:0.936044 2:-0.992932 3:-0.608495 4:-0.566133 
-0.125 1:-0.155855 2:-0.988604 3:-0.757734 4:-0.372034 
-0.125 1:0.865383 2:-1 3:-0.750656 4:-0.103203 
-0.125 1:-0.155855 2:-0.989747 3:-0.757734 4:-0.372034 
-0.125 1:0.973379 2:-0.906372 3:-0.0505551 4:0.101198 
-0.125 1:0.963193 2:-0.953923 3:-0.0229453 4:0.131229 
-0.125 1:-0.929163 2:-0.876472 3:-0.653185 4:-0.197986 
-0.125 1:-0.131587 2:-0.937752 3:-0.734281 4:-0.296092 
-0.125 1:-0.236531 2:-0.976529 3:-0.715301 4:-0.259402 
-0.125 1:-0.516382 2:-0.997738 3:-0.639584 4:-0.138093 
-0.125 1:0.865383 2:-0.894457 3:-0.750656 4:-0.103203 
-0.125 1:-0.149952 2:-1 3:-0.761565 4:-0.377524 
-0.125 1:0.865383 2:-1 3:-0.750656 4:-0.103203 
-0.125 1:-0.693038 2:-0.988501 3:-0.689312 4:-0.251086 
-0.125 1:0.747321 2:-1 3:-0.4802 4:-0.55617 
-0.125 1:-0.411438 2:-0.971117 3:-0.659985 4:-0.172141 
-0.125 1:-0.8111 2:-0.952575 3:-0.663603 4:-0.215851 
-0.125 1:0.865383 2:-1 3:-0.750656 4:-0.103203 
-0.125 1:0.747321 2:-1 3:-0.4802 4:-0.55617 
-0.125 1:0.865383 2:-1 3:-0.750656 4:-0.103203 
-0.125 1:-0.0850178 2:-0.984996 3:-0.769225 4:-0.393023 
-0.125 1:-0.446419 2:-1 3:-0.653185 4:-0.160655 
-0.125 1:0.747321 2:-1 3:-0.4802 4:-0.55617 
-0.125 1:-0.155855 2:-0.960223 3:-0.757734 4:-0.372034 
-0.125 1:-0.881938 2:-0.961308 3:-0.644239 4:-0.191694 
-0.125 1:0.935524 2:-0.900103 3:-0.721826 4:-0.706406 
-0.125 1:0.747321 2:-1 3:-0.4802 4:-0.55617 
-0.125 1:0.974629 2:-0.870271 3:-0.0494381 4:0.128781 
-0.125 1:0.962952 2:-0.995278 3:0.0455657 4:0.524988 
-0.125 1:0.937113 2:-0.239096 3:-0.698644 4:-0.636161 
-0.125 1:-0.0850178 2:-0.978293 3:-0.769225 4:-0.393023 
-0.125 1:-0.693038 2:-0.997815 3:-0.674517 4:-0.234875 
-0.125 1:-0.716651 2:-0.982273 3:-0.670732 4:-0.229315 
-0.125 1:-0.0850178 2:-0.975229 3:-0.769225 4:-0.393023 
-0.125 1:-0.498891 2:-1 3:-0.642985 4:-0.143683 
-0.125 1:-0.787488 2:-0.969318 3:-0.674861 4:-0.229315 
-0.125 1:0.747321 2:-1 3:-0.4802 4:-0.55617 
-0.125 1:-0.716651 2:-0.983225 3:-0.670732 4:-0.229315 
-0.125 1:0.747321 2:-0.980016 3:-0.4802 4:-0.55617 
-0.125 1:-0.740263 2:-0.996242 3:-0.666948 4:-0.223802 
-0.125 1:0.286878 2:-0.990287 3:-0.829552 4:-0.514185 
-0.125 1:-0.323984 2:-1 3:-0.676986 4:-0.201472 
-0.125 1:-0.533873 2:-0.990158 3:-0.636184 4:-0.132536 
-0.125 1:-0.740263 2:-0.967368 3:-0.666948 4:-0.223802 
-0.125 1:0.550551 2:-0.924908 3:-0.857651 4:-0.571842 
-0.125 1:-0.516382 2:-1 3:-0.639584 4:-0.138093 
-0.125 1:-0.0850178 2:-0.99377 3:-0.769225 4:-0.393023 
-0.125 1:-0.102727 2:-0.983852 3:-0.766353 4:-0.387718 
-0.125 1:-0.376457 2:-0.960578 3:-0.666786 4:-0.183766 
-0.125 1:-0.716651 2:-0.992173 3:-0.670732 4:-0.229315 
-0.125 1:-0.834713 2:-0.987519 3:-0.651809 4:-0.202216 
-0.125 1:-0.0791146 2:-0.990192 3:-0.743771 4:-0.314947 
-0.125 1:-0.834713 2:-0.856108 3:-0.667636 4:-0.218699 
-0.125 1:-0.656308 2:-0.993333 3:-0.639381 4:-0.124974 
-0.125 1:-0.393947 2:-0.984407 3:-0.686831 4:-0.20678 
-0.125 1:-0.70878 2:-0.937496 3:-0.629892 4:-0.109431 
-0.125 1:-0.393947 2:-0.975632 3:-0.686831 4:-0.20678 
-0.125 1:-0.46391 2:-0.991969 3:-0.649785 4:-0.154964 
-0.125 1:-0.393947 2:-0.934001 3:-0.686831 4:-0.20678 
-0.125 1:0.747321 2:-1 3:-0.4802 4:-0.55617 
-0.125 1:-0.138146 2:-0.988586 3:-0.760607 4:-0.377224 
-0.125 1:0.747321 2:-1 3:-0.4802 4:-0.55617 
-0.125 1:0.865383 2:-1 3:-0.750656 4:-0.103203 
-0.125 1:-0.881938 2:-0.979275 3:-0.644239 4:-0.191694 
-0.125 1:-0.236531 2:-0.960766 3:-0.715301 4:-0.259402 
-0.125 1:0.747321 2:-1 3:-0.4802 4:-0.55617 
-0.125 1:-0.763876 2:-0.970394 3:-0.663163 4:-0.218337 
-0.125 1:0.865383 2:-1 3:-0.750656 4:-0.103203 
-0.125 1:-0.763876 2:-0.972751 3:-0.663163 4:-0.218337 
-0.02225849674210758 1:-0.173564 2:-0.995584 3:-0.763413 4:-0.378108 
-0.125 1:-0.341475 2:-0.962623 3:-0.696321 4:-0.22401 
-0.125 1:-0.763876 2:-1 3:-0.663163 4:-0.218337 
-0.125 1:0.865383 2:-1 3:-0.750656 4:-0.103203 
-0.125 1:-0.428929 2:-0.983305 3:-0.656585 4:-0.166381 
-0.125 1:-0.834713 2:-0.922068 3:-0.667636 4:-0.218699 
-0.125 1:-0.740263 2:-0.966913 3:-0.682086 4:-0.240109 
-0.125 1:-0.393947 2:-0.988501 3:-0.686831 4:-0.20678 
-0.125 1:-0.446419 2:-0.98078 3:-0.653185 4:-0.160655 
-0.125 1:0.747321 2:-1 3:-0.4802 4:-0.55617 
-0.125 1:0.0566569 2:-0.992758 3:-0.792207 4:-0.436907 
-0.001232872523254901 1:-0.716651 2:-0.959966 3:-0.670732 4:-0.229315 
-0.125 1:-0.498891 2:-0.9965 3:-0.667851 4:-0.173211 
-0.125 1:0.747321 2:-1 3:-0.4802 4:-0.55617 
-0.125 1:0.865383 2:-0.903983 3:-0.750656 4:-0.103203 
-0.125 1:0.865383 2:-0.847548 3:-0.750656 4:-0.103203 
-0.125 1:0.865383 2:-0.889167 3:-0.750656 4:-0.103203 
-0.125 1:0.747321 2:-1 3:-0.4802 4:-0.55617 
-0.125 1:0.865383 2:-1 3:-0.750656 4:-0.103203 
-0.125 1:0.747321 2:-1 3:-0.4802 4:-0.55617 
-0.125 1:-0.787488 2:-0.907859 3:-0.674861 4:-0.229315 
-0.125 1:0.865383 2:-0.847548 3:-0.750656 4:-0.103203 
-0.125 1:0.747321 2:-1 3:-0.4802 4:-0.55617 
-0.125 1:-0.481401 2:-0.961833 3:-0.646385 4:-0.149307 
-0.125 1:-0.0791146 2:-0.905788 3:-0.743771 4:-0.314947 
-0.125 1:-0.0791146 2:-0.923913 3:-0.743771 4:-0.314947 
-0.125 1:-0.952775 2:-0.894002 3:-0.641423 4:-0.18466 
-0.125 1:-0.787488 2:-0.962454 3:-0.674861 4:-0.229315 
-0.125 1:-0.917356 2:-0.99116 3:-0.646968 4:-0.192314 
-0.125 1:-0.693038 2:-1 3:-0.689312 4:-0.251086 
-0.125 1:0.00352891 2:-1 3:-0.791138 4:-0.430801 
-0.125 1:0.960584 2:-0.970272 3:-0.0187064 4:0.267775 
-0.125 1:0.747321 2:-0.991032 3:-0.4802 4:-0.55617 
-0.125 1:0.747321 2:-0.952359 3:-0.4802 4:-0.55617 
-0.125 1:0.130774 2:-0.94531 3:-0.781731 4:-0.393991 
-0.125 1:-0.120436 2:-0.969168 3:-0.76348 4:-0.382452 
-0.125 1:0.865383 2:-1 3:-0.750656 4:-0.103203 
-0.125 1:-0.21904 2:-0.96353 3:-0.697387 4:-0.237878 
-0.125 1:-0.929163 2:-1 3:-0.653185 4:-0.197986 
-0.125 1:0.747321 2:-1 3:-0.4802 4:-0.55617 
-0.125 1:0.747321 2:-1 3:-0.4802 4:-0.55617 
-0.125 1:-0.693038 2:-0.961241 3:-0.689312 4:-0.251086 
-0.125 1:-0.813724 2:-1 3:-0.610912 4:-0.0791086 
-0.125 1:-0.446419 2:-0.9977 3:-0.653185 4:-0.160655 
-0.125 1:-0.0266425 2:-0.948745 3:-0.753261 4:-0.334154 
-0.125 1:0.747321 2:-1 3:-0.4802 4:-0.55617 
-0.125 1:0.747321 2:-1 3:-0.4802 4:-0.55617 
-0.125 1:-0.0791146 2:-0.980843 3:-0.743771 4:-0.314947 
-0.125 1:0.747321 2:-0.96951 3:-0.4802 4:-0.55617 
-0.125 1:-0.917356 2:-1 3:-0.646968 4:-0.192314 
-0.125 1:-0.46391 2:-0.955281 3:-0.649785 4:-0.154964 
-0.125 1:-0.787488 2:-0.953475 3:-0.659378 4:-0.212917 
-0.125 1:-0.656308 2:-0.934872 3:-0.639381 4:-0.124974 
-0.125 1:-0.446419 2:-0.988533 3:-0.653185 4:-0.160655 
-0.125 1:-0.341475 2:-1 3:-0.696321 4:-0.22401 
-0.125 1:-0.149952 2:-1 3:-0.761565 4:-0.377524 
-0.125 1:-0.763876 2:-0.928831 3:-0.663163 4:-0.218337 
-0.125 1:-0.102727 2:-0.970006 3:-0.766353 4:-0.387718 
-0.125 1:-0.656308 2:-0.969318 3:-0.639381 4:-0.124974 
-0.125 1:-0.603836 2:-0.965692 3:-0.648871 4:-0.140781 
-0.125 1:-0.918668 2:-1 3:-0.591932 4:-0.0497647 
-0.125 1:0.95852 2:-1 3:-0.776015 4:-0.588968 
-0.125 1:0.747321 2:-1 3:-0.4802 4:-0.55617 
-0.125 1:-0.976388 2:-0.996759 3:-0.64596 4:-0.18788 
-0.125 1:-0.341475 2:-0.971826 3:-0.696321 4:-0.22401 
-0.125 1:-0.8111 2:-0.902558 3:-0.663603 4:-0.215851 
-0.125 1:0.954683 2:-0.915893 3:-0.0615014 4:-0.0294695 
-0.125 1:0.747321 2:-0.959881 3:-0.4802 4:-0.55617 
-0.125 1:-0.740263 2:-0.999348 3:-0.674693 4:-0.232042 
-0.125 1:-0.787488 2:-1 3:-0.659378 4:-0.212917 
-0.125 1:-0.428929 2:-0.934682 3:-0.656585 4:-0.166381 
-0.125 1:-0.740263 2:-0.95588 3:-0.666948 4:-0.223802 
-0.125 1:-0.411438 2:-0.978398 3:-0.659985 4:-0.172141 
-0.125 1:-0.46391 2:-0.957343 3:-0.649785 4:-0.154964 
-0.125 1:-0.138146 2:-0.982072 3:-0.760607 4:-0.377224 
-0.125 1:-0.952775 2:-0.929714 3:-0.641423 4:-0.18466 
-0.125 1:-0.289003 2:-0.999819 3:-0.683786 4:-0.213457 
-0.125 1:-0.740263 2:-1 3:-0.674693 4:-0.232042 
-0.125 1:-0.656308 2:-0.923795 3:-0.639381 4:-0.124974 
-0.125 1:0.747321 2:-1 3:-0.4802 4:-0.55617 
-0.125 1:0.0920756 2:-0.972593 3:-0.797952 4:-0.448297 
-0.125 1:-0.428929 2:-0.959238 3:-0.656585 4:-0.166381 
-0.125 1:-0.761252 2:-0.921666 3:-0.620402 4:-0.0941443 
-0.125 1:0.865383 2:-1 3:-0.750656 4:-0.103203 
-0.125 1:0.865383 2:-1 3:-0.750656 4:-0.103203 
-0.125 1:-0.184059 2:-0.999104 3:-0.724791 4:-0.27758 
-0.125 1:-0.393947 2:-0.949721 3:-0.686831 4:-0.20678 
-0.125 1:0.970383 2:-0.935132 3:-0.0261244 4:0.0729287 
-0.125 1:-0.8111 2:-1 3:-0.655594 4:-0.207544 
-0.125 1:-0.881938 2:-0.969586 3:-0.644239 4:-0.191694 
-0.125 1:-0.498891 2:-0.959031 3:-0.642985 4:-0.143683 
-0.125 1:0.747321 2:-1 3:-0.4802 4:-0.55617 
-0.125 1:-0.236531 2:-0.970731 3:-0.715301 4:-0.259402 
-0.125 1:-0.533873 2:-0.985507 3:-0.636184 4:-0.132536 
-0.125 1:-0.306494 2:-0.967002 3:-0.680386 4:-0.207446 
-0.125 1:0.747321 2:-1 3:-0.4802 4:-0.55617 
-0.125 1:-0.21904 2:-0.984206 3:-0.697387 4:-0.237878 
-0.125 1:-0.481401 2:-0.977333 3:-0.646385 4:-0.149307 
-0.125 1:-0.866196 2:-1 3:-0.601422 4:-0.0643173 
-0.125 1:0.747321 2:-1 3:-0.4802 4:-0.55617 
-0.125 1:0.865383 2:-1 3:-0.750656 4:-0.103203 
-0.125 1:-0.102727 2:-0.994092 3:-0.766353 4:-0.387718 
-0.125 1:0.865383 2:-0.884942 3:-0.750656 4:-0.103203 
-0.125 1:-0.834713 2:-0.998109 3:-0.651809 4:-0.202216 
-0.125 1:0.865383 2:-1 3:-0.750656 4:-0.103203 
-0.125 1:-0.138146 2:-0.975007 3:-0.760607 4:-0.377224 
-0.125 1:0.865383 2:-1 3:-0.750656 4:-0.103203 
-0.125 1:-0.8111 2:-0.98997 3:-0.655594 4:-0.207544 
-0.125 1:-0.740263 2:-0.980209 3:-0.666948 4:-0.223802 
-0.125 1:-0.787488 2:-0.983156 3:-0.674861 4:-0.229315 
-0.125 1:-0.0495991 2:-0.995131 3:-0.774971 4:-0.40375 
-0.125 1:0.865383 2:-0.901262 3:-0.750656 4:-0.103203 
-0.125 1:0.747321 2:-1 3:-0.4802 4:-0.55617 
-0.125 1:-0.834713 2:-0.983548 3:-0.651809 4:-0.202216 
-0.125 1:0.865383 2:-1 3:-0.750656 4:-0.103203 
-0.125 1:-0.393947 2:-0.998305 3:-0.686831 4:-0.20678 
-0.125 1:0.865383 2:-1 3:-0.750656 4:-0.103203 
-0.125 1:-0.498891 2:-0.960797 3:-0.642985 4:-0.143683 
-0.125 1:0.747321 2:-1 3:-0.4802 4:-0.55617 
-0.125 1:-0.813724 2:-0.905817 3:-0.610912 4:-0.0791086 
-0.125 1:0.747321 2:-1 3:-0.4802 4:-0.55617 
-0.125 1:-0.289003 2:-0.962642 3:-0.705811 4:-0.241548 
-0.125 1:0.971847 2:-1 3:-1 4:-1 
-0.125 1:-0.114096 2:-0.991012 3:-0.717788 4:-0.275676 
-0.125 1:0.747321 2:-1 3:-0.4802 4:-0.55617 
-0.125 1:-0.881938 2:-0.98632 3:-0.66041 4:-0.208258 
-0.125 1:0.747321 2:-0.994743 3:-0.4802 4:-0.55617 
-0.125 1:-0.846519 2:-0.961751 3:-0.658058 4:-0.207907 
-0.125 1:-0.603836 2:-0.932344 3:-0.648871 4:-0.140781 
-0.125 1:0.865383 2:-1 3:-0.750656 4:-0.103203 
-0.125 1:0.939551 2:-0.560505 3:-0.558758 4:-0.562263 
-0.125 1:-0.393947 2:-0.917098 3:-0.686831 4:-0.20678 
-0.125 1:-0.498891 2:-0.932274 3:-0.667851 4:-0.173211 
-0.125 1:-0.0318898 2:-0.976949 3:-0.777843 4:-0.409173 
-0.125 1:0.747321 2:-1 3:-0.4802 4:-0.55617 
-0.125 1:-0.173564 2:-0.987041 3:-0.754862 4:-0.366882 
-0.125 1:-0.761252 2:-1 3:-0.620402 4:-0.0941443 
-0.125 1:0.960731 2:-0.956725 3:-0.00704957 4:0.128588 
-0.125 1:-0.393947 2:-0.911513 3:-0.686831 4:-0.20678 
-0.125 1:0.747321 2:-1 3:-0.4802 4:-0.55617 
-0.125 1:-0.173564 2:-0.95805 3:-0.754862 4:-0.366882 
-0.125 1:0.975402 2:-0.198336 3:-0.672549 4:-0.710256 
-0.125 1:-0.498891 2:-0.901058 3:-0.667851 4:-0.173211 
-0.125 1:-0.120436 2:-0.994761 3:-0.76348 4:-0.382452 
-0.125 1:0.747321 2:-0.958797 3:-0.4802 4:-0.55617 
-0.125 1:0.747321 2:-1 3:-0.4802 4:-0.55617 
-0.125 1:-0.8111 2:-0.983647 3:-0.663603 4:-0.215851 
-0.125 1:0.865383 2:-1 3:-0.750656 4:-0.103203 
-0.125 1:-0.0850178 2:-0.98861 3:-0.769225 4:-0.393023 
-0.125 1:0.970487 2:-0.907726 3:-0.0778325 4:-0.0124801 
-0.125 1:-0.693038 2:-0.977317 3:-0.689312 4:-0.251086 
-0.01615515218248563 1:-0.551364 2:-1 3:-0.632784 4:-0.127012 
-0.125 1:0.130774 2:-0.96786 3:-0.781731 4:-0.393991 
-0.125 1:0.865383 2:-1 3:-0.750656 4:-0.103203 
-0.125 1:0.865383 2:-1 3:-0.750656 4:-0.103203 
-0.125 1:0.747321 2:-0.982198 3:-0.4802 4:-0.55617 
-0.125 1:0.747321 2:-1 3:-0.4802 4:-0.55617 
-0.125 1:-0.138146 2:-0.969148 3:-0.760607 4:-0.377224 
-0.125 1:-0.740263 2:-0.973254 3:-0.666948 4:-0.223802 
-0.125 1:-0.533873 2:-0.993684 3:-0.636184 4:-0.132536 
-0.125 1:-0.341475 2:-0.938737 3:-0.696321 4:-0.22401 
-0.125 1:0.180622 2:-0.998746 3:-0.812316 4:-0.477547 
-0.125 1:0.747321 2:-1 3:-0.4802 4:-0.55617 
-0.125 1:-0.813724 2:-0.981289 3:-0.610912 4:-0.0791086 
-0.125 1:0.865383 2:-1 3:-0.750656 4:-0.103203 
-0.125 1:-0.411438 2:-0.997164 3:-0.659985 4:-0.172141 
-0.125 1:0.865383 2:-1 3:-0.750656 4:-0.103203 
-0.125 1:-0.481401 2:-0.983303 3:-0.646385 4:-0.149307 
-0.125 1:-0.693038 2:-0.953124 3:-0.689312 4:-0.251086 
-0.125 1:0.747321 2:-1 3:-0.4802 4:-0.55617 
-0.125 1:0.747321 2:-1 3:-0.4802 4:-0.55617 
-0.125 1:-0.138146 2:-0.979504 3:-0.760607 4:-0.377224 
-0.125 1:-0.929163 2:-1 3:-0.63667 4:-0.181347 
-0.125 1:0.925216 2:-0.979052 3:-0.568546 4:-0.680898 
-0.125 1:0.865383 2:-1 3:-0.750656 4:-0.103203 
-0.125 1:-0.341475 2:-0.980675 3:-0.673586 4:-0.195534 
-0.125 1:-0.0850178 2:-0.98613 3:-0.769225 4:-0.393023 
-0.125 1:-0.704844 2:-0.991065 3:-0.680238 4:-0.240293 
-0.125 1:0.865383 2:-0.931204 3:-0.750656 4:-0.103203 
-0.125 1:0.0920756 2:-0.995821 3:-0.797952 4:-0.448297 
-0.125 1:-0.716651 2:-0.960264 3:-0.670732 4:-0.229315 
-0.125 1:0.865383 2:-1 3:-0.750656 4:-0.103203 
-0.125 1:-0.138146 2:-0.984768 3:-0.760607 4:-0.377224 
-0.125 1:0.747321 2:-0.959881 3:-0.4802 4:-0.55617 
-0.125 1:0.747321 2:-0.951216 3:-0.4802 4:-0.55617 
-0.125 1:-0.341475 2:-1 3:-0.696321 4:-0.22401 
-0.125 1:0.747321 2:-1 3:-0.4802 4:-0.55617 
-0.125 1:-0.131587 2:-0.98222 3:-0.734281 4:-0.296092 
-0.125 1:-0.775682 2:-1 3:-0.669148 4:-0.223895 
-0.125 1:-0.498891 2:-0.996186 3:-0.667851 4:-0.173211 
-0.125 1:0.747321 2:-1 3:-0.4802 4:-0.55617 
-0.125 1:0.941402 2:-0.911735 3:-0.643937 4:-0.690334 
-0.125 1:0.747321 2:-1 3:-0.4802 4:-0.55617 
-0.125 1:0.865383 2:-1 3:-0.750656 4:-0.103203 
-0.125 1:-0.881938 2:-0.864367 3:-0.652513 4:-0.200062 
-0.125 1:-0.428929 2:-0.988526 3:-0.656585 4:-0.166381 
-0.125 1:0.130774 2:-1 3:-0.781731 4:-0.393991 
-0.125 1:-0.498891 2:-0.969117 3:-0.642985 4:-0.143683 
-0.125 1:0.747321 2:-1 3:-0.4802 4:-0.55617 
-0.125 1:-0.917356 2:-1 3:-0.646968 4:-0.192314 
-0.125 1:0.973719 2:-0.924674 3:-0.0952525 4:0.0403609 
-0.125 1:-0.834713 2:-1 3:-0.667636 4:-0.218699 
-0.125 1:-0.952775 2:-0.947593 3:-0.641423 4:-0.18466 
-0.125 1:-0.8111 2:-0.982057 3:-0.663603 4:-0.215851 
-0.125 1:-0.393947 2:-0.953482 3:-0.663386 4:-0.177936 
-0.125 1:0.130774 2:-0.948503 3:-0.781731 4:-0.393991 
-0.125 1:0.747321 2:-1 3:-0.4802 4:-0.55617 
-0.125 1:-0.341475 2:-0.975801 3:-0.696321 4:-0.22401 
-0.125 1:-0.763876 2:-0.939997 3:-0.663163 4:-0.218337 
-0.125 1:-0.929163 2:-0.949452 3:-0.653185 4:-0.197986 
-0.125 1:-0.740263 2:-0.971432 3:-0.674693 4:-0.232042 
-0.05956996865089475 1:0.96573 2:-1 3:-1 4:-1 
-0.125 1:-0.0266425 2:-0.985871 3:-0.753261 4:-0.334154 
-0.125 1:-0.481401 2:-1 3:-0.646385 4:-0.149307 
-0.125 1:0.865383 2:-0.847548 3:-0.750656 4:-0.103203 
-0.125 1:-0.881938 2:-0.917402 3:-0.652513 4:-0.200062 
-0.125 1:-0.704844 2:-1 3:-0.680238 4:-0.240293 
-0.125 1:-0.775682 2:-0.970476 3:-0.669148 4:-0.223895 
-0.125 1:0.865383 2:-0.847548 3:-0.750656 4:-0.103203 
-0.125 1:0.938203 2:-0.888242 3:-0.611123 4:-0.628446 
-0.125 1:0.747321 2:-1 3:-0.4802 4:-0.55617 
-0.125 1:0.747321 2:-1 3:-0.4802 4:-0.55617 
-0.125 1:0.865383 2:-1 3:-0.750656 4:-0.103203 
-0.125 1:-0.481401 2:-1 3:-0.646385 4:-0.149307 
-0.125 1:-0.813724 2:-0.904884 3:-0.610912 4:-0.0791086 
-0.125 1:-0.8111 2:-0.966923 3:-0.663603 4:-0.215851 
-0.125 1:0.747321 2:-0.996487 3:-0.4802 4:-0.55617 
-0.125 1:0.747321 2:-0.959881 3:-0.4802 4:-0.55617 
-0.125 1:-0.704844 2:-0.990317 3:-0.680238 4:-0.240293 
-0.125 1:-0.102727 2:-0.9648 3:-0.774503 4:-0.39873 
-0.125 1:0.865383 2:-1 3:-0.750656 4:-0.103203 
-0.125 1:-0.8111 2:-0.953455 3:-0.663603 4:-0.215851 
-0.125 1:0.865383 2:-1 3:-0.750656 4:-0.103203 
-0.125 1:-0.498891 2:-0.969159 3:-0.642985 4:-0.143683 
-0.125 1:0.865383 2:-1 3:-0.750656 4:-0.103203 
-0.125 1:-0.834713 2:-0.984227 3:-0.651809 4:-0.202216 
-0.125 1:-0.516382 2:-0.999339 3:-0.639584 4:-0.138093 
-0.125 1:0.747321 2:-1 3:-0.4802 4:-0.55617 
-0.125 1:-0.787488 2:-0.932183 3:-0.674861 4:-0.229315 
-0.125 1:-0.0495991 2:-0.978601 3:-0.774971 4:-0.40375 
-0.125 1:-0.761252 2:-1 3:-0.620402 4:-0.0941443 
-0.125 1:-0.881938 2:-0.986056 3:-0.644239 4:-0.191694 
-0.125 1:-0.0441332 2:-0.958509 3:-0.731388 4:-0.301688 
-0.125 1:-0.976388 2:-0.874685 3:-0.64596 4:-0.18788 
-0.125 1:-0.8111 2:-0.991251 3:-0.663603 4:-0.215851 
-0.125 1:0.865383 2:-0.884942 3:-0.750656 4:-0.103203 
-0.125 1:0.865383 2:-0.86815 3:-0.750656 4:-0.103203 
-0.125 1:-0.446419 2:-0.998711 3:-0.653185 4:-0.160655 
-0.125 1:-0.881938 2:-0.993758 3:-0.66041 4:-0.208258 
-0.125 1:0.747321 2:-1 3:-0.4802 4:-0.55617 
-0.125 1:0.964281 2:-0.998867 3:-0.740831 4:-0.534636 
-0.125 1:0.747321 2:-1 3:-0.4802 4:-0.55617 
-0.125 1:-0.740263 2:-0.964116 3:-0.666948 4:-0.223802 
-0.125 1:0.958831 2:-0.877185 3:-0.585577 4:-0.625361 
-0.125 1:0.865383 2:-0.866068 3:-0.750656 4:-0.103203 
-0.125 1:-0.120436 2:-0.983071 3:-0.76348 4:-0.382452 
-0.125 1:0.109785 2:-0.977452 3:-0.800825 4:-0.454057 
-0.125 1:0.865383 2:-1 3:-0.750656 4:-0.103203 
-0.125 1:-0.740263 2:-0.969839 3:-0.666948 4:-0.223802 
-0.125 1:0.865383 2:-1 3:-0.750656 4:-0.103203 
-0.125 1:0.865383 2:-1 3:-0.750656 4:-0.103203 
-0.125 1:0.96631 2:-1 3:-1 4:-1 
-0.125 1:-0.138146 2:-0.991342 3:-0.760607 4:-0.377224 
-0.125 1:-0.693038 2:-0.97264 3:-0.689312 4:-0.251086 
-0.125 1:0.747321 2:-1 3:-0.4802 4:-0.55617 
-0.125 1:-0.929163 2:-1 3:-0.653185 4:-0.197986 
-0.125 1:-0.787488 2:-0.933769 3:-0.659378 4:-0.212917 
-0.125 1:-0.393947 2:-0.95345 3:-0.686831 4:-0.20678 
-0.125 1:-0.740263 2:-0.910783 3:-0.682086 4:-0.240109 
-0.125 1:-0.704844 2:-1 3:-0.680238 4:-0.240293 
-0.125 1:-0.693038 2:-0.95438 3:-0.689312 4:-0.251086 
-0.125 1:0.747321 2:-1 3:-0.4802 4:-0.55617 
-0.125 1:-0.813724 2:-0.994037 3:-0.610912 4:-0.0791086 
-0.125 1:-0.929163 2:-1 3:-0.63667 4:-0.181347 
-0.125 1:-0.551364 2:-0.958453 3:-0.658361 4:-0.156857 
-0.125 1:0.865383 2:-1 3:-0.750656 4:-0.103203 
-0.125 1:0.747321 2:-0.981408 3:-0.4802 4:-0.55617 
-0.125 1:0.96575 2:-1 3:-1 4:-1 
-0.125 1:0.973193 2:-1 3:-1 4:-1 
-0.125 1:-0.446419 2:-0.981521 3:-0.653185 4:-0.160655 
-0.125 1:0.747321 2:-1 3:-0.4802 4:-0.55617 
-0.125 1:-0.446419 2:-0.987806 3:-0.653185 4:-0.160655 
-0.125 1:0.747321 2:-0.970843 3:-0.4802 4:-0.55617 
-0.125 1:-0.918668 2:-1 3:-0.591932 4:-0.0497647 
-0.125 1:-0.0266425 2:-0.926816 3:-0.753261 4:-0.334154 
-0.125 1:-0.393947 2:-0.966003 3:-0.686831 4:-0.20678 
-0.125 1:0.747321 2:-1 3:-0.4802 4:-0.55617 
-0.125 1:-0.428929 2:-1 3:-0.656585 4:-0.166381 
-0.125 1:-0.120436 2:-1 3:-0.76348 4:-0.382452 
-0.125 1:0.953547 2:-0.991137 3:-0.741695 4:-0.489324 
-0.125 1:-0.787488 2:-0.960219 3:-0.674861 4:-0.229315 
-0.125 1:-0.858325 2:-1 3:-0.648024 4:-0.196933 
-0.125 1:0.747321 2:-0.996551 3:-0.4802 4:-0.55617 
-0.125 1:-0.533873 2:-0.996844 3:-0.636184 4:-0.132536 
-0.125 1:0.939549 2:-0.629844 3:-0.605552 4:-0.671174 
-0.125 1:-0.90555 2:-1 3:-0.640455 4:-0.186499 
-0.125 1:-0.498891 2:-0.970541 3:-0.642985 4:-0.143683 
-0.125 1:0.865383 2:-1 3:-0.750656 4:-0.103203 
