svm_type c_svc
kernel_type rbf
gamma 0.0078125
nr_class 2
total_sv 1140
rho 0.299203
label 1 0
nr_sv 566 574
SV
2 1:0.8 2:0.30188679 3:4.1372549 4:7.5454545 5:0 6:0 
2 1:0.8 2:0.35140998 3:4.1372549 4:7.5454545 5:0 6:0 
2 1:0.285 2:0.0074278184 3:4.3255814 4:5.8972603 5:0 6:0.525 
2 1:0.15 2:0 3:5.047619 4:6.5434783 5:0 6:0.75 
2 1:0.13 2:0 3:5.1428571 4:6.625 5:0 6:0.78333333 
2 1:0.22222222 2:0.0038610039 3:5.1791045 4:7.0344828 5:0 6:0.66666667 
2 1:0.3525 2:0 3:4.1204819 4:5.6582734 5:0 6:0.4125 
2 1:0.14 2:0.0038610039 3:4.9090909 4:6.4661017 5:0 6:0.76666667 
2 1:0.8 2:0.23529412 3:4.1372549 4:7.5454545 5:0 6:0 
2 1:0.38 2:0.067969625 3:3.8181818 4:5.3867925 5:0 6:0.36666667 
2 1:0.165 2:0.19409784 3:4.8837209 4:6.4220779 5:0 6:0.725 
2 1:0.57777778 2:0.091709125 3:3.2686567 4:4.8 5:0 6:0.15 
2 1:0.15555556 2:0.032818074 3:5.5373134 4:7.3865546 5:0 6:0.76666667 
2 1:0.8 2:0.30188679 3:4.1372549 4:7.5454545 5:0 6:0 
2 1:0.8 2:0.33910035 3:4.1372549 4:7.5454545 5:0 6:0 
2 1:0.09 2:0 3:5.2325581 4:6.7232704 5:0 6:0.85 
2 1:0.24 2:0.030641195 3:4.5348837 4:6.1006711 5:0 6:0.6125 
2 1:0.16 2:0.017905476 3:4.8181818 4:6.3846154 5:0 6:0.73333333 
2 1:0.345 2:0.090634441 3:4.0465116 4:5.6126761 5:0 6:0.425 
2 1:0.75 2:0 3:7.540146 4:4.2393822 5:0 6:0 
2 1:0.75 2:0.34710744 3:7.540146 4:4.2393822 5:0 6:0 
2 1:0.75 2:0 3:7.540146 4:4.2393822 5:0 6:0 
2 1:0.135 2:0.054054054 3:5.0232558 4:6.5448718 5:0 6:0.775 
2 1:0.8 2:0.21459227 3:4.1372549 4:7.5454545 5:0 6:0.13333333 
2 1:0.22222222 2:0.21994885 3:5.1791045 4:7.0344828 5:0 6:0.66666667 
2 1:0.53333333 2:0.10169492 3:3.5074627 4:5.1176471 5:0 6:0.2 
2 1:0.8 2:0.032786885 3:4.1372549 4:7.5454545 5:0 6:0.066666667 
2 1:0.17037037 2:0.046511628 3:5.7914439 4:7.5306122 5:0 6:0.74444444 
2 1:0.225 2:0.0099350401 3:4.6046512 4:6.1666667 5:0 6:0.625 
2 1:0.12 2:0 3:5.0930233 4:6.6050955 5:0 6:0.8 
2 1:0.2175 2:0.078408811 3:4.7710843 4:6.2871622 5:0 6:0.6375 
2 1:0.8 2:0.061538462 3:4.1372549 4:7.5454545 5:0 6:0.066666667 
2 1:0.24444444 2:0.0089330025 3:5.3636364 4:7.1261261 5:0 6:0.63888889 
2 1:0.8 2:0.30188679 3:4.1372549 4:7.5454545 5:0 6:0 
2 1:0.32 2:0.16424294 3:4.0909091 4:5.6788991 5:0 6:0.46666667 
2 1:0.09 2:0 3:5.3333333 4:6.7838983 5:0 6:0.85 
2 1:0.195 2:0 3:4.744186 4:6.2960526 5:0 6:0.675 
2 1:0.14814815 2:0.13979031 3:5.9197861 4:7.6473988 5:0 6:0.77777778 
2 1:0.75 2:0 3:7.540146 4:4.2393822 5:0 6:0 
2 1:0.15 2:0 3:5.047619 4:6.5434783 5:0 6:0.75 
2 1:0.33333333 2:0.094028771 3:4.5820896 4:6.4054054 5:0 6:0.5 
2 1:0.22 2:0.12371957 3:4.7142857 4:6.2466368 5:0 6:0.63333333 
2 1:0.8 2:0.27692308 3:4.1372549 4:7.5454545 5:0 6:0.066666667 
2 1:0.75 2:0 3:7.540146 4:4.2393822 5:0 6:0 
2 1:0.75 2:0 3:7.540146 4:4.2393822 5:0 6:0 
2 1:0.75 2:0 3:7.540146 4:4.2393822 5:0 6:0 
2 1:0.088888889 2:0 3:6.2620321 4:7.9491525 5:0 6:0.86666667 
2 1:0.75 2:0 3:7.540146 4:4.2393822 5:0 6:0 
2 1:0.8 2:0.29080119 3:4.1372549 4:7.5454545 5:0 6:0 
2 1:0.14 2:0.063291139 3:5.0952381 4:6.5844156 5:0 6:0.76666667 
2 1:0.15 2:0.11989543 3:4.9534884 4:6.483871 5:0 6:0.75 
2 1:0.01 2:0 3:5.7142857 4:7.0860656 5:0 6:0.98333333 
2 1:0.31111111 2:0.014948392 3:4.7014925 4:6.5357143 5:0 6:0.55 
2 1:0.11851852 2:0 3:6.0909091 4:7.8 5:0 6:0.82222222 
2 1:0.8 2:0.128 3:4.1372549 4:7.5454545 5:0 6:0 
2 1:0.08 2:0 3:5.3809524 4:6.8227848 5:0 6:0.86666667 
2 1:0.09 2:0.099827883 3:5.3333333 4:6.7838983 5:0 6:0.85 
2 1:0.066666667 2:0 3:6.3903743 4:8.0588235 5:0 6:0.9 
2 1:0.2 2:0.0059341763 3:4.8095238 4:6.3333333 5:0 6:0.66666667 
2 1:0.096296296 2:0 3:6.2192513 4:7.9121813 5:0 6:0.85555556 
2 1:0.8 2:0.21459227 3:4.1372549 4:7.5454545 5:0 6:0 
2 1:0.8 2:0 3:4.1372549 4:7.5454545 5:0 6:0.066666667 
2 1:0.8 2:0.18823529 3:4.1372549 4:7.5454545 5:0 6:0 
2 1:0.17037037 2:0 3:5.7914439 4:7.5306122 5:0 6:0.74444444 
2 1:0.8 2:0.35140998 3:4.1372549 4:7.5454545 5:0 6:0 
2 1:0.75 2:0 3:7.540146 4:4.2393822 5:0 6:0 
2 1:0.75 2:0 3:7.540146 4:4.2393822 5:0 6:0 
2 1:0.3675 2:0.008785854 3:4.0481928 4:5.5833333 5:0 6:0.3875 
2 1:0.15 2:0.11818182 3:4.9534884 4:6.483871 5:0 6:0.75 
2 1:0.11111111 2:0.27045576 3:5.7761194 4:7.6115702 5:0 6:0.83333333 
2 1:0.23703704 2:0.042763158 3:5.4064171 4:7.1676647 5:0 6:0.64444444 
2 1:0.37777778 2:0.071428571 3:4.3432836 4:6.1376147 5:0 6:0.43333333 
2 1:0.14 2:0.01980198 3:5.0952381 4:6.5844156 5:0 6:0.76666667 
2 1:0.135 2:0.16736731 3:5.0232558 4:6.5448718 5:0 6:0.775 
2 1:0.8 2:0.33027523 3:4.1372549 4:7.5454545 5:0 6:0 
2 1:0.75 2:0 3:7.540146 4:4.2393822 5:0 6:0 
2 1:0.14 2:0 3:4.9090909 4:6.4661017 5:0 6:0.76666667 
2 1:0.14814815 2:0 3:5.9197861 4:7.6473988 5:0 6:0.77777778 
2 1:0.081481481 2:0.10706367 3:6.3048128 4:7.9859155 5:0 6:0.88333333 
2 1:0.16 2:0.090096798 3:4.8181818 4:6.3846154 5:0 6:0.73333333 
2 1:0.18 2:0.19972261 3:4.7272727 4:6.3017241 5:0 6:0.7 
2 1:0.75 2:0 3:7.540146 4:4.2393822 5:0 6:0 
2 1:0.83663196 2:0 3:3.7916667 4:5.0232558 5:3.94 6:0.0060952936 
2 1:0.26666667 2:0.098294885 3:4.9402985 4:6.7894737 5:0 6:0.6 
2 1:0.75 2:0.23529412 3:7.540146 4:4.2393822 5:0 6:0 
2 1:0.14 2:0.18271605 3:5.0952381 4:6.5844156 5:0 6:0.76666667 
2 1:0.8 2:0.29080119 3:4.1372549 4:7.5454545 5:0 6:0.066666667 
2 1:0.83114686 2:0.49187358 3:4.9166667 4:3.7272727 5:6.73 6:0.004224207 
2 1:0.15 2:0 3:5.047619 4:6.5434783 5:0 6:0.75 
2 1:0.18 2:0.043273754 3:4.8139535 4:6.3594771 5:0 6:0.7 
2 1:0.8 2:0.33910035 3:4.1372549 4:7.5454545 5:0 6:0.066666667 
2 1:0.75 2:0 3:7.540146 4:4.2393822 5:0 6:0 
2 1:0.2962963 2:0 3:5.0641711 4:6.8282209 5:0 6:0.55555556 
2 1:0.8 2:0.4 3:4.1372549 4:7.5454545 5:0 6:0 
2 1:0.75 2:0 3:7.540146 4:4.2393822 5:0 6:0 
2 1:0.3 2:0 3:4.373494 4:5.9122807 5:0 6:0.5 
2 1:0.08 2:0.063542494 3:5.1818182 4:6.7024793 5:0 6:0.86666667 
2 1:0.14 2:0.072590738 3:4.9090909 4:6.4661017 5:0 6:0.76666667 
2 1:0.15 2:0 3:4.9534884 4:6.483871 5:0 6:0.75 
2 1:0.15 2:0.17456716 3:4.9534884 4:6.483871 5:0 6:0.75 
2 1:0.8 2:0.21459227 3:4.1372549 4:7.5454545 5:0 6:0 
2 1:0.8 2:0.25906736 3:4.1372549 4:7.5454545 5:0 6:0.066666667 
2 1:0.12 2:0 3:5.0930233 4:6.6050955 5:0 6:0.8 
2 1:0.8 2:0.35140998 3:4.1372549 4:7.5454545 5:0 6:0.066666667 
2 1:0.8 2:0.0090497738 3:4.1372549 4:7.5454545 5:0 6:0.066666667 
2 1:0.081481481 2:0.0049627792 3:6.3048128 4:7.9859155 5:0 6:0.87777778 
2 1:0.22222222 2:0.28245775 3:5.1791045 4:7.0344828 5:0 6:0.66666667 
2 1:0.28888889 2:0 3:4.8208955 4:6.6637168 5:0 6:0.56666667 
2 1:0.75 2:0.30188679 3:7.540146 4:4.2393822 5:0 6:0 
2 1:0.22222222 2:0 3:5.4919786 4:7.25 5:0 6:0.66666667 
2 1:0.17 2:0 3:4.952381 4:6.4605263 5:0 6:0.71666667 
2 1:0.31111111 2:0.23707637 3:4.7014925 4:6.5357143 5:0 6:0.53333333 
2 1:0.75 2:0 3:7.540146 4:4.2393822 5:0 6:0 
2 1:0.1 2:0 3:5.0909091 4:6.625 5:0 6:0.83333333 
2 1:0.17 2:0.058269066 3:4.952381 4:6.4605263 5:0 6:0.71666667 
2 1:0.8 2:0.15384615 3:4.1372549 4:7.5454545 5:0 6:0 
2 1:0.34 2:0.015063141 3:4 4:5.5833333 5:0 6:0.45 
2 1:0.26666667 2:0.1904135 3:4.9402985 4:6.7894737 5:0 6:0.6 
2 1:0.165 2:0 3:4.8837209 4:6.4220779 5:0 6:0.725 
2 1:0.26666667 2:0.010803732 3:4.9402985 4:6.7894737 5:0 6:0.6 
2 1:0.8 2:0.097560976 3:4.1372549 4:7.5454545 5:0 6:0 
2 1:0.8 2:0.03960396 3:4.1372549 4:7.5454545 5:0 6:0 
2 1:0.12 2:0 3:5.0930233 4:6.6050955 5:0 6:0.8125 
2 1:0.14 2:0.04609475 3:5.0952381 4:6.5844156 5:0 6:0.76666667 
2 1:0.14 2:0.042567125 3:4.9090909 4:6.4661017 5:0 6:0.76666667 
2 1:0.18 2:0.063908702 3:4.8139535 4:6.3594771 5:0 6:0.7 
2 1:0.85034454 2:0.016458029 3:4.44 4:4.5483871 5:6.89 6:0.0032102944 
2 1:0.33 2:0.12270439 3:4.1162791 4:5.6853147 5:0 6:0.45 
2 1:0.135 2:0.094597959 3:5.0232558 4:6.5448718 5:0 6:0.775 
2 1:0.09 2:0.027700831 3:5.3333333 4:6.7838983 5:0 6:0.85 
2 1:0.13333333 2:0.057380241 3:6.0053476 4:7.7241379 5:0 6:0.81111111 
2 1:0.225 2:0.024983807 3:4.6046512 4:6.1666667 5:0 6:0.625 
2 1:0.8 2:0 3:4.1372549 4:7.5454545 5:0 6:0.066666667 
2 1:0.38 2:0.063875089 3:3.8181818 4:5.3867925 5:0 6:0.36666667 
2 1:0.15 2:0.039896738 3:4.9534884 4:6.483871 5:0 6:0.75 
2 1:0.8 2:0.18050542 3:4.1372549 4:7.5454545 5:0 6:0 
2 1:0.08 2:0 3:5.3809524 4:6.8227848 5:0 6:0.86666667 
2 1:0.15 2:0.0023089356 3:4.9534884 4:6.483871 5:0 6:0.75 
2 1:0.11 2:0.067562422 3:5.2380952 4:6.7051282 5:0 6:0.81666667 
2 1:0.19259259 2:0.13608247 3:5.6631016 4:7.4117647 5:0 6:0.71111111 
2 1:0.8 2:0.29080119 3:4.1372549 4:7.5454545 5:0 6:0 
2 1:0.08 2:0.090575275 3:5.1818182 4:6.7024793 5:0 6:0.86666667 
2 1:0.13 2:0.046448087 3:5.1428571 4:6.625 5:0 6:0.78333333 
2 1:0.23703704 2:0.036590486 3:5.4064171 4:7.1676647 5:0 6:0.64444444 
2 1:0.225 2:0.11973392 3:4.6046512 4:6.1666667 5:0 6:0.625 
2 1:0.8 2:0.33910035 3:4.1372549 4:7.5454545 5:0 6:0.066666667 
2 1:0.11111111 2:0.22568093 3:5.7761194 4:7.6115702 5:0 6:0.83333333 
2 1:0.11111111 2:0.057760664 3:5.7761194 4:7.6115702 5:0 6:0.83333333 
2 1:0.195 2:0.11158798 3:4.744186 4:6.2960526 5:0 6:0.675 
2 1:0.14 2:0.030482012 3:5.0952381 4:6.5844156 5:0 6:0.76666667 
2 1:0.28888889 2:0.18204965 3:4.8208955 4:6.6637168 5:0 6:0.56666667 
2 1:0.14074074 2:0.1574344 3:5.9625668 4:7.685879 5:0 6:0.78888889 
2 1:0.75 2:0 3:7.540146 4:4.2393822 5:0 6:0 
2 1:0.12592593 2:0.031734961 3:6.0481283 4:7.7621777 5:0 6:0.81111111 
2 1:0.75 2:0.4 3:7.540146 4:4.2393822 5:0 6:0 
2 1:0.8 2:0.4 3:4.1372549 4:7.5454545 5:0 6:0 
2 1:0.24 2:0.098774081 3:4.4545455 4:6.0442478 5:0 6:0.6 
2 1:0.2 2:0.085887352 3:4.6363636 4:6.2173913 5:0 6:0.66666667 
2 1:0.8 2:0.33910035 3:4.1372549 4:7.5454545 5:0 6:0.13333333 
2 1:0.8 2:0.15384615 3:4.1372549 4:7.5454545 5:0 6:0.066666667 
2 1:0.375 2:0 3:4.0120482 4:5.5454545 5:0 6:0.38125 
2 1:0.75 2:0 3:7.540146 4:4.2393822 5:0 6:0 
2 1:0.8 2:0.30188679 3:4.1372549 4:7.5454545 5:0 6:0 
2 1:0.35555556 2:0.0070344689 3:4.4626866 4:6.2727273 5:0 6:0.46666667 
2 1:0.17 2:0.0030349014 3:4.952381 4:6.4605263 5:0 6:0.725 
2 1:0.24 2:0 3:4.6626506 4:6.1877133 5:0 6:0.6 
2 1:0.8 2:0.066914498 3:4.1372549 4:7.5454545 5:0 6:0 
2 1:0.8 2:0.4 3:4.1372549 4:7.5454545 5:0 6:0.066666667 
2 1:0.75 2:0 3:7.540146 4:4.2393822 5:0 6:0 
2 1:0.22222222 2:0.059514235 3:5.1791045 4:7.0344828 5:0 6:0.66666667 
2 1:0.8 2:0 3:4.1372549 4:7.5454545 5:0 6:0 
2 1:0.75 2:0 3:7.540146 4:4.2393822 5:0 6:0 
2 1:0.195 2:0.017061281 3:4.744186 4:6.2960526 5:0 6:0.675 
2 1:0.17 2:0 3:4.952381 4:6.4605263 5:0 6:0.71666667 
2 1:0.09 2:0 3:5.2325581 4:6.7232704 5:0 6:0.85 
2 1:0.15 2:0.0047093816 3:5.047619 4:6.5434783 5:0 6:0.75 
2 1:0.21 2:0 3:4.6744186 4:6.2317881 5:0 6:0.65 
2 1:0.8 2:0 3:4.1372549 4:7.5454545 5:0 6:0 
2 1:0.195 2:0.050024522 3:4.744186 4:6.2960526 5:0 6:0.675 
2 1:0.8 2:0.066914498 3:4.1372549 4:7.5454545 5:0 6:0 
2 1:0.2925 2:0.017514121 3:4.4096386 4:5.9475524 5:0 6:0.51875 
2 1:0.75 2:0 3:7.540146 4:4.2393822 5:0 6:0 
2 1:0.22222222 2:0.19327731 3:5.1791045 4:7.0344828 5:0 6:0.66666667 
2 1:0.12 2:0 3:5.1904762 4:6.6652361 5:0 6:0.8 
2 1:0.2625 2:0 3:4.5542169 4:6.0862069 5:0 6:0.56875 
2 1:0.8 2:0.128 3:4.1372549 4:7.5454545 5:0 6:0 
2 1:0.84890762 2:0.099552479 3:22.534483 4:4.651662 5:9.97 6:0.0029124216 
2 1:0.18 2:0 3:4.8139535 4:6.3594771 5:0 6:0.7 
2 1:0.075 2:0 3:5.3023256 4:6.78125 5:0 6:0.875 
2 1:0.135 2:0 3:5.0232558 4:6.5448718 5:0 6:0.775 
2 1:0.75 2:0 3:7.540146 4:4.2393822 5:0 6:0 
2 1:0.1037037 2:0.021091243 3:6.1764706 4:7.875 5:0 6:0.84444444 
2 1:0.09 2:0.017011117 3:5.2325581 4:6.7232704 5:0 6:0.85 
2 1:0.066666667 2:0 3:6.3903743 4:8.0588235 5:0 6:0.9 
2 1:0.07 2:0.14521049 3:5.4285714 4:6.8613445 5:0 6:0.88333333 
2 1:0.18 2:0.050244698 3:4.9047619 4:6.4185022 5:0 6:0.70833333 
2 1:0.28888889 2:0.11755455 3:4.8208955 4:6.6637168 5:0 6:0.56666667 
2 1:0.33333333 2:0.0029112082 3:4.5820896 4:6.4054054 5:0 6:0.51666667 
2 1:0.75 2:0.4 3:7.540146 4:4.2393822 5:0 6:0 
2 1:0.17 2:0 3:4.952381 4:6.4605263 5:0 6:0.71666667 
2 1:0.18 2:0.1904135 3:4.7272727 4:6.3017241 5:0 6:0.7 
2 1:0.09 2:0.056376449 3:5.3333333 4:6.7838983 5:0 6:0.85 
2 1:0.15 2:0 3:4.9534884 4:6.483871 5:0 6:0.75 
2 1:0.8 2:0.061538462 3:4.1372549 4:7.5454545 5:0 6:0.066666667 
2 1:0.75 2:0 3:7.540146 4:4.2393822 5:0 6:0 
2 1:0.045 2:0 3:5.4418605 4:6.8950617 5:0 6:0.925 
2 1:0.2 2:0.1463096 3:4.6363636 4:6.2173913 5:0 6:0.68333333 
2 1:0.04 2:0 3:5.3636364 4:6.8536585 5:0 6:0.93333333 
2 1:0.24 2:0.13729186 3:4.4545455 4:6.0442478 5:0 6:0.6 
2 1:0.8 2:0.128 3:4.1372549 4:7.5454545 5:0 6:0.066666667 
2 1:0.75 2:0 3:7.540146 4:4.2393822 5:0 6:0 
2 1:0.15 2:0.038108236 3:5.047619 4:6.5434783 5:0 6:0.75 
2 1:0.53333333 2:0.16424294 3:3.5074627 4:5.1176471 5:0 6:0.2 
2 1:0.06 2:0.031203566 3:5.2727273 4:6.7786885 5:0 6:0.9 
2 1:0.285 2:0.0058306132 3:4.4457831 4:5.9825784 5:0 6:0.525 
1.121690470903103 1:0.8 2:0.4 3:4.1372549 4:7.5454545 5:0 6:0 
2 1:0.75 2:0 3:7.540146 4:4.2393822 5:0 6:0 
2 1:0.75 2:0.33027523 3:7.540146 4:4.2393822 5:0 6:0 
2 1:0.17 2:0.082940622 3:4.952381 4:6.4605263 5:0 6:0.71666667 
2 1:0.15555556 2:0.028779535 3:5.8770053 4:7.6086957 5:0 6:0.76666667 
2 1:0.16 2:0 3:4.8181818 4:6.3846154 5:0 6:0.73333333 
2 1:0.4 2:0.21718464 3:4.2238806 4:6 5:0 6:0.4 
2 1:0.75 2:0 3:7.540146 4:4.2393822 5:0 6:0 
2 1:0.2 2:0.054512417 3:5.2985075 4:7.1538462 5:0 6:0.71666667 
2 1:0.75 2:0 3:7.540146 4:4.2393822 5:0 6:0 
2 1:0.15 2:0.084921592 3:4.9534884 4:6.483871 5:0 6:0.75 
2 1:0.1 2:0 3:5.2857143 4:6.7446809 5:0 6:0.83333333 
2 1:0.8 2:0.25192802 3:4.1372549 4:7.5454545 5:0 6:0.066666667 
2 1:0.11111111 2:0 3:5.7761194 4:7.6115702 5:0 6:0.83333333 
2 1:0.15 2:0 3:4.9534884 4:6.483871 5:0 6:0.75 
2 1:0.05 2:0.17258883 3:5.5238095 4:6.9375 5:0 6:0.91666667 
2 1:0.3225 2:0.010878578 3:4.2650602 4:5.8049645 5:0 6:0.46875 
2 1:0.06 2:0 3:5.372093 4:6.8385093 5:0 6:0.9 
2 1:0.26 2:0.1220545 3:4.5238095 4:6.0684932 5:0 6:0.56666667 
2 1:0.32 2:0.081395349 3:4.2380952 4:5.7887324 5:0 6:0.46666667 
2 1:0.06 2:0 3:5.372093 4:6.8385093 5:0 6:0.9 
2 1:0.16296296 2:0.057057802 3:5.8342246 4:7.5697674 5:0 6:0.75555556 
2 1:0.84857397 2:0 3:5.2 4:3.6237624 5:7.01 6:0.0045089305 
2 1:0.75 2:0 3:7.540146 4:4.2393822 5:0 6:0 
2 1:0.135 2:0 3:5.0232558 4:6.5448718 5:0 6:0.775 
2 1:0.75 2:0 3:7.540146 4:4.2393822 5:0 6:0 
2 1:0.22222222 2:0.21222565 3:5.1791045 4:7.0344828 5:0 6:0.66666667 
2 1:0.75 2:0 3:7.540146 4:4.2393822 5:0 6:0 
2 1:0.8 2:0 3:4.1372549 4:7.5454545 5:0 6:0.13333333 
2 1:0.4 2:0.078018576 3:4.2238806 4:6 5:0 6:0.4 
2 1:0.8 2:0.27692308 3:4.1372549 4:7.5454545 5:0 6:0 
2 1:0.8 2:0.33910035 3:4.1372549 4:7.5454545 5:0 6:0 
2 1:0.75 2:0 3:7.540146 4:4.2393822 5:0 6:0 
2 1:0.05 2:0.17836812 3:5.5238095 4:6.9375 5:0 6:0.91666667 
2 1:0.8 2:0.23529412 3:4.1372549 4:7.5454545 5:0 6:0.066666667 
2 1:0.11 2:0.032326072 3:5.2380952 4:6.7051282 5:0 6:0.81666667 
2 1:0.2 2:0.042196305 3:4.6363636 4:6.2173913 5:0 6:0.66666667 
2 1:0.4275 2:0 3:3.7590361 4:5.2723881 5:0 6:0.29375 
2 1:0.16296296 2:0 3:5.8342246 4:7.5697674 5:0 6:0.75555556 
2 1:0.12 2:0.017786561 3:5.0930233 4:6.6050955 5:0 6:0.8 
2 1:0.17777778 2:0.060771968 3:5.7486631 4:7.4912281 5:0 6:0.73333333 
2 1:0.165 2:0.12989066 3:4.8837209 4:6.4220779 5:0 6:0.725 
2 1:0.75 2:0 3:7.540146 4:4.2393822 5:0 6:0 
2 1:0.15 2:0.004425294 3:4.9534884 4:6.483871 5:0 6:0.75 
2 1:0.16 2:0.28174084 3:4.8181818 4:6.3846154 5:0 6:0.73333333 
2 1:0.15 2:0 3:4.9534884 4:6.483871 5:0 6:0.7625 
2 1:0.27 2:0.063129919 3:4.5180723 4:6.0519031 5:0 6:0.55625 
2 1:0.16 2:0 3:5 4:6.5021834 5:0 6:0.73333333 
2 1:0.8 2:0.35140998 3:4.1372549 4:7.5454545 5:0 6:0.066666667 
2 1:0.26666667 2:0 3:4.9402985 4:6.7894737 5:0 6:0.6 
2 1:0.37777778 2:0.015063141 3:4.3432836 4:6.1376147 5:0 6:0.45 
2 1:0.096296296 2:0 3:6.2192513 4:7.9121813 5:0 6:0.85555556 
2 1:0.8 2:0.23529412 3:4.1372549 4:7.5454545 5:0 6:0 
2 1:0.8 2:0.25192802 3:4.1372549 4:7.5454545 5:0 6:0 
2 1:0.2 2:0.0028183639 3:4.6363636 4:6.2173913 5:0 6:0.66666667 
2 1:0.75 2:0 3:7.540146 4:4.2393822 5:0 6:0 
2 1:0.8 2:0.20224719 3:4.1372549 4:7.5454545 5:0 6:0 
2 1:0.12 2:0.016215284 3:5.1904762 4:6.6652361 5:0 6:0.8 
2 1:0.105 2:0.064720812 3:5.1627907 4:6.664557 5:0 6:0.825 
2 1:0.8 2:0 3:4.1372549 4:7.5454545 5:0 6:0.066666667 
2 1:0.09 2:0 3:5.2325581 4:6.7232704 5:0 6:0.85 
2 1:0.15 2:0 3:4.9534884 4:6.483871 5:0 6:0.75 
2 1:0.16296296 2:0.036262204 3:5.8342246 4:7.5697674 5:0 6:0.75555556 
2 1:0.17777778 2:0.10378463 3:5.7486631 4:7.4912281 5:0 6:0.73333333 
2 1:0.1 2:0.11956866 3:5.2857143 4:6.7446809 5:0 6:0.83333333 
2 1:0.3 2:0.089126327 3:4.373494 4:5.9122807 5:0 6:0.5 
2 1:0.28888889 2:0.0028183639 3:4.8208955 4:6.6637168 5:0 6:0.56666667 
2 1:0.14 2:0.19327731 3:4.9090909 4:6.4661017 5:0 6:0.76666667 
2 1:0.24 2:0.17700916 3:4.4545455 4:6.0442478 5:0 6:0.6 
2 1:0.8 2:0 3:4.1372549 4:7.5454545 5:0 6:0 
2 1:0.8 2:0.33027523 3:4.1372549 4:7.5454545 5:0 6:0 
2 1:0.14 2:0 3:5.0952381 4:6.5844156 5:0 6:0.775 
2 1:0.8 2:0.30188679 3:4.1372549 4:7.5454545 5:0 6:0 
2 1:0.75 2:0 3:7.540146 4:4.2393822 5:0 6:0 
2 1:0.1 2:0 3:5.0909091 4:6.625 5:0 6:0.83333333 
2 1:0.14814815 2:0.046810464 3:5.9197861 4:7.6473988 5:0 6:0.77777778 
2 1:0.27 2:0.051207929 3:4.4761905 4:6.0229358 5:0 6:0.55833333 
2 1:0.28888889 2:0 3:4.8208955 4:6.6637168 5:0 6:0.56666667 
2 1:0.14814815 2:0.066797642 3:5.9197861 4:7.6473988 5:0 6:0.77777778 
2 1:0.75 2:0.35616438 3:7.540146 4:4.2393822 5:0 6:0 
2 1:0.195 2:0.16098321 3:4.744186 4:6.2960526 5:0 6:0.675 
2 1:0.405 2:0 3:3.8674699 4:5.3911439 5:0 6:0.325 
2 1:0.18 2:0.003630337 3:4.9047619 4:6.4185022 5:0 6:0.70833333 
2 1:0.16 2:0.0046734719 3:5 4:6.5021834 5:0 6:0.74166667 
2 1:0.15 2:0.11315924 3:4.9534884 4:6.483871 5:0 6:0.75 
2 1:0.75 2:0 3:7.540146 4:4.2393822 5:0 6:0 
2 1:0.8 2:0.15384615 3:4.1372549 4:7.5454545 5:0 6:0 
2 1:0.2 2:0.077718103 3:5.6203209 4:7.3716814 5:0 6:0.7 
2 1:0.105 2:0 3:5.1627907 4:6.664557 5:0 6:0.825 
2 1:0.3975 2:0 3:3.9036145 4:5.4301471 5:0 6:0.3375 
2 1:0.105 2:0.1713988 3:5.1627907 4:6.664557 5:0 6:0.825 
2 1:0.165 2:0.19246862 3:4.8837209 4:6.4220779 5:0 6:0.7375 
2 1:0.05 2:0 3:5.5238095 4:6.9375 5:0 6:0.91666667 
2 1:0.8 2:0 3:4.1372549 4:7.5454545 5:0 6:0 
2 1:0.8 2:0.20224719 3:4.1372549 4:7.5454545 5:0 6:0 
2 1:0.33333333 2:0.19972261 3:4.5820896 4:6.4054054 5:0 6:0.5 
2 1:0.18 2:0.010318143 3:4.8139535 4:6.3594771 5:0 6:0.7 
2 1:0.02 2:0.2163612 3:5.4545455 4:6.9274194 5:0 6:0.96666667 
2 1:0.8 2:0.27692308 3:4.1372549 4:7.5454545 5:0 6:0 
2 1:0.15 2:0.10609382 3:4.9534884 4:6.483871 5:0 6:0.75 
2 1:0.165 2:0.076190476 3:4.8837209 4:6.4220779 5:0 6:0.725 
2 1:0.105 2:0.11062907 3:5.1627907 4:6.664557 5:0 6:0.825 
2 1:0.16 2:0.056706652 3:5 4:6.5021834 5:0 6:0.73333333 
2 1:0.12 2:0.069486405 3:5.0930233 4:6.6050955 5:0 6:0.8 
2 1:0.165 2:0.0086473132 3:4.8837209 4:6.4220779 5:0 6:0.725 
2 1:0.8 2:0.4 3:4.1372549 4:7.5454545 5:0 6:0 
2 1:0.2 2:0.17142857 3:4.6363636 4:6.2173913 5:0 6:0.66666667 
2 1:0.8 2:0.4 3:4.1372549 4:7.5454545 5:0 6:0 
2 1:0.8 2:0.097297297 3:4.1372549 4:7.5454545 5:0 6:0.066666667 
2 1:0.26666667 2:0 3:5.2352941 4:7 5:0 6:0.6 
2 1:0.195 2:0.064139942 3:4.744186 4:6.2960526 5:0 6:0.6875 
2 1:0.1725 2:0.1416207 3:4.9879518 4:6.4801325 5:0 6:0.7125 
2 1:0.11 2:0.012590494 3:5.2380952 4:6.7051282 5:0 6:0.81666667 
2 1:0.21 2:0.061588331 3:4.6744186 4:6.2317881 5:0 6:0.65 
2 1:0.15 2:0 3:5.047619 4:6.5434783 5:0 6:0.75 
2 1:0.42222222 2:0.21517105 3:4.1044776 4:5.8598131 5:0 6:0.36666667 
2 1:0.18 2:0.078922322 3:4.7272727 4:6.3017241 5:0 6:0.7 
2 1:0.22222222 2:0.13918306 3:5.1791045 4:7.0344828 5:0 6:0.66666667 
2 1:0.22 2:0.092981511 3:4.7142857 4:6.2466368 5:0 6:0.63333333 
2 1:0.8 2:0.20224719 3:4.1372549 4:7.5454545 5:0 6:0.066666667 
2 1:0.2 2:0 3:4.8095238 4:6.3333333 5:0 6:0.66666667 
2 1:0.75 2:0 3:7.540146 4:4.2393822 5:0 6:0 
2 1:0.8 2:0.35140998 3:4.1372549 4:7.5454545 5:0 6:0 
2 1:0.15 2:0.0092983939 3:5.047619 4:6.5434783 5:0 6:0.75 
2 1:0.225 2:0.0044212574 3:4.6046512 4:6.1666667 5:0 6:0.625 
2 1:0.08 2:0 3:5.1818182 4:6.7024793 5:0 6:0.86666667 
2 1:0.8 2:0.29080119 3:4.1372549 4:7.5454545 5:0 6:0 
2 1:0.15555556 2:0 3:5.8770053 4:7.6086957 5:0 6:0.76666667 
2 1:0.015 2:0 3:5.5813953 4:7.0060976 5:0 6:0.975 
2 1:0.225 2:0.044880004 3:4.6046512 4:6.1666667 5:0 6:0.625 
2 1:0.75 2:0 3:7.540146 4:4.2393822 5:0 6:0 
2 1:0.06 2:0 3:5.4761905 4:6.8995816 5:0 6:0.9 
2 1:0.75 2:0 3:7.540146 4:4.2393822 5:0 6:0 
2 1:0.75 2:0 3:7.540146 4:4.2393822 5:0 6:0 
2 1:0.088888889 2:0.11447811 3:6.2620321 4:7.9491525 5:0 6:0.86666667 
2 1:0.105 2:0.069148936 3:5.1627907 4:6.664557 5:0 6:0.825 
2 1:0.75 2:0 3:7.540146 4:4.2393822 5:0 6:0 
2 1:0.75 2:0.066914498 3:7.540146 4:4.2393822 5:0 6:0 
2 1:0.225 2:0.064516129 3:4.6046512 4:6.1666667 5:0 6:0.6375 
2 1:0.135 2:0 3:5.0232558 4:6.5448718 5:0 6:0.775 
2 1:0.22222222 2:0.072590738 3:5.1791045 4:7.0344828 5:0 6:0.66666667 
2 1:0.1875 2:0 3:4.9156627 4:6.4166667 5:0 6:0.6875 
2 1:0.75 2:0 3:7.540146 4:4.2393822 5:0 6:0 
2 1:0.8 2:0.18050542 3:4.1372549 4:7.5454545 5:0 6:0.066666667 
2 1:0.2925 2:0 3:4.4096386 4:5.9475524 5:0 6:0.5125 
2 1:0.1037037 2:0.051926014 3:6.1764706 4:7.875 5:0 6:0.84444444 
2 1:0.13333333 2:0.046448087 3:6.0053476 4:7.7241379 5:0 6:0.8 
2 1:0.195 2:0 3:4.744186 4:6.2960526 5:0 6:0.675 
2 1:0.75 2:0 3:7.540146 4:4.2393822 5:0 6:0 
2 1:0.18 2:0 3:4.9047619 4:6.4185022 5:0 6:0.7 
2 1:0.36296296 2:0.028692199 3:4.6791444 4:6.4258675 5:0 6:0.45555556 
2 1:0.165 2:0.026852312 3:4.8837209 4:6.4220779 5:0 6:0.725 
2 1:0.059259259 2:0.068212824 3:6.4331551 4:8.0949721 5:0 6:0.91111111 
2 1:0.165 2:0.011234786 3:4.8837209 4:6.4220779 5:0 6:0.725 
2 1:0.8 2:0.29080119 3:4.1372549 4:7.5454545 5:0 6:0.066666667 
2 1:0.8 2:0.08 3:4.1372549 4:7.5454545 5:0 6:0 
2 1:0.75 2:0 3:7.540146 4:4.2393822 5:0 6:0 
2 1:0.165 2:0.021278692 3:4.8837209 4:6.4220779 5:0 6:0.725 
2 1:0.18 2:0.087897813 3:4.8139535 4:6.3594771 5:0 6:0.7 
2 1:0.285 2:0 3:4.4457831 4:5.9825784 5:0 6:0.525 
2 1:0.8 2:0.12173913 3:4.1372549 4:7.5454545 5:0 6:0.13333333 
2 1:0.2 2:0.18204965 3:4.6363636 4:6.2173913 5:0 6:0.66666667 
2 1:0.8 2:0.30188679 3:4.1372549 4:7.5454545 5:0 6:0 
2 1:0.13 2:0.093361777 3:5.1428571 4:6.625 5:0 6:0.78333333 
2 1:0.14 2:0.063936064 3:4.9090909 4:6.4661017 5:0 6:0.76666667 
2 1:0.105 2:0 3:5.1627907 4:6.664557 5:0 6:0.825 
2 1:0.8 2:0.30188679 3:4.1372549 4:7.5454545 5:0 6:0 
2 1:0.2 2:0.14198363 3:5.2985075 4:7.1538462 5:0 6:0.7 
2 1:0.14 2:0.0029112082 3:4.9090909 4:6.4661017 5:0 6:0.78333333 
2 1:0.8 2:0 3:4.1372549 4:7.5454545 5:0 6:0 
2 1:0.18518519 2:0.071759259 3:5.7058824 4:7.4516129 5:0 6:0.72222222 
2 1:0.03 2:0 3:5.5116279 4:6.9509202 5:0 6:0.95 
2 1:0.15555556 2:0.041912246 3:5.5373134 4:7.3865546 5:0 6:0.76666667 
2 1:0.2 2:0.028771804 3:4.6363636 4:6.2173913 5:0 6:0.66666667 
2 1:0.27 2:0.02654189 3:4.4761905 4:6.0229358 5:0 6:0.55 
2 1:0.8 2:0.4 3:4.1372549 4:7.5454545 5:0 6:0 
2 1:0.14 2:0.18198362 3:5.0952381 4:6.5844156 5:0 6:0.76666667 
2 1:0.21 2:0 3:4.6744186 4:6.2317881 5:0 6:0.6625 
2 1:0.24 2:0.0083237831 3:4.5348837 4:6.1006711 5:0 6:0.6 
2 1:0.35555556 2:0.10344389 3:4.4626866 4:6.2727273 5:0 6:0.46666667 
2 1:0.8 2:0.0090497738 3:4.1372549 4:7.5454545 5:0 6:0.066666667 
2 1:0.19259259 2:0.12592869 3:5.6631016 4:7.4117647 5:0 6:0.71111111 
2 1:0.14 2:0.093603744 3:4.9090909 4:6.4661017 5:0 6:0.76666667 
2 1:0.18 2:0.067203163 3:4.9047619 4:6.4185022 5:0 6:0.7 
2 1:0.75 2:0 3:7.540146 4:4.2393822 5:0 6:0 
2 1:0.8 2:0.27692308 3:4.1372549 4:7.5454545 5:0 6:0 
2 1:0.135 2:0.051621443 3:5.0232558 4:6.5448718 5:0 6:0.7875 
2 1:0.8 2:0.34594595 3:4.1372549 4:7.5454545 5:0 6:0.13333333 
2 1:0.75 2:0 3:7.540146 4:4.2393822 5:0 6:0 
2 1:0.165 2:0.093052109 3:4.8837209 4:6.4220779 5:0 6:0.725 
2 1:0.33 2:0.15225947 3:4.1162791 4:5.6853147 5:0 6:0.45 
2 1:0.8 2:0.33027523 3:4.1372549 4:7.5454545 5:0 6:0 
2 1:0.18 2:0.087712367 3:4.9047619 4:6.4185022 5:0 6:0.7 
2 1:0.195 2:0.010393467 3:4.744186 4:6.2960526 5:0 6:0.675 
2 1:0.75 2:0 3:7.540146 4:4.2393822 5:0 6:0 
2 1:0.42222222 2:0 3:4.1044776 4:5.8598131 5:0 6:0.38333333 
2 1:0.11111111 2:0.090575275 3:5.7761194 4:7.6115702 5:0 6:0.83333333 
2 1:0.096296296 2:0 3:6.2192513 4:7.9121813 5:0 6:0.85555556 
2 1:0.75 2:0 3:7.540146 4:4.2393822 5:0 6:0 
2 1:0.11111111 2:0.030841121 3:5.7761194 4:7.6115702 5:0 6:0.83333333 
2 1:0.045 2:0 3:5.4418605 4:6.8950617 5:0 6:0.925 
2 1:0.8 2:0.25192802 3:4.1372549 4:7.5454545 5:0 6:0.13333333 
2 1:0.8 2:0.4 3:4.1372549 4:7.5454545 5:0 6:0.066666667 
2 1:0.8 2:0.25192802 3:4.1372549 4:7.5454545 5:0 6:0.066666667 
2 1:0.39 2:0.17684382 3:3.8372093 4:5.3884892 5:0 6:0.35 
2 1:0.3 2:0.077714286 3:4.255814 4:5.8275862 5:0 6:0.5125 
2 1:0.8 2:0.20224719 3:4.1372549 4:7.5454545 5:0 6:0 
2 1:0.13333333 2:0.020380435 3:5.6567164 4:7.5 5:0 6:0.8 
2 1:0.75 2:0 3:7.540146 4:4.2393822 5:0 6:0 
2 1:0.75 2:0 3:7.540146 4:4.2393822 5:0 6:0 
2 1:0.37777778 2:0 3:4.3432836 4:6.1376147 5:0 6:0.43333333 
2 1:0.14 2:0 3:5.0952381 4:6.5844156 5:0 6:0.76666667 
2 1:0.15555556 2:0.042918455 3:5.5373134 4:7.3865546 5:0 6:0.76666667 
2 1:0.33333333 2:0.10060976 3:4.5820896 4:6.4054054 5:0 6:0.5 
2 1:0.18518519 2:0.063578826 3:5.7058824 4:7.4516129 5:0 6:0.72222222 
2 1:0.8 2:0.15384615 3:4.1372549 4:7.5454545 5:0 6:0 
2 1:0.2 2:0.18013414 3:4.6363636 4:6.2173913 5:0 6:0.66666667 
2 1:0.135 2:0 3:5.0232558 4:6.5448718 5:0 6:0.775 
2 1:0.8 2:0.4 3:4.1372549 4:7.5454545 5:0 6:0 
2 1:0.18 2:0.058289175 3:4.8139535 4:6.3594771 5:0 6:0.7 
2 1:0.8 2:0.0090497738 3:4.1372549 4:7.5454545 5:0 6:0.066666667 
2 1:0.75 2:0 3:7.540146 4:4.2393822 5:0 6:0 
2 1:0.195 2:0.20046814 3:4.744186 4:6.2960526 5:0 6:0.675 
2 1:0.8 2:0.4 3:4.1372549 4:7.5454545 5:0 6:0 
2 1:0.24 2:0.0057803468 3:4.6190476 4:6.158371 5:0 6:0.6 
2 1:0.21 2:0 3:4.6744186 4:6.2317881 5:0 6:0.65 
2 1:0.044444444 2:0.10407157 3:6.1343284 4:7.9354839 5:0 6:0.93333333 
2 1:0.34 2:0.028556564 3:4.1428571 4:5.6919431 5:0 6:0.43333333 
2 1:0.11 2:0.066797642 3:5.2380952 4:6.7051282 5:0 6:0.81666667 
2 1:0.195 2:0.21032505 3:4.744186 4:6.2960526 5:0 6:0.6875 
2 1:0.135 2:0.06763877 3:5.0232558 4:6.5448718 5:0 6:0.775 
2 1:0.13 2:0 3:5.1428571 4:6.625 5:0 6:0.78333333 
2 1:0.15555556 2:0 3:5.5373134 4:7.3865546 5:0 6:0.78333333 
2 1:0.8 2:0.25192802 3:4.1372549 4:7.5454545 5:0 6:0.066666667 
2 1:0.23 2:0 3:4.6666667 4:6.2027027 5:0 6:0.625 
2 1:0.27 2:0.1627907 3:4.3953488 4:5.9659864 5:0 6:0.55 
2 1:0.06 2:0.046903929 3:5.372093 4:6.8385093 5:0 6:0.9 
2 1:0.75 2:0 3:7.540146 4:4.2393822 5:0 6:0 
2 1:0.8 2:0 3:4.1372549 4:7.5454545 5:0 6:0.13333333 
2 1:0.75 2:0 3:7.540146 4:4.2393822 5:0 6:0 
2 1:0.21 2:0 3:4.7619048 4:6.2901786 5:0 6:0.65 
2 1:0.037037037 2:0 3:6.5614973 4:8.2022161 5:0 6:0.94444444 
2 1:0.09 2:0 3:5.2325581 4:6.7232704 5:0 6:0.85 
2 1:0.8 2:0.4 3:4.1372549 4:7.5454545 5:0 6:0.066666667 
2 1:0.8 2:0 3:4.1372549 4:7.5454545 5:0 6:0.066666667 
2 1:0.19 2:0 3:4.8571429 4:6.3761062 5:0 6:0.68333333 
2 1:0.06 2:0 3:5.372093 4:6.8385093 5:0 6:0.9 
2 1:0.165 2:0.15209125 3:4.8837209 4:6.4220779 5:0 6:0.725 
2 1:0.18518519 2:0.038108236 3:5.7058824 4:7.4516129 5:0 6:0.72222222 
2 1:0.8 2:0.23529412 3:4.1372549 4:7.5454545 5:0 6:0.066666667 
2 1:0.088888889 2:0 3:5.8955224 4:7.7213115 5:0 6:0.86666667 
2 1:0.51111111 2:0.063875089 3:3.6268657 4:5.2718447 5:0 6:0.23333333 
2 1:0.75 2:0 3:7.540146 4:4.2393822 5:0 6:0 
2 1:0.12 2:0.064382996 3:5.0930233 4:6.6050955 5:0 6:0.8 
2 1:0.8 2:0.23529412 3:4.1372549 4:7.5454545 5:0 6:0 
2 1:0.08 2:0.030841121 3:5.1818182 4:6.7024793 5:0 6:0.86666667 
2 1:0.24 2:0.091135046 3:4.5348837 4:6.1006711 5:0 6:0.6 
2 1:0.8 2:0.31847134 3:4.1372549 4:7.5454545 5:0 6:0.066666667 
2 1:0.17777778 2:0.11337209 3:5.4179104 4:7.2711864 5:0 6:0.75 
2 1:0.1 2:0.061593281 3:5.2857143 4:6.7446809 5:0 6:0.83333333 
2 1:0.2 2:0 3:4.6363636 4:6.2173913 5:0 6:0.66666667 
2 1:0.165 2:0.13129058 3:4.8837209 4:6.4220779 5:0 6:0.725 
2 1:0.75 2:0 3:7.540146 4:4.2393822 5:0 6:0 
2 1:0.09 2:0.26966292 3:5.2325581 4:6.7232704 5:0 6:0.85 
2 1:0.8 2:0.20224719 3:4.1372549 4:7.5454545 5:0 6:0 
2 1:0.75 2:0 3:7.540146 4:4.2393822 5:0 6:0 
2 1:0.12 2:0 3:5.0930233 4:6.6050955 5:0 6:0.8 
2 1:0.8 2:0.35140998 3:4.1372549 4:7.5454545 5:0 6:0 
2 1:0.12592593 2:0 3:6.0481283 4:7.7621777 5:0 6:0.81111111 
2 1:0.75 2:0.33910035 3:7.540146 4:4.2393822 5:0 6:0 
2 1:0.19 2:0.063578826 3:4.8571429 4:6.3761062 5:0 6:0.68333333 
2 1:0.06 2:0 3:5.372093 4:6.8385093 5:0 6:0.9 
2 1:0.2 2:0.093603744 3:5.2985075 4:7.1538462 5:0 6:0.7 
2 1:0.8 2:0.30188679 3:4.1372549 4:7.5454545 5:0 6:0 
2 1:0.8 2:0.013793103 3:4.1372549 4:7.5454545 5:0 6:0.066666667 
2 1:0.8 2:0.30188679 3:4.1372549 4:7.5454545 5:0 6:0 
2 1:0.18 2:0.065125059 3:4.8139535 4:6.3594771 5:0 6:0.7 
2 1:0.21 2:0.024587285 3:4.7619048 4:6.2901786 5:0 6:0.65 
2 1:0.2 2:0.022216482 3:5.2985075 4:7.1538462 5:0 6:0.71666667 
2 1:0.8 2:0.30188679 3:4.1372549 4:7.5454545 5:0 6:0 
2 1:0.75 2:0 3:7.540146 4:4.2393822 5:0 6:0 
2 1:0.105 2:0.1574344 3:5.1627907 4:6.664557 5:0 6:0.825 
2 1:0.12592593 2:0 3:6.0481283 4:7.7621777 5:0 6:0.82222222 
2 1:0.8 2:0 3:4.1372549 4:7.5454545 5:0 6:0.066666667 
2 1:0.83171872 2:1.1016798 3:5.6538462 4:3.0902778 5:10.1 6:0.0050451062 
2 1:0.8 2:0 3:4.1372549 4:7.5454545 5:0 6:0.066666667 
2 1:0.03 2:0 3:5.5116279 4:6.9509202 5:0 6:0.95 
2 1:0.37777778 2:0.07890223 3:4.3432836 4:6.1376147 5:0 6:0.43333333 
2 1:0.18 2:0 3:4.9047619 4:6.4185022 5:0 6:0.7 
2 1:0.24 2:0.093775706 3:4.5348837 4:6.1006711 5:0 6:0.6125 
2 1:0.06 2:0.22568093 3:5.2727273 4:6.7786885 5:0 6:0.9 
2 1:0.195 2:0.023489216 3:4.744186 4:6.2960526 5:0 6:0.675 
2 1:0.41481481 2:0 3:4.3796791 4:6.0967742 5:0 6:0.38333333 
2 1:0.82851325 2:0.52515502 3:5.8888889 4:4.0097087 5:7.88 6:0.0050401679 
2 1:0.12 2:0 3:5 4:6.5462185 5:0 6:0.81666667 
2 1:0.1037037 2:0.026315789 3:6.1764706 4:7.875 5:0 6:0.84444444 
2 1:0.8 2:0.4 3:4.1372549 4:7.5454545 5:0 6:0 
2 1:0.8 2:0.017699115 3:4.1372549 4:7.5454545 5:0 6:0.13333333 
2 1:0.33 2:0.011700207 3:4.2289157 4:5.7686833 5:0 6:0.45 
2 1:0.75 2:0 3:7.540146 4:4.2393822 5:0 6:0 
2 1:0.22222222 2:0 3:5.1791045 4:7.0344828 5:0 6:0.66666667 
2 1:0.75 2:0 3:7.540146 4:4.2393822 5:0 6:0 
2 1:0.16 2:0.076190476 3:5 4:6.5021834 5:0 6:0.73333333 
2 1:0.13 2:0 3:5.1428571 4:6.625 5:0 6:0.78333333 
2 1:0.135 2:0.07158981 3:5.0232558 4:6.5448718 5:0 6:0.775 
2 1:0.75 2:0.20224719 3:7.540146 4:4.2393822 5:0 6:0 
2 1:0.8 2:0.15384615 3:4.1372549 4:7.5454545 5:0 6:0.066666667 
2 1:0.14 2:0.077718103 3:5.0952381 4:6.5844156 5:0 6:0.76666667 
2 1:0.21 2:0.042354674 3:4.6744186 4:6.2317881 5:0 6:0.65 
2 1:0.27 2:0.05906982 3:4.3953488 4:5.9659864 5:0 6:0.55 
2 1:0.14074074 2:0 3:5.9625668 4:7.685879 5:0 6:0.79444444 
2 1:0.074074074 2:0.11147541 3:6.3475936 4:8.0224719 5:0 6:0.88888889 
2 1:0.8 2:0.33910035 3:4.1372549 4:7.5454545 5:0 6:0 
2 1:0.14 2:0.14198363 3:4.9090909 4:6.4661017 5:0 6:0.76666667 
2 1:0.8 2:0.20224719 3:4.1372549 4:7.5454545 5:0 6:0.066666667 
2 1:0.8 2:0 3:4.1372549 4:7.5454545 5:0 6:0 
2 1:0.15 2:0.020370748 3:4.9534884 4:6.483871 5:0 6:0.75 
2 1:0.09 2:0.0027469097 3:5.2325581 4:6.7232704 5:0 6:0.85 
2 1:0.8 2:0.27692308 3:4.1372549 4:7.5454545 5:0 6:0 
2 1:0.165 2:0 3:4.8837209 4:6.4220779 5:0 6:0.725 
2 1:0.33333333 2:0.03442457 3:4.5820896 4:6.4054054 5:0 6:0.51666667 
2 1:0.07 2:0 3:5.4285714 4:6.8613445 5:0 6:0.88333333 
2 1:0.8 2:0.066914498 3:4.1372549 4:7.5454545 5:0 6:0.066666667 
2 1:0.225 2:0 3:4.7349398 4:6.2542373 5:0 6:0.625 
2 1:0.26 2:0.05026455 3:4.3636364 4:5.9553571 5:0 6:0.6 
2 1:0.75 2:0 3:7.540146 4:4.2393822 5:0 6:0 
2 1:0.4 2:0.040385213 3:4.2238806 4:6 5:0 6:0.4 
2 1:0.75 2:0 3:7.540146 4:4.2393822 5:0 6:0 
2 1:0.8 2:0.23529412 3:4.1372549 4:7.5454545 5:0 6:0 
2 1:0.8 2:0.33910035 3:4.1372549 4:7.5454545 5:0 6:0 
2 1:0.8 2:0.25906736 3:4.1372549 4:7.5454545 5:0 6:0 
2 1:0.165 2:0.070818071 3:4.8837209 4:6.4220779 5:0 6:0.725 
2 1:0.8 2:0.4 3:4.1372549 4:7.5454545 5:0 6:0.066666667 
2 1:0.225 2:0.028853231 3:4.6046512 4:6.1666667 5:0 6:0.625 
2 1:0.33333333 2:0.25869565 3:4.5820896 4:6.4054054 5:0 6:0.5 
2 1:0.17777778 2:0.096301465 3:5.7486631 4:7.4912281 5:0 6:0.73333333 
2 1:0.8 2:0.20224719 3:4.1372549 4:7.5454545 5:0 6:0 
2 1:0.75 2:0 3:7.540146 4:4.2393822 5:0 6:0 
2 1:0.28888889 2:0.018805715 3:4.8208955 4:6.6637168 5:0 6:0.58333333 
2 1:0.11851852 2:0.085411538 3:6.0909091 4:7.8 5:0 6:0.82222222 
2 1:0.75 2:0 3:7.540146 4:4.2393822 5:0 6:0 
2 1:0.1037037 2:0 3:6.1764706 4:7.875 5:0 6:0.84444444 
2 1:0.165 2:0.074179743 3:4.8837209 4:6.4220779 5:0 6:0.725 
2 1:0.8 2:0.20224719 3:4.1372549 4:7.5454545 5:0 6:0.066666667 
2 1:0.75 2:0 3:7.540146 4:4.2393822 5:0 6:0 
2 1:0.75 2:0 3:7.540146 4:4.2393822 5:0 6:0 
2 1:0.345 2:0.013340544 3:4.0465116 4:5.6126761 5:0 6:0.425 
2 1:0.75 2:0 3:7.540146 4:4.2393822 5:0 6:0 
2 1:0.21 2:0.16567805 3:4.6744186 4:6.2317881 5:0 6:0.65 
2 1:0.06 2:0 3:5.2727273 4:6.7786885 5:0 6:0.9 
2 1:0.22222222 2:0.058972199 3:5.1791045 4:7.0344828 5:0 6:0.66666667 
-2 1:0.15555556 2:0.061714286 3:5.8770053 4:7.6086957 5:0 6:0.76666667 
-2 1:0.2 2:0.067203163 3:5.6203209 4:7.3716814 5:0 6:0.7 
-2 1:0.14074074 2:0 3:5.9625668 4:7.685879 5:0 6:0.79444444 
-2 1:0.22222222 2:0.0091837691 3:5.1791045 4:7.0344828 5:0 6:0.66666667 
-2 1:0.2925 2:0.0542084 3:4.4096386 4:5.9475524 5:0 6:0.5125 
-2 1:0.17777778 2:0.069825436 3:5.7486631 4:7.4912281 5:0 6:0.73333333 
-2 1:0.2625 2:0.0037735849 3:4.5542169 4:6.0862069 5:0 6:0.5625 
-2 1:0.3075 2:0.069105691 3:4.3373494 4:5.8767606 5:0 6:0.5 
-2 1:0.8 2:0.20224719 3:4.1372549 4:7.5454545 5:0 6:0.066666667 
-2 1:0.285 2:0.062914683 3:4.4457831 4:5.9825784 5:0 6:0.525 
-2 1:0.16296296 2:0.024161074 3:5.8342246 4:7.5697674 5:0 6:0.75555556 
-2 1:0.35555556 2:0.094279583 3:4.4626866 4:6.2727273 5:0 6:0.48333333 
-2 1:0.255 2:0.06678368 3:4.5903614 4:6.1202749 5:0 6:0.575 
-2 1:0.3375 2:0.020370402 3:4.1927711 4:5.7321429 5:0 6:0.4375 
-2 1:0.8 2:0.34594595 3:4.1372549 4:7.5454545 5:0 6:0 
-2 1:0.33 2:0.19583249 3:4.1162791 4:5.6853147 5:0 6:0.45 
-2 1:0.32 2:0.028692199 3:4.2380952 4:5.7887324 5:0 6:0.46666667 
-2 1:0.17037037 2:0.021141649 3:5.7914439 4:7.5306122 5:0 6:0.74444444 
-2 1:0.21481481 2:0.094756791 3:5.5347594 4:7.2908012 5:0 6:0.67777778 
-2 1:0.15555556 2:0.14690546 3:5.5373134 4:7.3865546 5:0 6:0.76666667 
-2 1:0.3675 2:0.10436681 3:4.0481928 4:5.5833333 5:0 6:0.3875 
-2 1:0.22962963 2:0.031109575 3:5.4491979 4:7.2089552 5:0 6:0.65555556 
-2 1:0.16296296 2:0.12233286 3:5.8342246 4:7.5697674 5:0 6:0.75555556 
-2 1:0.285 2:0.04885549 3:4.4457831 4:5.9825784 5:0 6:0.525 
-2 1:0.27 2:0 3:4.5180723 4:6.0519031 5:0 6:0.55 
-2 1:0.18518519 2:0 3:5.7058824 4:7.4516129 5:0 6:0.72222222 
-2 1:0.14814815 2:0.12390671 3:5.9197861 4:7.6473988 5:0 6:0.77777778 
-2 1:0.2775 2:0.036953659 3:4.4819277 4:6.0173611 5:0 6:0.5375 
-2 1:0.2925 2:0 3:4.4096386 4:5.9475524 5:0 6:0.51875 
-2 1:0.22222222 2:0 3:5.4919786 4:7.25 5:0 6:0.67222222 
-2 1:0.14074074 2:0.010348071 3:5.9625668 4:7.685879 5:0 6:0.78888889 
-2 1:0.3225 2:0 3:4.2650602 4:5.8049645 5:0 6:0.4625 
-2 1:0.23703704 2:0.021071115 3:5.4064171 4:7.1676647 5:0 6:0.65 
-2 1:0.285 2:0.05735677 3:4.4457831 4:5.9825784 5:0 6:0.525 
-2 1:0.3675 2:0.046644664 3:4.0481928 4:5.5833333 5:0 6:0.3875 
-2 1:0.13333333 2:0.035893754 3:5.6567164 4:7.5 5:0 6:0.8 
-2 1:0.38518519 2:0.050521251 3:4.5508021 4:6.2866242 5:0 6:0.42222222 
-2 1:0.8 2:0.4 3:4.1372549 4:7.5454545 5:0 6:0 
-2 1:0.25185185 2:0.065224626 3:5.3208556 4:7.0843373 5:0 6:0.62777778 
-2 1:0.345 2:0.058538888 3:4.1566265 4:5.6953405 5:0 6:0.425 
-2 1:0.285 2:0.0065917863 3:4.4457831 4:5.9825784 5:0 6:0.525 
-2 1:0.3525 2:0.039816357 3:4.1204819 4:5.6582734 5:0 6:0.4125 
-2 1:0.33333333 2:0.061582872 3:4.5820896 4:6.4054054 5:0 6:0.5 
-2 1:0.28 2:0.089978138 3:4.4285714 4:5.9769585 5:0 6:0.53333333 
-2 1:0.22222222 2:0.024523161 3:5.4919786 4:7.25 5:0 6:0.67222222 
-2 1:0.33333333 2:0.17142857 3:4.5820896 4:6.4054054 5:0 6:0.5 
-2 1:0.2 2:0.22596196 3:5.2985075 4:7.1538462 5:0 6:0.7 
-2 1:0.375 2:0.035724271 3:4.0120482 4:5.5454545 5:0 6:0.38125 
-2 1:0.12592593 2:0 3:6.0481283 4:7.7621777 5:0 6:0.82222222 
-2 1:0.2925 2:0.041663621 3:4.4096386 4:5.9475524 5:0 6:0.5125 
-2 1:0.16296296 2:0.094420601 3:5.8342246 4:7.5697674 5:0 6:0.76111111 
-2 1:0.2625 2:0.060511206 3:4.5542169 4:6.0862069 5:0 6:0.56875 
-2 1:0.2 2:0.087542088 3:5.2985075 4:7.1538462 5:0 6:0.7 
-2 1:0.15555556 2:0 3:5.8770053 4:7.6086957 5:0 6:0.76666667 
-0.5589372403155595 1:0.84677738 2:0.21688266 3:14.009709 4:12.880866 5:28.71 6:0.0068181818 
-2 1:0.17777778 2:0.069277701 3:5.7486631 4:7.4912281 5:0 6:0.73333333 
-2 1:0.22962963 2:0.059472759 3:5.4491979 4:7.2089552 5:0 6:0.65555556 
-2 1:0.285 2:0 3:4.4457831 4:5.9825784 5:0 6:0.53125 
-2 1:0.24444444 2:0.054844607 3:5.3636364 4:7.1261261 5:0 6:0.63333333 
-2 1:0.3525 2:0.010341714 3:4.1204819 4:5.6582734 5:0 6:0.4125 
-2 1:0.15555556 2:0.08050183 3:5.5373134 4:7.3865546 5:0 6:0.76666667 
-2 1:0.17037037 2:0.0022705441 3:5.7914439 4:7.5306122 5:0 6:0.75 
-2 1:0.22962963 2:0.0065841041 3:5.4491979 4:7.2089552 5:0 6:0.65555556 
-2 1:0.345 2:0.084289421 3:4.1566265 4:5.6953405 5:0 6:0.425 
-2 1:0.315 2:0 3:4.3012048 4:5.8409894 5:0 6:0.48125 
-2 1:0.315 2:0.052432715 3:4.3012048 4:5.8409894 5:0 6:0.475 
-1.450862537990333 1:0.838913 2:2.0933231 3:6.1785714 4:3.7480315 5:10.09 6:0.0072833157 
-2 1:0.16296296 2:0.091800706 3:5.8342246 4:7.5697674 5:0 6:0.75555556 
-2 1:0.17777778 2:0.09001552 3:5.4179104 4:7.2711864 5:0 6:0.73333333 
-2 1:0.3525 2:0.057941377 3:4.1204819 4:5.6582734 5:0 6:0.41875 
-2 1:0.25925926 2:0.056680162 3:5.2780749 4:7.0422961 5:0 6:0.61111111 
-2 1:0.285 2:0.049498328 3:4.4457831 4:5.9825784 5:0 6:0.525 
-2 1:0.26666667 2:0.030170316 3:4.9402985 4:6.7894737 5:0 6:0.6 
-2 1:0.27407407 2:0.085392977 3:5.1925134 4:6.9574468 5:0 6:0.58888889 
-2 1:0.19259259 2:0.04318322 3:5.6631016 4:7.4117647 5:0 6:0.71111111 
-2 1:0.2962963 2:0 3:5.0641711 4:6.8282209 5:0 6:0.55555556 
-2 1:0.17777778 2:0.17751479 3:5.4179104 4:7.2711864 5:0 6:0.73333333 
-2 1:0.23703704 2:0.11192214 3:5.4064171 4:7.1676647 5:0 6:0.64444444 
-2 1:0.2775 2:0.032593707 3:4.4819277 4:6.0173611 5:0 6:0.5375 
-2 1:0.11111111 2:0.18115413 3:5.7761194 4:7.6115702 5:0 6:0.83333333 
-2 1:0.3 2:0.08599051 3:4.373494 4:5.9122807 5:0 6:0.5125 
-2 1:0.34 2:0.041441172 3:4.1428571 4:5.6919431 5:0 6:0.43333333 
-2 1:0.75 2:0.47272727 3:7.540146 4:4.2393822 5:0 6:0 
-2 1:0.255 2:0.047731889 3:4.5903614 4:6.1202749 5:0 6:0.575 
-2 1:0.2775 2:0 3:4.4819277 4:6.0173611 5:0 6:0.5375 
-0.3092101124008939 1:0.088888889 2:0 3:5.8955224 4:7.7213115 5:0 6:0.88333333 
-2 1:0.33 2:0.022939204 3:4.2289157 4:5.7686833 5:0 6:0.45625 
-2 1:0.14814815 2:0.022512382 3:5.9197861 4:7.6473988 5:0 6:0.77777778 
-2 1:0.2962963 2:0.012618814 3:5.0641711 4:6.8282209 5:0 6:0.55555556 
-2 1:0.345 2:0 3:4.1566265 4:5.6953405 5:0 6:0.425 
-2 1:0.22962963 2:0.10014306 3:5.4491979 4:7.2089552 5:0 6:0.66666667 
-2 1:0.11851852 2:0.14692119 3:6.0909091 4:7.8 5:0 6:0.82222222 
-2 1:0.3225 2:0 3:4.2650602 4:5.8049645 5:0 6:0.46875 
-2 1:0.16296296 2:0.13285458 3:5.8342246 4:7.5697674 5:0 6:0.76111111 
-2 1:0.14074074 2:0.012590494 3:5.9625668 4:7.685879 5:0 6:0.79444444 
-2 1:0.315 2:0.032732683 3:4.3012048 4:5.8409894 5:0 6:0.475 
-2 1:0.19259259 2:0.067018503 3:5.6631016 4:7.4117647 5:0 6:0.71666667 
-2 1:0.22222222 2:0.094507518 3:5.4919786 4:7.25 5:0 6:0.67222222 
-2 1:0.2925 2:0.051528418 3:4.4096386 4:5.9475524 5:0 6:0.51875 
-2 1:0.16296296 2:0.11908397 3:5.8342246 4:7.5697674 5:0 6:0.75555556 
-2 1:0.27 2:0 3:4.5180723 4:6.0519031 5:0 6:0.55 
-2 1:0.8 2:0.25906736 3:4.1372549 4:7.5454545 5:0 6:0.066666667 
-2 1:0.37777778 2:0.10273296 3:4.3432836 4:6.1376147 5:0 6:0.45 
-2 1:0.8 2:0.30188679 3:4.1372549 4:7.5454545 5:0 6:0 
-2 1:0.2625 2:0.033100605 3:4.5542169 4:6.0862069 5:0 6:0.5625 
-2 1:0.22222222 2:0.25984252 3:5.1791045 4:7.0344828 5:0 6:0.66666667 
-2 1:0.3075 2:0.021252468 3:4.3373494 4:5.8767606 5:0 6:0.4875 
-2 1:0.22222222 2:0.044195019 3:5.1791045 4:7.0344828 5:0 6:0.66666667 
-2 1:0.26666667 2:0.063936064 3:4.9402985 4:6.7894737 5:0 6:0.6 
-2 1:0.28888889 2:0 3:4.8208955 4:6.6637168 5:0 6:0.56666667 
-2 1:0.75 2:0.34594595 3:7.540146 4:4.2393822 5:0 6:0 
-2 1:0.2775 2:0.019566547 3:4.4819277 4:6.0173611 5:0 6:0.54375 
-2 1:0.8 2:0.33027523 3:4.1372549 4:7.5454545 5:0 6:0 
-2 1:0.15555556 2:0.082189178 3:5.8770053 4:7.6086957 5:0 6:0.76666667 
-2 1:0.315 2:0.01771708 3:4.3012048 4:5.8409894 5:0 6:0.48125 
-2 1:0.285 2:0.035152926 3:4.4457831 4:5.9825784 5:0 6:0.525 
-2 1:0.21481481 2:0.10745402 3:5.5347594 4:7.2908012 5:0 6:0.68333333 
-2 1:0.315 2:0.038292548 3:4.3012048 4:5.8409894 5:0 6:0.48125 
-2 1:0.14074074 2:0 3:5.9625668 4:7.685879 5:0 6:0.78888889 
-2 1:0.16296296 2:0.085446527 3:5.8342246 4:7.5697674 5:0 6:0.75555556 
-2 1:0.42222222 2:0.037072547 3:4.1044776 4:5.8598131 5:0 6:0.36666667 
-2 1:0.3525 2:0 3:4.1204819 4:5.6582734 5:0 6:0.4125 
-2 1:0.2475 2:0.10087173 3:4.626506 4:6.1541096 5:0 6:0.5875 
-2 1:0.21481481 2:0.0059341763 3:5.5347594 4:7.2908012 5:0 6:0.67777778 
-2 1:0.28148148 2:0.055190539 3:5.1497326 4:6.9146341 5:0 6:0.58333333 
-2 1:0.17777778 2:0 3:5.7486631 4:7.4912281 5:0 6:0.73333333 
-1.319062518443557 1:0.84785827 2:0.26055363 3:13.985507 4:4.7973978 5:5.85 6:0.0080015428 
-2 1:0.24444444 2:0.01350211 3:5.3636364 4:7.1261261 5:0 6:0.63333333 
-2 1:0.28888889 2:0.05070333 3:5.1069519 4:6.8715596 5:0 6:0.57222222 
-2 1:0.17777778 2:0.25285787 3:5.4179104 4:7.2711864 5:0 6:0.73333333 
-2 1:0.2 2:0.25421572 3:5.2985075 4:7.1538462 5:0 6:0.7 
-2 1:0.8 2:0.4 3:4.1372549 4:7.5454545 5:0 6:0.066666667 
-2 1:0.15555556 2:0.0092983939 3:5.8770053 4:7.6086957 5:0 6:0.76666667 
-2 1:0.18518519 2:0.032679739 3:5.7058824 4:7.4516129 5:0 6:0.72222222 
-2 1:0.4 2:0.025734081 3:4.2238806 4:6 5:0 6:0.4 
-2 1:0.2625 2:0.00045131032 3:4.5542169 4:6.0862069 5:0 6:0.5625 
-2 1:0.2 2:0.003630337 3:5.6203209 4:7.3716814 5:0 6:0.70555556 
-2 1:0.285 2:0 3:4.4457831 4:5.9825784 5:0 6:0.525 
-2 1:0.31 2:0.023582257 3:4.2857143 4:5.8364486 5:0 6:0.49166667 
-2 1:0.3225 2:0.010051242 3:4.2650602 4:5.8049645 5:0 6:0.4625 
-2 1:0.27407407 2:0.1034358 3:5.1925134 4:6.9574468 5:0 6:0.58888889 
-2 1:0.75 2:0.52406417 3:7.540146 4:4.2393822 5:0 6:0 
-2 1:0.24444444 2:0.053580979 3:5.3636364 4:7.1261261 5:0 6:0.63888889 
-2 1:0.17037037 2:0.12262156 3:5.7914439 4:7.5306122 5:0 6:0.74444444 
-2 1:0.2775 2:0.055576898 3:4.4819277 4:6.0173611 5:0 6:0.5375 
-2 1:0.33 2:0.091407678 3:4.2289157 4:5.7686833 5:0 6:0.45 
-2 1:0.16296296 2:0.053811659 3:5.8342246 4:7.5697674 5:0 6:0.75555556 
-2 1:0.15555556 2:0.017492711 3:5.5373134 4:7.3865546 5:0 6:0.76666667 
-2 1:0.26666667 2:0.0044464206 3:4.9402985 4:6.7894737 5:0 6:0.61666667 
-2 1:0.37777778 2:0.16332616 3:4.3432836 4:6.1376147 5:0 6:0.43333333 
-2 1:0.11111111 2:0.17377567 3:6.1336898 4:7.8376068 5:0 6:0.83333333 
-2 1:0.14074074 2:0 3:5.9625668 4:7.685879 5:0 6:0.78888889 
-2 1:0.25185185 2:0.17137961 3:5.3208556 4:7.0843373 5:0 6:0.62222222 
-2 1:0.2 2:0.086813351 3:5.2985075 4:7.1538462 5:0 6:0.7 
-2 1:0.2925 2:0 3:4.4096386 4:5.9475524 5:0 6:0.5125 
-2 1:0.19259259 2:0.14087618 3:5.6631016 4:7.4117647 5:0 6:0.71111111 
-1.392372742540341 1:0.11111111 2:0.10564748 3:6.1336898 4:7.8376068 5:0 6:0.83333333 
-2 1:0.21481481 2:0.080237741 3:5.5347594 4:7.2908012 5:0 6:0.67777778 
-2 1:0.20740741 2:0.087712367 3:5.5775401 4:7.3313609 5:0 6:0.68888889 
-2 1:0.3675 2:0.026901612 3:4.0481928 4:5.5833333 5:0 6:0.3875 
-2 1:0.75 2:0.60696517 3:7.540146 4:4.2393822 5:0 6:0 
-2 1:0.33333333 2:0.076794658 3:4.5820896 4:6.4054054 5:0 6:0.5 
-2 1:0.31111111 2:0.00047551117 3:4.9786096 4:6.7407407 5:0 6:0.53888889 
-2 1:0.25185185 2:0.043802971 3:5.3208556 4:7.0843373 5:0 6:0.62222222 
-2 1:0.21481481 2:0 3:5.5347594 4:7.2908012 5:0 6:0.68888889 
-2 1:0.27 2:0.078642686 3:4.5180723 4:6.0519031 5:0 6:0.55625 
-2 1:0.3525 2:0.072608805 3:4.1204819 4:5.6582734 5:0 6:0.4125 
-2 1:0.18518519 2:0.12977099 3:5.7058824 4:7.4516129 5:0 6:0.72222222 
-2 1:0.17037037 2:0.068814855 3:5.7914439 4:7.5306122 5:0 6:0.74444444 
-2 1:0.8 2:0.25192802 3:4.1372549 4:7.5454545 5:0 6:0 
-2 1:0.75 2:0.33910035 3:7.540146 4:4.2393822 5:0 6:0 
-2 1:0.33 2:0.046838542 3:4.2289157 4:5.7686833 5:0 6:0.45625 
-2 1:0.22962963 2:0.092603728 3:5.4491979 4:7.2089552 5:0 6:0.65555556 
-2 1:0.26666667 2:0 3:5.2352941 4:7 5:0 6:0.6 
-2 1:0.3075 2:0.049987139 3:4.3373494 4:5.8767606 5:0 6:0.4875 
-2 1:0.83944397 2:0 3:3.8181818 4:4 5:7.57 6:0.0038404629 
-2 1:0.24444444 2:0.031994312 3:5.3636364 4:7.1261261 5:0 6:0.63333333 
-2 1:0.3675 2:0 3:4.0481928 4:5.5833333 5:0 6:0.3875 
-2 1:0.19259259 2:0.052369617 3:5.6631016 4:7.4117647 5:0 6:0.71666667 
-2 1:0.2775 2:0.046368906 3:4.4819277 4:6.0173611 5:0 6:0.5375 
-2 1:0.8 2:0.35140998 3:4.1372549 4:7.5454545 5:0 6:0 
-2 1:0.2 2:0.18271605 3:5.6203209 4:7.3716814 5:0 6:0.7 
-2 1:0.3225 2:0.068962742 3:4.2650602 4:5.8049645 5:0 6:0.4625 
-2 1:0.19259259 2:0 3:5.6631016 4:7.4117647 5:0 6:0.71111111 
-2 1:0.16296296 2:0.0046734719 3:5.8342246 4:7.5697674 5:0 6:0.76111111 
-2 1:0.27 2:0.046184739 3:4.5180723 4:6.0519031 5:0 6:0.55625 
-2 1:0.15555556 2:0 3:5.8770053 4:7.6086957 5:0 6:0.76666667 
-2 1:0.19259259 2:0.0048192771 3:5.6631016 4:7.4117647 5:0 6:0.71666667 
-2 1:0.28888889 2:0.063492063 3:4.8208955 4:6.6637168 5:0 6:0.56666667 
-2 1:0.28148148 2:0.047152421 3:5.1497326 4:6.9146341 5:0 6:0.58333333 
-2 1:0.23703704 2:0 3:5.4064171 4:7.1676647 5:0 6:0.65 
-2 1:0.22222222 2:0.17769719 3:5.1791045 4:7.0344828 5:0 6:0.66666667 
-2 1:0.2775 2:0.057503812 3:4.4819277 4:6.0173611 5:0 6:0.54375 
-2 1:0.22222222 2:0.11969732 3:5.1791045 4:7.0344828 5:0 6:0.66666667 
-2 1:0.4 2:0.05026455 3:4.2238806 4:6 5:0 6:0.43333333 
-2 1:0.14814815 2:0.091415831 3:5.9197861 4:7.6473988 5:0 6:0.77777778 
-2 1:0.2925 2:0.0010645505 3:4.4096386 4:5.9475524 5:0 6:0.5125 
-2 1:0.17037037 2:0.097018875 3:5.7914439 4:7.5306122 5:0 6:0.74444444 
-2 1:0.2925 2:0 3:4.4096386 4:5.9475524 5:0 6:0.5125 
-2 1:0.375 2:0.029948778 3:4.0120482 4:5.5454545 5:0 6:0.38125 
-2 1:0.345 2:0 3:4.1566265 4:5.6953405 5:0 6:0.425 
-2 1:0.2 2:0.074990133 3:5.2985075 4:7.1538462 5:0 6:0.7 
-2 1:0.26666667 2:0.040913134 3:4.9402985 4:6.7894737 5:0 6:0.6 
-2 1:0.75 2:0.58917836 3:7.540146 4:4.2393822 5:0 6:0 
-2 1:0.28888889 2:0 3:5.1069519 4:6.8715596 5:0 6:0.56666667 
-2 1:0.8 2:0.4 3:4.1372549 4:7.5454545 5:0 6:0 
-2 1:0.28888889 2:0.098070375 3:4.8208955 4:6.6637168 5:0 6:0.56666667 
-2 1:0.21481481 2:0.0072053526 3:5.5347594 4:7.2908012 5:0 6:0.68333333 
-2 1:0.33 2:0.010878133 3:4.2289157 4:5.7686833 5:0 6:0.45 
-2 1:0.8 2:0.4 3:4.1372549 4:7.5454545 5:0 6:0 
-2 1:0.25185185 2:0 3:5.3208556 4:7.0843373 5:0 6:0.62222222 
-2 1:0.14814815 2:0.046385775 3:5.9197861 4:7.6473988 5:0 6:0.77777778 
-2 1:0.3375 2:0.082781122 3:4.1927711 4:5.7321429 5:0 6:0.4375 
-2 1:0.26666667 2:0.1221374 3:4.9402985 4:6.7894737 5:0 6:0.6 
-2 1:0.3675 2:0.04077782 3:4.0481928 4:5.5833333 5:0 6:0.3875 
-2 1:0.15555556 2:0.10437775 3:5.5373134 4:7.3865546 5:0 6:0.78333333 
-2 1:0.28148148 2:0.12615271 3:5.1497326 4:6.9146341 5:0 6:0.57777778 
-2 1:0.3525 2:0.041526822 3:4.1204819 4:5.6582734 5:0 6:0.4125 
-2 1:0.3 2:0.094871635 3:4.373494 4:5.9122807 5:0 6:0.5 
-2 1:0.2925 2:0 3:4.4096386 4:5.9475524 5:0 6:0.5125 
-2 1:0.11111111 2:0 3:5.7761194 4:7.6115702 5:0 6:0.83333333 
-2 1:0.3825 2:0.024842685 3:3.9759036 4:5.5072993 5:0 6:0.3625 
-2 1:0.26666667 2:0.29632556 3:4.9402985 4:6.7894737 5:0 6:0.6 
-2 1:0.255 2:0.053729169 3:4.5903614 4:6.1202749 5:0 6:0.575 
-2 1:0.2775 2:0.030193456 3:4.4819277 4:6.0173611 5:0 6:0.5375 
-2 1:0.15555556 2:0.11956866 3:5.8770053 4:7.6086957 5:0 6:0.76666667 
-2 1:0.42222222 2:0.023424556 3:4.1044776 4:5.8598131 5:0 6:0.36666667 
-2 1:0.3225 2:0.06630468 3:4.2650602 4:5.8049645 5:0 6:0.4625 
-2 1:0.15555556 2:0.13383569 3:5.8770053 4:7.6086957 5:0 6:0.76666667 
-2 1:0.14814815 2:0.061593281 3:5.9197861 4:7.6473988 5:0 6:0.77777778 
-2 1:0.375 2:0.011814346 3:4.0120482 4:5.5454545 5:0 6:0.375 
-2 1:0.3225 2:0.071428571 3:4.2650602 4:5.8049645 5:0 6:0.46875 
-2 1:0.46666667 2:0.1167002 3:3.8656716 4:5.5714286 5:0 6:0.3 
-2 1:0.33 2:0.090442273 3:4.2289157 4:5.7686833 5:0 6:0.45 
-2 1:0.8 2:0.4 3:4.1372549 4:7.5454545 5:0 6:0.066666667 
-2 1:0.20740741 2:0 3:5.5775401 4:7.3313609 5:0 6:0.68888889 
-2 1:0.2625 2:0.057193137 3:4.5542169 4:6.0862069 5:0 6:0.5625 
-2 1:0.17037037 2:0 3:5.7914439 4:7.5306122 5:0 6:0.74444444 
-2 1:0.34074074 2:0.080686695 3:4.8074866 4:6.5625 5:0 6:0.49444444 
-2 1:0.12592593 2:0.16794464 3:6.0481283 4:7.7621777 5:0 6:0.81111111 
-2 1:0.75 2:0.51851852 3:7.540146 4:4.2393822 5:0 6:0 
-2 1:0.375 2:0 3:4.0120482 4:5.5454545 5:0 6:0.375 
-0.1257465942104065 1:0.8435145 2:0.014152519 3:15.057143 4:15.751037 5:20.84 6:0.0066773504 
-2 1:0.17037037 2:0.12649907 3:5.7914439 4:7.5306122 5:0 6:0.74444444 
-2 1:0.15555556 2:0.063400576 3:5.8770053 4:7.6086957 5:0 6:0.77222222 
-2 1:0.12592593 2:0 3:6.0481283 4:7.7621777 5:0 6:0.81111111 
-2 1:0.27 2:0.070322128 3:4.5180723 4:6.0519031 5:0 6:0.55 
-2 1:0.8 2:0.4 3:4.1372549 4:7.5454545 5:0 6:0 
-2 1:0.48888889 2:0 3:3.7462687 4:5.4230769 5:0 6:0.26666667 
-2 1:0.19259259 2:0.046502616 3:5.6631016 4:7.4117647 5:0 6:0.71111111 
-1.162719283909095 1:0.85600227 2:0.093322461 3:16.295455 4:4.2662266 5:8.05 6:0.0034722222 
-2 1:0.285 2:0.050129646 3:4.4457831 4:5.9825784 5:0 6:0.525 
-2 1:0.3225 2:0.0060332045 3:4.2650602 4:5.8049645 5:0 6:0.4625 
-2 1:0.375 2:0.091647259 3:4.0120482 4:5.5454545 5:0 6:0.375 
-2 1:0.21481481 2:0 3:5.5347594 4:7.2908012 5:0 6:0.67777778 
-0.8033671842173117 1:0.83975578 2:0.17895111 3:5.5 4:3.1079137 5:10.77 6:0.0053248239 
-2 1:0.285 2:0.073085847 3:4.4457831 4:5.9825784 5:0 6:0.525 
-2 1:0.3 2:0 3:4.373494 4:5.9122807 5:0 6:0.5 
-2 1:0.8 2:0.4 3:4.1372549 4:7.5454545 5:0 6:0 
-2 1:0.26666667 2:0.1484038 3:4.9402985 4:6.7894737 5:0 6:0.6 
-2 1:0.20740741 2:0.038027633 3:5.5775401 4:7.3313609 5:0 6:0.68888889 
-2 1:0.75 2:0.51851852 3:7.540146 4:4.2393822 5:0 6:0 
-2 1:0.088888889 2:0.2495637 3:5.8955224 4:7.7213115 5:0 6:0.86666667 
-2 1:0.75 2:0.47272727 3:7.540146 4:4.2393822 5:0 6:0 
-2 1:0.22222222 2:0 3:5.4919786 4:7.25 5:0 6:0.67222222 
-2 1:0.8 2:0.27692308 3:4.1372549 4:7.5454545 5:0 6:0.066666667 
-2 1:0.33 2:0.029818499 3:4.2289157 4:5.7686833 5:0 6:0.45 
-2 1:0.22962963 2:0 3:5.4491979 4:7.2089552 5:0 6:0.65555556 
-2 1:0.2 2:0.10901001 3:5.2985075 4:7.1538462 5:0 6:0.7 
-2 1:0.19259259 2:0.14925373 3:5.6631016 4:7.4117647 5:0 6:0.71666667 
-2 1:0.3375 2:0 3:4.1927711 4:5.7321429 5:0 6:0.4375 
-2 1:0.26666667 2:0 3:5.2352941 4:7 5:0 6:0.60555556 
-2 1:0.18518519 2:0.0068483379 3:5.7058824 4:7.4516129 5:0 6:0.72222222 
-2 1:0.315 2:0 3:4.3012048 4:5.8409894 5:0 6:0.475 
-2 1:0.15555556 2:0.19994461 3:5.5373134 4:7.3865546 5:0 6:0.76666667 
-2 1:0.12592593 2:0.19271828 3:6.0481283 4:7.7621777 5:0 6:0.81111111 
-2 1:0.22222222 2:0.064940187 3:5.4919786 4:7.25 5:0 6:0.67777778 
-2 1:0.17777778 2:0.024822376 3:5.7486631 4:7.4912281 5:0 6:0.73333333 
-2 1:0.8 2:0.34594595 3:4.1372549 4:7.5454545 5:0 6:0 
-2 1:0.8 2:0.18050542 3:4.1372549 4:7.5454545 5:0 6:0.066666667 
-2 1:0.19259259 2:0.0050921072 3:5.6631016 4:7.4117647 5:0 6:0.71111111 
-2 1:0.8 2:0.35140998 3:4.1372549 4:7.5454545 5:0 6:0.066666667 
-2 1:0.26666667 2:0.23217029 3:4.9402985 4:6.7894737 5:0 6:0.6 
-2 1:0.22222222 2:0.05519396 3:5.4919786 4:7.25 5:0 6:0.67222222 
-2 1:0.315 2:0.0025889611 3:4.3012048 4:5.8409894 5:0 6:0.475 
-2 1:0.19259259 2:0 3:5.6631016 4:7.4117647 5:0 6:0.71666667 
-2 1:0.16296296 2:0.025947596 3:5.8342246 4:7.5697674 5:0 6:0.75555556 
-0.457123942178466 1:0.84447253 2:0.34276039 3:23.891667 4:4.3014874 5:17.68 6:0.0022541318 
-2 1:0.14074074 2:0.1497523 3:5.9625668 4:7.685879 5:0 6:0.78888889 
-2 1:0.2925 2:0 3:4.4096386 4:5.9475524 5:0 6:0.5125 
-2 1:0.33 2:0.002661091 3:4.2289157 4:5.7686833 5:0 6:0.45 
-2 1:0.2962963 2:0.037162162 3:5.0641711 4:6.8282209 5:0 6:0.56111111 
-2 1:0.2 2:0.0064493013 3:5.2985075 4:7.1538462 5:0 6:0.7 
-2 1:0.315 2:0 3:4.3012048 4:5.8409894 5:0 6:0.475 
-2 1:0.28 2:0.11192214 3:4.4285714 4:5.9769585 5:0 6:0.53333333 
-2 1:0.8 2:0.4 3:4.1372549 4:7.5454545 5:0 6:0.066666667 
-2 1:0.16296296 2:0.075175879 3:5.8342246 4:7.5697674 5:0 6:0.75555556 
-2 1:0.35555556 2:0.042196305 3:4.4626866 4:6.2727273 5:0 6:0.46666667 
-0.8062341928779555 1:0.75 2:0 3:7.540146 4:4.2393822 5:0 6:0 
-2 1:0.285 2:0 3:4.4457831 4:5.9825784 5:0 6:0.525 
-2 1:0.75 2:0.33027523 3:7.540146 4:4.2393822 5:0 6:0 
-2 1:0.375 2:0.053777209 3:4.0120482 4:5.5454545 5:0 6:0.375 
-2 1:0.088888889 2:0.24711697 3:5.8955224 4:7.7213115 5:0 6:0.86666667 
-2 1:0.315 2:0.0030693267 3:4.3012048 4:5.8409894 5:0 6:0.48125 
-2 1:0.48888889 2:0.084328883 3:3.7462687 4:5.4230769 5:0 6:0.26666667 
-2 1:0.20740741 2:0.093900685 3:5.5775401 4:7.3313609 5:0 6:0.69444444 
-2 1:0.12592593 2:0 3:6.0481283 4:7.7621777 5:0 6:0.81111111 
-2 1:0.2625 2:0.027608224 3:4.5542169 4:6.0862069 5:0 6:0.5625 
-2 1:0.75 2:0 3:7.540146 4:4.2393822 5:0 6:0 
-2 1:0.2625 2:0.085052094 3:4.5542169 4:6.0862069 5:0 6:0.56875 
-2 1:0.13333333 2:0.16399768 3:5.6567164 4:7.5 5:0 6:0.8 
-2 1:0.75 2:0 3:7.540146 4:4.2393822 5:0 6:0 
-2 1:0.3075 2:0.025191455 3:4.3373494 4:5.8767606 5:0 6:0.4875 
-2 1:0.27 2:0.018054986 3:4.5180723 4:6.0519031 5:0 6:0.55 
-2 1:0.17037037 2:0.095132128 3:5.7914439 4:7.5306122 5:0 6:0.74444444 
-2 1:0.3375 2:0 3:4.1927711 4:5.7321429 5:0 6:0.4375 
-2 1:0.27 2:0 3:4.5180723 4:6.0519031 5:0 6:0.55625 
-2 1:0.2625 2:0.063246662 3:4.5542169 4:6.0862069 5:0 6:0.5625 
-2 1:0.22222222 2:0 3:5.4919786 4:7.25 5:0 6:0.66666667 
-2 1:0.12592593 2:0.090310442 3:6.0481283 4:7.7621777 5:0 6:0.81111111 
-2 1:0.088888889 2:0.042926829 3:5.8955224 4:7.7213115 5:0 6:0.86666667 
-2 1:0.2775 2:0.045574748 3:4.4819277 4:6.0173611 5:0 6:0.5375 
-2 1:0.75 2:0.066914498 3:7.540146 4:4.2393822 5:0 6:0 
-2 1:0.75 2:0 3:7.540146 4:4.2393822 5:0 6:0 
-2 1:0.2925 2:0.055691889 3:4.4096386 4:5.9475524 5:0 6:0.5125 
-2 1:0.75 2:0 3:7.540146 4:4.2393822 5:0 6:0 
-2 1:0.17037037 2:0 3:5.7914439 4:7.5306122 5:0 6:0.74444444 
-2 1:0.21481481 2:0.075601375 3:5.5347594 4:7.2908012 5:0 6:0.67777778 
-2 1:0.375 2:0.065576109 3:4.0120482 4:5.5454545 5:0 6:0.375 
-2 1:0.22962963 2:0.043810494 3:5.4491979 4:7.2089552 5:0 6:0.66111111 
-2 1:0.41481481 2:0.1088647 3:4.3796791 4:6.0967742 5:0 6:0.38888889 
-2 1:0.8 2:0.23529412 3:4.1372549 4:7.5454545 5:0 6:0.066666667 
-2 1:0.37777778 2:0.1463096 3:4.3432836 4:6.1376147 5:0 6:0.45 
-2 1:0.75 2:0.48565966 3:7.540146 4:4.2393822 5:0 6:0 
-2 1:0.375 2:0.047038328 3:4.0120482 4:5.5454545 5:0 6:0.375 
-2 1:0.3525 2:0.08532574 3:4.1204819 4:5.6582734 5:0 6:0.4125 
-2 1:0.088888889 2:0.015645908 3:5.8955224 4:7.7213115 5:0 6:0.86666667 
-2 1:0.2625 2:0.083839396 3:4.5542169 4:6.0862069 5:0 6:0.5625 
-2 1:0.75 2:0 3:7.540146 4:4.2393822 5:0 6:0 
-2 1:0.24444444 2:0.048484848 3:5.3636364 4:7.1261261 5:0 6:0.63333333 
-2 1:0.13333333 2:0.034141201 3:5.6567164 4:7.5 5:0 6:0.8 
-2 1:0.42222222 2:0.18013414 3:4.1044776 4:5.8598131 5:0 6:0.36666667 
-2 1:0.19259259 2:0.15678553 3:5.6631016 4:7.4117647 5:0 6:0.71111111 
-2 1:0.48888889 2:0.13511763 3:3.7462687 4:5.4230769 5:0 6:0.26666667 
-2 1:0.26666667 2:0.1220545 3:5.2352941 4:7 5:0 6:0.6 
-2 1:0.3675 2:0.070316084 3:4.0481928 4:5.5833333 5:0 6:0.3875 
-2 1:0.2 2:0.16210355 3:5.6203209 4:7.3716814 5:0 6:0.7 
-2 1:0.18518519 2:0.044631137 3:5.7058824 4:7.4516129 5:0 6:0.72222222 
-2 1:0.345 2:0.073633624 3:4.1566265 4:5.6953405 5:0 6:0.425 
-2 1:0.23703704 2:0.050934483 3:5.4064171 4:7.1676647 5:0 6:0.64444444 
-2 1:0.255 2:0.070459737 3:4.5903614 4:6.1202749 5:0 6:0.575 
-2 1:0.24444444 2:0.043483035 3:5.3636364 4:7.1261261 5:0 6:0.63333333 
-2 1:0.20740741 2:0.13183731 3:5.5775401 4:7.3313609 5:0 6:0.69444444 
-2 1:0.3 2:0 3:4.373494 4:5.9122807 5:0 6:0.5 
-2 1:0.2775 2:0 3:4.4819277 4:6.0173611 5:0 6:0.55 
-2 1:0.75 2:0 3:7.540146 4:4.2393822 5:0 6:0 
-2 1:0.35555556 2:0.16825374 3:4.4626866 4:6.2727273 5:0 6:0.46666667 
-2 1:0.3075 2:0.074418605 3:4.3373494 4:5.8767606 5:0 6:0.4875 
-2 1:0.25185185 2:0.089978138 3:5.3208556 4:7.0843373 5:0 6:0.62222222 
-2 1:0.3 2:0.0029098793 3:4.373494 4:5.9122807 5:0 6:0.5 
-2 1:0.33 2:0.062281262 3:4.2289157 4:5.7686833 5:0 6:0.45 
-2 1:0.22222222 2:0.010008249 3:5.1791045 4:7.0344828 5:0 6:0.66666667 
-2 1:0.25185185 2:0.0071475595 3:5.3208556 4:7.0843373 5:0 6:0.62777778 
-2 1:0.75 2:0 3:7.540146 4:4.2393822 5:0 6:0 
-2 1:0.2625 2:0.065737993 3:4.5542169 4:6.0862069 5:0 6:0.5625 
-2 1:0.8 2:0.4 3:4.1372549 4:7.5454545 5:0 6:0 
-2 1:0.25185185 2:0.020493553 3:5.3208556 4:7.0843373 5:0 6:0.62222222 
-2 1:0.14074074 2:0.077679188 3:5.9625668 4:7.685879 5:0 6:0.78888889 
-2 1:0.18518519 2:0.092981511 3:5.7058824 4:7.4516129 5:0 6:0.72222222 
-2 1:0.22222222 2:0.080920823 3:5.4919786 4:7.25 5:0 6:0.66666667 
-2 1:0.75 2:0 3:7.540146 4:4.2393822 5:0 6:0 
-2 1:0.8 2:0.24289406 3:4.1372549 4:7.5454545 5:0 6:0 
-2 1:0.75 2:0 3:7.540146 4:4.2393822 5:0 6:0 
-2 1:0.8 2:0.35140998 3:4.1372549 4:7.5454545 5:0 6:0 
-2 1:0.25925926 2:0.075783672 3:5.2780749 4:7.0422961 5:0 6:0.61111111 
-2 1:0.75 2:0 3:7.540146 4:4.2393822 5:0 6:0 
-2 1:0.75 2:0 3:7.540146 4:4.2393822 5:0 6:0 
-2 1:0.4 2:0.24719101 3:4.2238806 4:6 5:0 6:0.4 
-2 1:0.27 2:0.056488248 3:4.5180723 4:6.0519031 5:0 6:0.55 
-2 1:0.75 2:0 3:7.540146 4:4.2393822 5:0 6:0 
-2 1:0.22222222 2:0.25960265 3:5.1791045 4:7.0344828 5:0 6:0.66666667 
-2 1:0.75 2:0 3:7.540146 4:4.2393822 5:0 6:0 
-2 1:0.20740741 2:0.0082795165 3:5.5775401 4:7.3313609 5:0 6:0.69444444 
-2 1:0.345 2:0.11358767 3:4.1566265 4:5.6953405 5:0 6:0.425 
-2 1:0.34074074 2:0.095688961 3:4.8074866 4:6.5625 5:0 6:0.48888889 
-2 1:0.22222222 2:0 3:5.1791045 4:7.0344828 5:0 6:0.66666667 
-2 1:0.375 2:0.039965102 3:4.0120482 4:5.5454545 5:0 6:0.38125 
-2 1:0.75 2:0 3:7.540146 4:4.2393822 5:0 6:0 
-2 1:0.75 2:0 3:7.540146 4:4.2393822 5:0 6:0 
-2 1:0.75 2:0 3:7.540146 4:4.2393822 5:0 6:0 
-2 1:0.11851852 2:0.094152142 3:6.0909091 4:7.8 5:0 6:0.82222222 
-2 1:0.33 2:0.047478909 3:4.2289157 4:5.7686833 5:0 6:0.45 
-2 1:0.3525 2:0.023807303 3:4.1204819 4:5.6582734 5:0 6:0.4125 
-2 1:0.285 2:0.028138365 3:4.4457831 4:5.9825784 5:0 6:0.53125 
-2 1:0.24444444 2:0.0060341112 3:5.3636364 4:7.1261261 5:0 6:0.63888889 
-2 1:0.75 2:0 3:7.540146 4:4.2393822 5:0 6:0 
-2 1:0.2625 2:0.1180715 3:4.5542169 4:6.0862069 5:0 6:0.5625 
-2 1:0.315 2:0 3:4.3012048 4:5.8409894 5:0 6:0.475 
-2 1:0.75 2:0 3:7.540146 4:4.2393822 5:0 6:0 
-0.9626903327160318 1:0.83945791 2:0.021230876 3:25.364341 4:4.5882996 5:9.62 6:0.0060963541 
-2 1:0.36 2:0.0049456725 3:4.0843373 4:5.6209386 5:0 6:0.4 
-2 1:0.15555556 2:0.11854419 3:5.8770053 4:7.6086957 5:0 6:0.76666667 
-2 1:0.12592593 2:0 3:6.0481283 4:7.7621777 5:0 6:0.81111111 
-1.636890679566529 1:0.39 2:0.078697422 3:3.939759 4:5.4688645 5:0 6:0.35 
-2 1:0.375 2:0.080949572 3:4.0120482 4:5.5454545 5:0 6:0.375 
-2 1:0.19259259 2:0 3:5.6631016 4:7.4117647 5:0 6:0.71111111 
-2 1:0.75 2:0 3:7.540146 4:4.2393822 5:0 6:0 
-2 1:0.75 2:0.62407862 3:7.540146 4:4.2393822 5:0 6:0 
-2 1:0.75 2:0 3:7.540146 4:4.2393822 5:0 6:0 
-2 1:0.345 2:0 3:4.1566265 4:5.6953405 5:0 6:0.425 
-2 1:0.75 2:0 3:7.540146 4:4.2393822 5:0 6:0 
-2 1:0.3 2:0 3:4.373494 4:5.9122807 5:0 6:0.50625 
-2 1:0.16296296 2:0.050244698 3:5.8342246 4:7.5697674 5:0 6:0.76111111 
-2 1:0.33 2:0.027076717 3:4.2289157 4:5.7686833 5:0 6:0.45 
-2 1:0.75 2:0 3:7.540146 4:4.2393822 5:0 6:0 
-2 1:0.26666667 2:0.28174084 3:4.9402985 4:6.7894737 5:0 6:0.6 
-2 1:0.17777778 2:0.20447637 3:5.4179104 4:7.2711864 5:0 6:0.73333333 
-2 1:0.2625 2:0.058139535 3:4.5542169 4:6.0862069 5:0 6:0.5625 
-2 1:0.3525 2:0 3:4.1204819 4:5.6582734 5:0 6:0.41875 
-2 1:0.12592593 2:0.087589321 3:6.0481283 4:7.7621777 5:0 6:0.81111111 
-2 1:0.16296296 2:0.13948749 3:5.8342246 4:7.5697674 5:0 6:0.75555556 
-1.516728448898833 1:0.83291236 2:0.24467081 3:3.6956522 4:3.640625 5:8.91 6:0.0039569386 
-2 1:0.2775 2:0.0953074 3:4.4819277 4:6.0173611 5:0 6:0.5375 
-2 1:0.8 2:0.10810811 3:4.1372549 4:7.5454545 5:0 6:0 
-2 1:0.088888889 2:0 3:5.8955224 4:7.7213115 5:0 6:0.86666667 
-2 1:0.14074074 2:0.018274112 3:5.9625668 4:7.685879 5:0 6:0.78888889 
-2 1:0.75 2:0 3:7.540146 4:4.2393822 5:0 6:0 
-2 1:0.28888889 2:0.073923291 3:4.8208955 4:6.6637168 5:0 6:0.56666667 
-2 1:0.16296296 2:0.073234525 3:5.8342246 4:7.5697674 5:0 6:0.75555556 
-2 1:0.16296296 2:0.12807075 3:5.8342246 4:7.5697674 5:0 6:0.75555556 
-2 1:0.2625 2:0.098771232 3:4.5542169 4:6.0862069 5:0 6:0.56875 
-2 1:0.27 2:0.0074057788 3:4.5180723 4:6.0519031 5:0 6:0.55 
-2 1:0.75 2:0 3:7.540146 4:4.2393822 5:0 6:0 
-2 1:0.18518519 2:0 3:5.7058824 4:7.4516129 5:0 6:0.72222222 
-2 1:0.28148148 2:0.030815342 3:5.1497326 4:6.9146341 5:0 6:0.59444444 
-2 1:0.285 2:0 3:4.4457831 4:5.9825784 5:0 6:0.53125 
-2 1:0.24444444 2:0.030085628 3:5.3636364 4:7.1261261 5:0 6:0.63333333 
-2 1:0.345 2:0.046779417 3:4.1566265 4:5.6953405 5:0 6:0.425 
-2 1:0.2775 2:0 3:4.4819277 4:6.0173611 5:0 6:0.5375 
-2 1:0.12592593 2:0 3:6.0481283 4:7.7621777 5:0 6:0.81111111 
-2 1:0.37777778 2:0.1952304 3:4.3432836 4:6.1376147 5:0 6:0.45 
-2 1:0.31 2:0 3:4.2857143 4:5.8364486 5:0 6:0.48333333 
-2 1:0.13333333 2:0.046965946 3:6.0053476 4:7.7241379 5:0 6:0.8 
-2 1:0.75 2:0.35616438 3:7.540146 4:4.2393822 5:0 6:0 
-2 1:0.75 2:0 3:7.540146 4:4.2393822 5:0 6:0 
-2 1:0.13333333 2:0.16918242 3:6.0053476 4:7.7241379 5:0 6:0.8 
-2 1:0.3225 2:0.0077450104 3:4.2650602 4:5.8049645 5:0 6:0.4625 
-2 1:0.33 2:0.0067056024 3:4.2289157 4:5.7686833 5:0 6:0.45 
-2 1:0.11111111 2:0 3:5.7761194 4:7.6115702 5:0 6:0.83333333 
-2 1:0.75 2:0 3:7.540146 4:4.2393822 5:0 6:0 
-2 1:0.33 2:0.045219314 3:4.2289157 4:5.7686833 5:0 6:0.45625 
-2 1:0.2 2:0.02578924 3:5.6203209 4:7.3716814 5:0 6:0.7 
-2 1:0.2475 2:0.069330766 3:4.626506 4:6.1541096 5:0 6:0.5875 
-1.888532405007293 1:0.75 2:0.23529412 3:7.540146 4:4.2393822 5:0 6:0 
-2 1:0.75 2:0 3:7.540146 4:4.2393822 5:0 6:0 
-2 1:0.375 2:0.022716049 3:4.0120482 4:5.5454545 5:0 6:0.375 
-2 1:0.75 2:0 3:7.540146 4:4.2393822 5:0 6:0 
-2 1:0.23703704 2:0.11899689 3:5.4064171 4:7.1676647 5:0 6:0.64444444 
-2 1:0.14074074 2:0.062084581 3:5.9625668 4:7.685879 5:0 6:0.78888889 
-2 1:0.25185185 2:0.059625753 3:5.3208556 4:7.0843373 5:0 6:0.62222222 
-2 1:0.3675 2:0.02990117 3:4.0481928 4:5.5833333 5:0 6:0.3875 
-2 1:0.3825 2:0.080897256 3:3.9759036 4:5.5072993 5:0 6:0.36875 
-2 1:0.29 2:0.036590486 3:4.3809524 4:5.9305556 5:0 6:0.51666667 
-2 1:0.15555556 2:0.069353733 3:5.8770053 4:7.6086957 5:0 6:0.76666667 
-2 1:0.75 2:0 3:7.540146 4:4.2393822 5:0 6:0 
-2 1:0.75 2:0.48565966 3:7.540146 4:4.2393822 5:0 6:0 
-2 1:0.3525 2:0.098720816 3:4.1204819 4:5.6582734 5:0 6:0.4125 
-2 1:0.75 2:0 3:7.540146 4:4.2393822 5:0 6:0 
-2 1:0.2925 2:0.079992171 3:4.4096386 4:5.9475524 5:0 6:0.51875 
-2 1:0.13333333 2:0.070880095 3:6.0053476 4:7.7241379 5:0 6:0.8 
-2 1:0.15555556 2:0.0076628352 3:5.8770053 4:7.6086957 5:0 6:0.76666667 
-2 1:0.8 2:0.25192802 3:4.1372549 4:7.5454545 5:0 6:0.066666667 
-2 1:0.345 2:0.050932003 3:4.1566265 4:5.6953405 5:0 6:0.425 
-2 1:0.3525 2:0 3:4.1204819 4:5.6582734 5:0 6:0.41875 
-2 1:0.21481481 2:0 3:5.5347594 4:7.2908012 5:0 6:0.67777778 
-2 1:0.2925 2:0 3:4.4096386 4:5.9475524 5:0 6:0.5125 
-2 1:0.27407407 2:0 3:5.1925134 4:6.9574468 5:0 6:0.58888889 
-2 1:0.75 2:0.46851385 3:7.540146 4:4.2393822 5:0 6:0 
-2 1:0.14814815 2:0.014477766 3:5.9197861 4:7.6473988 5:0 6:0.77777778 
-2 1:0.75 2:0.4 3:7.540146 4:4.2393822 5:0 6:0 
-2 1:0.36 2:0.11006831 3:4.0843373 4:5.6209386 5:0 6:0.4125 
-2 1:0.27 2:0 3:4.5180723 4:6.0519031 5:0 6:0.55 
-2 1:0.4 2:0.19963629 3:4.2238806 4:6 5:0 6:0.41666667 
-2 1:0.15555556 2:0.01980198 3:5.8770053 4:7.6086957 5:0 6:0.76666667 
-2 1:0.22222222 2:0.13594677 3:5.1791045 4:7.0344828 5:0 6:0.66666667 
-2 1:0.42222222 2:0.088177283 3:4.1044776 4:5.8598131 5:0 6:0.38333333 
-2 1:0.33 2:0.03896869 3:4.2289157 4:5.7686833 5:0 6:0.45 
-2 1:0.3225 2:0.0062731679 3:4.2650602 4:5.8049645 5:0 6:0.4625 
-2 1:0.2775 2:0 3:4.4819277 4:6.0173611 5:0 6:0.5375 
-1.786638753872686 1:0.75 2:0.30188679 3:7.540146 4:4.2393822 5:0 6:0 
-2 1:0.18518519 2:0.017910448 3:5.7058824 4:7.4516129 5:0 6:0.72222222 
-2 1:0.315 2:0.0024064756 3:4.3012048 4:5.8409894 5:0 6:0.475 
-2 1:0.15555556 2:0.1708815 3:5.5373134 4:7.3865546 5:0 6:0.76666667 
-2 1:0.31111111 2:0 3:4.9786096 4:6.7407407 5:0 6:0.53888889 
-2 1:0.33 2:0 3:4.2289157 4:5.7686833 5:0 6:0.4625 
-2 1:0.15555556 2:0.29508197 3:5.5373134 4:7.3865546 5:0 6:0.76666667 
-2 1:0.33333333 2:0.10294039 3:4.5820896 4:6.4054054 5:0 6:0.5 
-2 1:0.3075 2:0.084857038 3:4.3373494 4:5.8767606 5:0 6:0.4875 
-2 1:0.17777778 2:0.052791878 3:5.7486631 4:7.4912281 5:0 6:0.74444444 
-2 1:0.8 2:0.23529412 3:4.1372549 4:7.5454545 5:0 6:0.066666667 
-2 1:0.15555556 2:0 3:5.8770053 4:7.6086957 5:0 6:0.77777778 
-2 1:0.31111111 2:0.017905476 3:4.7014925 4:6.5357143 5:0 6:0.53333333 
-2 1:0.2 2:0 3:5.6203209 4:7.3716814 5:0 6:0.70555556 
-2 1:0.19259259 2:0.0040424457 3:5.6631016 4:7.4117647 5:0 6:0.71111111 
-2 1:0.2925 2:0 3:4.4096386 4:5.9475524 5:0 6:0.525 
-2 1:0.13333333 2:0 3:6.0053476 4:7.7241379 5:0 6:0.8 
-0.5924238954129801 1:0.83756793 2:0.074929593 3:24.783333 4:4.4595376 5:9.3 6:0.0046573937 
-2 1:0.8 2:0 3:4.1372549 4:7.5454545 5:0 6:0.13333333 
-2 1:0.31 2:0.095688961 3:4.2857143 4:5.8364486 5:0 6:0.48333333 
-2 1:0.255 2:0.037931631 3:4.5903614 4:6.1202749 5:0 6:0.575 
-2 1:0.21481481 2:0.0017354655 3:5.5347594 4:7.2908012 5:0 6:0.67777778 
-2 1:0.31111111 2:0.059363195 3:4.9786096 4:6.7407407 5:0 6:0.53333333 
-2 1:0.2625 2:0.065296252 3:4.5542169 4:6.0862069 5:0 6:0.5625 
-2 1:0.83906463 2:1.3260493 3:5.862069 4:4.5744681 5:4.41 6:0.0043803289 
-2 1:0.25925926 2:0 3:5.2780749 4:7.0422961 5:0 6:0.61111111 
-2 1:0.36 2:0.03400179 3:4.0843373 4:5.6209386 5:0 6:0.40625 
-2 1:0.17777778 2:0.082940622 3:5.7486631 4:7.4912281 5:0 6:0.73333333 
-2 1:0.35555556 2:0.0023501763 3:4.4626866 4:6.2727273 5:0 6:0.46666667 
-2 1:0.2 2:0.11149256 3:5.6203209 4:7.3716814 5:0 6:0.7 
-2 1:0.35555556 2:0.23615265 3:4.4626866 4:6.2727273 5:0 6:0.46666667 
-2 1:0.46666667 2:0.050134288 3:3.8656716 4:5.5714286 5:0 6:0.31666667 
-2 1:0.75 2:0.20224719 3:7.540146 4:4.2393822 5:0 6:0 
-2 1:0.15555556 2:0.02722063 3:5.8770053 4:7.6086957 5:0 6:0.77222222 
-2 1:0.21481481 2:0 3:5.5347594 4:7.2908012 5:0 6:0.68333333 
-2 1:0.27 2:0 3:4.5180723 4:6.0519031 5:0 6:0.55 
-2 1:0.20740741 2:0.12349573 3:5.5775401 4:7.3313609 5:0 6:0.69444444 
-2 1:0.11851852 2:0.18198362 3:6.0909091 4:7.8 5:0 6:0.82222222 
-2 1:0.16296296 2:0.007977208 3:5.8342246 4:7.5697674 5:0 6:0.76111111 
-2 1:0.14074074 2:0.10504128 3:5.9625668 4:7.685879 5:0 6:0.78888889 
-2 1:0.14814815 2:0 3:5.9197861 4:7.6473988 5:0 6:0.77777778 
-2 1:0.26666667 2:0 3:5.2352941 4:7 5:0 6:0.6 
-2 1:0.27 2:0.054366489 3:4.5180723 4:6.0519031 5:0 6:0.55 
-1.710194482112322 1:0.255 2:0 3:4.5903614 4:6.1202749 5:0 6:0.575 
-2 1:0.14814815 2:0.007980846 3:5.9197861 4:7.6473988 5:0 6:0.77777778 
-2 1:0.15555556 2:0.010928962 3:5.8770053 4:7.6086957 5:0 6:0.76666667 
-2 1:0.11111111 2:0.2055309 3:5.7761194 4:7.6115702 5:0 6:0.83333333 
-2 1:0.28 2:0 3:4.4285714 4:5.9769585 5:0 6:0.53333333 
-2 1:0.27 2:0.085392977 3:4.4761905 4:6.0229358 5:0 6:0.55 
-2 1:0.33 2:0.025221591 3:4.2289157 4:5.7686833 5:0 6:0.45 
-2 1:0.11851852 2:0.015319149 3:6.0909091 4:7.8 5:0 6:0.82222222 
-2 1:0.20740741 2:0.11458481 3:5.5775401 4:7.3313609 5:0 6:0.68888889 
-2 1:0.3225 2:0 3:4.2650602 4:5.8049645 5:0 6:0.4625 
-2 1:0.27407407 2:0 3:5.1925134 4:6.9574468 5:0 6:0.58888889 
-2 1:0.27 2:0.070225709 3:4.5180723 4:6.0519031 5:0 6:0.55625 
-2 1:0.3 2:0.001706408 3:4.373494 4:5.9122807 5:0 6:0.5 
-2 1:0.12592593 2:0 3:6.0481283 4:7.7621777 5:0 6:0.81111111 
-2 1:0.8 2:0.4 3:4.1372549 4:7.5454545 5:0 6:0.066666667 
-2 1:0.285 2:0.00018724839 3:4.4457831 4:5.9825784 5:0 6:0.525 
-2 1:0.83733784 2:0.023254452 3:4.25 4:4.7272727 5:4.58 6:0.0064879733 
-2 1:0.2625 2:0.099799775 3:4.5542169 4:6.0862069 5:0 6:0.56875 
-2 1:0.2775 2:0.054572652 3:4.4819277 4:6.0173611 5:0 6:0.5375 
-2 1:0.19259259 2:0.082945453 3:5.6631016 4:7.4117647 5:0 6:0.71111111 
-2 1:0.46666667 2:0.1971831 3:3.8656716 4:5.5714286 5:0 6:0.31666667 
-2 1:0.28888889 2:0.16074189 3:4.8208955 4:6.6637168 5:0 6:0.56666667 
-2 1:0.2962963 2:0.040744411 3:5.0641711 4:6.8282209 5:0 6:0.55555556 
-2 1:0.22962963 2:0.015107008 3:5.4491979 4:7.2089552 5:0 6:0.65555556 
-2 1:0.8 2:0.4 3:4.1372549 4:7.5454545 5:0 6:0 
-2 1:0.3075 2:0.049766441 3:4.3373494 4:5.8767606 5:0 6:0.4875 
-1.534407149935096 1:0.83141054 2:1.1531415 3:6.5517241 4:4.1949153 5:8.24 6:0.0046749025 
-2 1:0.33333333 2:0.078922322 3:4.5820896 4:6.4054054 5:0 6:0.5 
-2 1:0.14074074 2:0.093361777 3:5.9625668 4:7.685879 5:0 6:0.78888889 
-1.107547974297412 1:0.75 2:0.46851385 3:7.540146 4:4.2393822 5:0 6:0 
-2 1:0.28 2:0.040744411 3:4.4285714 4:5.9769585 5:0 6:0.53333333 
-2 1:0.22222222 2:0.077293007 3:5.4919786 4:7.25 5:0 6:0.66666667 
-2 1:0.19259259 2:0.14037433 3:5.6631016 4:7.4117647 5:0 6:0.71111111 
-2 1:0.375 2:0.03500847 3:4.0120482 4:5.5454545 5:0 6:0.38125 
-2 1:0.22222222 2:0.10285937 3:5.4919786 4:7.25 5:0 6:0.66666667 
-2 1:0.17777778 2:0.079407339 3:5.4179104 4:7.2711864 5:0 6:0.73333333 
-2 1:0.345 2:0.024127831 3:4.1566265 4:5.6953405 5:0 6:0.425 
-2 1:0.285 2:0.024644805 3:4.4457831 4:5.9825784 5:0 6:0.525 
-2 1:0.3 2:0.0099795767 3:4.373494 4:5.9122807 5:0 6:0.50625 
-2 1:0.3375 2:0.046520847 3:4.1927711 4:5.7321429 5:0 6:0.4375 
-2 1:0.75 2:0.4 3:7.540146 4:4.2393822 5:0 6:0 
-2 1:0.3225 2:0.033613445 3:4.2650602 4:5.8049645 5:0 6:0.46875 
