svm_type c_svc
kernel_type rbf
gamma 0.00012207
nr_class 2
total_sv 1583
rho 0.978121
label 1 0
nr_sv 468 1115
SV
0.5 1:5 2:2 3:120 4:60 5:0.14 6:4.3 7:120 8:1521 9:642 10:126.49398 11:120 12:231 13:126 14:110 15:0 16:0.76666667 
0.5 1:6 2:2 3:60 4:30 5:0.15555556 6:5.0666667 7:60 8:879 9:371 10:90.93617 11:60 12:119 13:67 14:88 15:0 16:0.76666667 
0.5 1:5 2:2 3:120 4:60 5:0.05 6:4.75 7:120 8:1665 9:696 10:53.5 11:120 12:240 13:126 14:45 15:0 16:0.91666667 
0.5 1:8 2:64 3:128 4:2 5:0.75 6:4.625 7:128 8:2196 9:1033 10:8 11:128 12:518 13:137 14:8 15:0 16:0 
0.5 1:6 2:2 3:180 4:90 5:0.1037037 6:5.3777778 7:180 8:2772 9:1155 10:159 11:180 12:352 13:187 14:159 15:0 16:0.84444444 
0.5 1:6 2:2 3:60 4:30 5:0.22222222 6:4.6666667 7:60 8:816 9:347 10:94.266667 11:60 12:116 13:67 14:82 15:0 16:0.66666667 
0.5 1:8 2:64 3:128 4:2 5:0.75 6:4.625 7:128 8:2196 9:1033 10:9 11:128 12:518 13:137 14:6 15:0 16:0 
0.5 1:8 2:64 3:128 4:2 5:0.75 6:4.625 7:128 8:2196 9:1033 10:9 11:128 12:518 13:137 14:9 15:0 16:0 
0.5 1:6 2:2 3:60 4:30 5:0.11111111 6:5.3333333 7:60 8:921 9:387 10:83.013699 11:60 12:121 13:67 14:66 15:0 16:0.83333333 
0.5 1:5 2:2 3:60 4:30 5:0.46 6:2.7 7:60 8:507 9:228 10:112 11:60 12:102 13:66 14:112 15:0 16:0.23333333 
0.5 1:8 2:64 3:128 4:2 5:0.75 6:4.625 7:128 8:2196 9:1033 10:8 11:128 12:518 13:137 14:8 15:0 16:0 
0.5 1:8 2:64 3:128 4:2 5:0.75 6:4.625 7:128 8:2196 9:1033 10:8 11:128 12:518 13:137 14:8 15:0 16:0 
0.5 1:5 2:2 3:160 4:80 5:0.225 6:3.875 7:160 8:1845 9:786 10:411 11:160 12:295 13:166 14:411 15:0 16:0.625 
0.5 1:5 2:2 3:80 4:40 5:0.15 6:4.25 7:80 8:1005 9:426 10:106.75556 11:80 12:155 13:86 14:96 15:0 16:0.75 
0.5 1:5 2:2 3:60 4:30 5:0.08 6:4.6 7:60 8:811 9:342 10:56.478261 11:60 12:121 13:66 14:53 15:0 16:0.86666667 
0.5 1:10 2:4 3:40 4:10 5:0.8 6:3 7:40 8:415 9:211 10:7.6 11:40 12:55 13:51 14:6 15:0 16:0 
0.5 1:6 2:2 3:60 4:30 5:0.28888889 6:4.2666667 7:60 8:753 9:323 10:75.617647 11:60 12:113 13:67 14:63 15:0 16:0.56666667 
0.5 1:6 2:2 3:60 4:30 5:0.4 6:3.6 7:60 8:648 9:283 10:118.6988 11:60 12:108 13:67 14:114 15:0 16:0.4 
0.5 1:6 2:2 3:60 4:30 5:0.37777778 6:3.7333333 7:60 8:669 9:291 10:128.92754 11:60 12:109 13:67 14:127 15:0 16:0.45 
0.5 1:8 2:64 3:128 4:2 5:0.75 6:4.625 7:128 8:2196 9:1033 10:8 11:128 12:518 13:137 14:8 15:0 16:0 
0.5 1:5 2:2 3:120 4:60 5:0.1 6:4.5 7:120 8:1585 9:666 10:143.84507 11:120 12:235 13:126 14:143 15:0 16:0.83333333 
0.5 1:5 2:2 3:80 4:40 5:0.045 6:4.775 7:80 8:1117 9:468 10:73 11:80 12:162 13:86 14:73 15:0 16:0.925 
0.5 1:5 2:2 3:120 4:60 5:0.24 6:3.8 7:120 8:1361 9:582 10:138.8 11:120 12:221 13:126 14:138 15:0 16:0.6 
0.5 1:5 2:2 3:120 4:60 5:0.12 6:4.4 7:120 8:1553 9:654 10:139.75281 11:120 12:233 13:126 14:132 15:0 16:0.8 
0.5 1:6 2:2 3:180 4:90 5:0.14814815 6:5.1111111 7:180 8:2646 9:1107 10:139.375 11:180 12:346 13:187 14:133 15:0 16:0.77777778 
0.5 1:10 2:4 3:40 4:10 5:0.8 6:3 7:40 8:415 9:211 10:14.263158 11:40 12:55 13:51 14:10 15:0 16:0.066666667 
0.5 1:5 2:2 3:80 4:40 5:0.12 6:4.4 7:80 8:1037 9:438 10:95 11:80 12:157 13:86 14:95 15:0 16:0.8 
0.5 1:6 2:2 3:180 4:90 5:0.059259259 6:5.6444444 7:180 8:2898 9:1203 10:77.084746 11:180 12:358 13:187 14:72 15:0 16:0.91111111 
0.5 1:5 2:2 3:120 4:60 5:0.09 6:4.55 7:120 8:1601 9:672 10:120.61333 11:120 12:236 13:126 14:114 15:0 16:0.85 
0.5 1:5 2:2 3:80 4:40 5:0.165 6:4.175 7:80 8:989 9:420 10:112.70886 11:80 12:154 13:86 14:105 15:0 16:0.725 
0.5 1:5 2:2 3:120 4:60 5:0.07 6:4.65 7:120 8:1633 9:684 10:120 11:120 12:238 13:126 14:120 15:0 16:0.88333333 
0.5 1:10 2:4 3:40 4:10 5:0.8 6:3 7:40 8:415 9:211 10:6.7777778 11:40 12:55 13:51 14:5 15:0 16:0 
0.5 1:8 2:64 3:128 4:2 5:0.75 6:4.625 7:128 8:2196 9:1033 10:9 11:128 12:518 13:137 14:9 15:0 16:0 
0.5 1:5 2:2 3:80 4:40 5:0.06 6:4.7 7:80 8:1101 9:462 10:105.85106 11:80 12:161 13:86 14:101 15:0 16:0.9 
0.5 1:5 2:2 3:60 4:30 5:0.04 6:4.8 7:60 8:843 9:354 10:113 11:60 12:123 13:66 14:113 15:0 16:0.93333333 
0.5 1:5 2:2 3:160 4:80 5:0.3975 6:3.0125 7:160 8:1477 9:648 10:559 11:160 12:272 13:166 14:559 15:0 16:0.3375 
0.5 1:5 2:2 3:60 4:30 5:0.04 6:4.8 7:60 8:843 9:354 10:70 11:60 12:123 13:66 14:70 15:0 16:0.93333333 
0.5 1:5 2:2 3:160 4:80 5:0.435 6:2.825 7:160 8:1397 9:618 10:565.2 11:160 12:267 13:166 14:555 15:0 16:0.275 
0.5 1:5 2:2 3:120 4:60 5:0.23 6:3.85 7:120 8:1377 9:588 10:152.26582 11:120 12:222 13:126 14:135 15:0 16:0.61666667 
0.5 1:5 2:2 3:120 4:60 5:0.1 6:4.5 7:120 8:1585 9:666 10:119.11765 11:120 12:235 13:126 14:112 15:0 16:0.83333333 
0.5 1:6 2:2 3:60 4:30 5:0.22222222 6:4.6666667 7:60 8:816 9:347 10:60.218182 11:60 12:116 13:67 14:56 15:0 16:0.66666667 
0.5 1:6 2:2 3:180 4:90 5:0.15555556 6:5.0666667 7:180 8:2625 9:1099 10:127.30645 11:180 12:345 13:187 14:124 15:0 16:0.77222222 
0.4607571973202174 1:10 2:4 3:40 4:10 5:0.8 6:3 7:40 8:415 9:211 10:13.555556 11:40 12:55 13:51 14:10 15:0 16:0 
0.5 1:50 2:9.2857143 3:65 4:7 5:0.84890762 6:36.446154 7:65 8:6717 9:2614 10:-511.38366 11:65 12:1444 13:116 14:-564.96 15:9.97 16:0.0029124216 
0.5 1:5 2:2 3:120 4:60 5:0.12 6:4.4 7:120 8:1553 9:654 10:127.04348 11:120 12:233 13:126 14:125 15:0 16:0.8 
0.5 1:8 2:64 3:128 4:2 5:0.75 6:4.625 7:128 8:2196 9:1033 10:9 11:128 12:518 13:137 14:9 15:0 16:0 
0.5 1:8 2:64 3:128 4:2 5:0.75 6:4.625 7:128 8:2196 9:1033 10:10 11:128 12:518 13:137 14:10 15:0 16:0 
0.5 1:5 2:2 3:60 4:30 5:0.06 6:4.7 7:60 8:827 9:348 10:83.013699 11:60 12:122 13:66 14:66 15:0 16:0.9 
0.5 1:5 2:2 3:80 4:40 5:0.195 6:4.025 7:80 8:957 9:408 10:91.115385 11:80 12:152 13:86 14:89 15:0 16:0.675 
0.5 1:5 2:2 3:80 4:40 5:0.165 6:4.175 7:80 8:989 9:420 10:125 11:80 12:154 13:86 14:125 15:0 16:0.725 
0.5 1:10 2:4 3:40 4:10 5:0.8 6:3 7:40 8:415 9:211 10:6.125 11:40 12:55 13:51 14:5 15:0 16:0.066666667 
0.5 1:5 2:2 3:80 4:40 5:0.195 6:4.025 7:80 8:957 9:408 10:113.72043 11:80 12:152 13:86 14:93 15:0 16:0.675 
0.5 1:5 2:2 3:60 4:30 5:0.14 6:4.3 7:60 8:763 9:324 10:116 11:60 12:118 13:66 14:116 15:0 16:0.76666667 
0.5 1:5 2:2 3:120 4:60 5:0.13 6:4.35 7:120 8:1537 9:648 10:167 11:120 12:232 13:126 14:167 15:0 16:0.78333333 
0.5 1:5 2:2 3:60 4:30 5:0.2 6:4 7:60 8:715 9:306 10:89.539683 11:60 12:115 13:66 14:87 15:0 16:0.66666667 
0.5 1:5 2:2 3:80 4:40 5:0.015 6:4.925 7:80 8:1149 9:480 10:44 11:80 12:164 13:86 14:44 15:0 16:0.975 
0.5 1:6 2:2 3:60 4:30 5:0.15555556 6:5.0666667 7:60 8:879 9:371 10:67.782609 11:60 12:119 13:67 14:65 15:0 16:0.76666667 
0.5 1:6 2:2 3:180 4:90 5:0.22222222 6:4.6666667 7:180 8:2436 9:1027 10:171 11:180 12:336 13:187 14:171 15:0 16:0.66666667 
0.5 1:5 2:2 3:80 4:40 5:0.39 6:3.05 7:80 8:749 9:330 10:103.87778 11:80 12:139 13:86 14:87 15:0 16:0.35 
0.5 1:5 2:2 3:80 4:40 5:0.21 6:3.95 7:80 8:941 9:402 10:100 11:80 12:151 13:86 14:100 15:0 16:0.65 
0.5 1:10 2:4 3:40 4:10 5:0.8 6:3 7:40 8:415 9:211 10:13.555556 11:40 12:55 13:51 14:10 15:0 16:0 
0.5 1:5 2:2 3:120 4:60 5:0.06 6:4.7 7:120 8:1649 9:690 10:104 11:120 12:239 13:126 14:104 15:0 16:0.9 
0.5 1:6 2:2 3:180 4:90 5:0.15555556 6:5.0666667 7:180 8:2625 9:1099 10:156.43836 11:180 12:345 13:187 14:152 15:0 16:0.76666667 
0.5 1:8 2:64 3:128 4:2 5:0.75 6:4.625 7:128 8:2196 9:1033 10:10 11:128 12:518 13:137 14:10 15:0 16:0 
0.5 1:6 2:2 3:180 4:90 5:0.066666667 6:5.6 7:180 8:2877 9:1195 10:120 11:180 12:357 13:187 14:120 15:0 16:0.9 
0.5 1:5 2:2 3:80 4:40 5:0.21 6:3.95 7:80 8:941 9:402 10:108.6383 11:80 12:151 13:86 14:106 15:0 16:0.6625 
0.5 1:6 2:2 3:180 4:90 5:0.26666667 6:4.4 7:180 8:2310 9:979 10:181 11:180 12:330 13:187 14:181 15:0 16:0.6 
0.5 1:5 2:2 3:160 4:80 5:0.2025 6:3.9875 7:160 8:1893 9:804 10:360 11:160 12:298 13:166 14:360 15:0 16:0.6625 
0.5 1:5 2:2 3:80 4:40 5:0.195 6:4.025 7:80 8:957 9:408 10:117.40909 11:80 12:152 13:86 14:105 15:0 16:0.675 
0.5 1:6 2:2 3:180 4:90 5:0.13333333 6:5.2 7:180 8:2688 9:1123 10:136.62069 11:180 12:348 13:187 14:129 15:0 16:0.81111111 
0.5 1:5 2:2 3:120 4:60 5:0.26 6:3.7 7:120 8:1329 9:570 10:140.11842 11:120 12:219 13:126 14:124 15:0 16:0.56666667 
0.5 1:6 2:2 3:180 4:90 5:0.18518519 6:4.8888889 7:180 8:2541 9:1067 10:135.33962 11:180 12:341 13:187 14:127 15:0 16:0.72222222 
0.5 1:6 2:2 3:180 4:90 5:0.2 6:4.8 7:180 8:2499 9:1051 10:130.78409 11:180 12:339 13:187 14:121 15:0 16:0.7 
0.5 1:6 2:2 3:180 4:90 5:0.14814815 6:5.1111111 7:180 8:2646 9:1107 10:169.44444 11:180 12:346 13:187 14:166 15:0 16:0.77777778 
0.5 1:5 2:2 3:120 4:60 5:0.34 6:3.3 7:120 8:1201 9:522 10:201.67816 11:120 12:211 13:126 14:196 15:0 16:0.43333333 
0.5 1:8 2:64 3:128 4:2 5:0.75 6:4.625 7:128 8:2196 9:1033 10:9 11:128 12:518 13:137 14:9 15:0 16:0 
0.5 1:10 2:4 3:40 4:10 5:0.8 6:3 7:40 8:415 9:211 10:7 11:40 12:55 13:51 14:7 15:0 16:0.066666667 
0.5 1:5 2:2 3:120 4:60 5:0.1 6:4.5 7:120 8:1585 9:666 10:151.66667 11:120 12:235 13:126 14:147 15:0 16:0.83333333 
0.5 1:5 2:2 3:160 4:80 5:0.1875 6:4.0625 7:160 8:1925 9:816 10:293 11:160 12:300 13:166 14:293 15:0 16:0.6875 
0.5 1:6 2:2 3:60 4:30 5:0.28888889 6:4.2666667 7:60 8:753 9:323 10:105.97436 11:60 12:113 13:67 14:104 15:0 16:0.58333333 
0.5 1:5 2:2 3:80 4:40 5:0.225 6:3.875 7:80 8:925 9:396 10:143 11:80 12:150 13:86 14:143 15:0 16:0.625 
0.5 1:5 2:2 3:160 4:80 5:0.2175 6:3.9125 7:160 8:1861 9:792 10:415.82759 11:160 12:296 13:166 14:413 15:0 16:0.6375 
0.5 1:5 2:2 3:80 4:40 5:0.09 6:4.55 7:80 8:1069 9:450 10:109 11:80 12:159 13:86 14:109 15:0 16:0.85 
0.5 1:6 2:2 3:60 4:30 5:0.28888889 6:4.2666667 7:60 8:753 9:323 10:92.513514 11:60 12:113 13:67 14:84 15:0 16:0.56666667 
0.5 1:5 2:2 3:80 4:40 5:0.225 6:3.875 7:80 8:925 9:396 10:122.71429 11:80 12:150 13:86 14:121 15:0 16:0.625 
0.5 1:8 2:64 3:128 4:2 5:0.75 6:4.625 7:128 8:2196 9:1033 10:14.333333 11:128 12:518 13:137 14:10 15:0 16:0 
0.5 1:5 2:2 3:80 4:40 5:0.165 6:4.175 7:80 8:989 9:420 10:119.71605 11:80 12:154 13:86 14:113 15:0 16:0.725 
0.5 1:6 2:2 3:60 4:30 5:0.22222222 6:4.6666667 7:60 8:816 9:347 10:91.694737 11:60 12:116 13:67 14:69 15:0 16:0.66666667 
0.5 1:5 2:2 3:80 4:40 5:0.24 6:3.8 7:80 8:909 9:390 10:118.3125 11:80 12:149 13:86 14:108 15:0 16:0.6 
0.5 1:6 2:2 3:60 4:30 5:0.11111111 6:5.3333333 7:60 8:921 9:387 10:58.857143 11:60 12:121 13:67 14:50 15:0 16:0.83333333 
0.5 1:5 2:2 3:60 4:30 5:0.14 6:4.3 7:60 8:763 9:324 10:72.491228 11:60 12:118 13:66 14:68 15:0 16:0.76666667 
0.5 1:6 2:2 3:60 4:30 5:0.37777778 6:3.7333333 7:60 8:669 9:291 10:111 11:60 12:109 13:67 14:111 15:0 16:0.43333333 
0.5 1:5 2:2 3:120 4:60 5:0.23 6:3.85 7:120 8:1377 9:588 10:182 11:120 12:222 13:126 14:182 15:0 16:0.625 
0.5 1:5 2:2 3:80 4:40 5:0.12 6:4.4 7:80 8:1037 9:438 10:108 11:80 12:157 13:86 14:108 15:0 16:0.8 
0.5 1:5 2:2 3:80 4:40 5:0.165 6:4.175 7:80 8:989 9:420 10:95.53125 11:80 12:154 13:86 14:93 15:0 16:0.725 
0.5 1:5 2:2 3:160 4:80 5:0.195 6:4.025 7:160 8:1909 9:810 10:334.07143 11:160 12:299 13:166 14:303 15:0 16:0.675 
0.5 1:5 2:2 3:80 4:40 5:0.12 6:4.4 7:80 8:1037 9:438 10:111 11:80 12:157 13:86 14:111 15:0 16:0.8 
0.5 1:5 2:2 3:80 4:40 5:0.06 6:4.7 7:80 8:1101 9:462 10:73 11:80 12:161 13:86 14:73 15:0 16:0.9 
0.5 1:5 2:2 3:60 4:30 5:0.2 6:4 7:60 8:715 9:306 10:94.266667 11:60 12:115 13:66 14:82 15:0 16:0.66666667 
0.5 1:5 2:2 3:60 4:30 5:0.32 6:3.4 7:60 8:619 9:270 10:68.378378 11:60 12:109 13:66 14:58 15:0 16:0.46666667 
0.5 1:5 2:2 3:120 4:60 5:0.14 6:4.3 7:120 8:1521 9:642 10:114.14286 11:120 12:231 13:126 14:109 15:0 16:0.76666667 
0.5 1:10 2:4 3:40 4:10 5:0.8 6:3 7:40 8:415 9:211 10:13.555556 11:40 12:55 13:51 14:10 15:0 16:0 
0.5 1:8 2:64 3:128 4:2 5:0.75 6:4.625 7:128 8:2196 9:1033 10:9 11:128 12:518 13:137 14:9 15:0 16:0 
0.5 1:6 2:2 3:60 4:30 5:0.28888889 6:4.2666667 7:60 8:753 9:323 10:102.28788 11:60 12:113 13:67 14:102 15:0 16:0.56666667 
0.5 1:5 2:2 3:120 4:60 5:0.08 6:4.6 7:120 8:1617 9:678 10:140 11:120 12:237 13:126 14:140 15:0 16:0.86666667 
0.5 1:5 2:2 3:120 4:60 5:0.22 6:3.9 7:120 8:1393 9:594 10:139.22093 11:120 12:223 13:126 14:123 15:0 16:0.63333333 
0.5 1:5 2:2 3:60 4:30 5:0.14 6:4.3 7:60 8:763 9:324 10:63.653061 11:60 12:118 13:66 14:61 15:0 16:0.76666667 
0.5 1:8 2:64 3:128 4:2 5:0.75 6:4.625 7:128 8:2196 9:1033 10:11.266667 11:128 12:518 13:137 14:8 15:0 16:0 
0.5 1:6 2:2 3:60 4:30 5:0.57777778 6:2.5333333 7:60 8:480 9:219 10:112.9 11:60 12:100 13:67 14:103 15:0 16:0.15 
0.5 1:5 2:2 3:80 4:40 5:0.24 6:3.8 7:80 8:909 9:390 10:141.26316 11:80 12:149 13:86 14:137 15:0 16:0.6125 
0.5 1:5 2:2 3:80 4:40 5:0.195 6:4.025 7:80 8:957 9:408 10:101.28916 11:80 12:152 13:86 14:83 15:0 16:0.675 
0.5 1:5 2:2 3:80 4:40 5:0.15 6:4.25 7:80 8:1005 9:426 10:93 11:80 12:155 13:86 14:93 15:0 16:0.75 
0.5 1:5 2:2 3:80 4:40 5:0.195 6:4.025 7:80 8:957 9:408 10:112 11:80 12:152 13:86 14:112 15:0 16:0.675 
0.5 1:5 2:2 3:120 4:60 5:0.09 6:4.55 7:120 8:1601 9:672 10:213 11:120 12:236 13:126 14:213 15:0 16:0.85 
0.5 1:5 2:2 3:160 4:80 5:0.285 6:3.575 7:160 8:1717 9:738 10:373 11:160 12:287 13:166 14:373 15:0 16:0.525 
0.5 1:5 2:2 3:120 4:60 5:0.18 6:4.1 7:120 8:1457 9:618 10:120.09091 11:120 12:227 13:126 14:110 15:0 16:0.7 
0.5 1:6 2:2 3:180 4:90 5:0.11851852 6:5.2888889 7:180 8:2730 9:1139 10:213 11:180 12:350 13:187 14:213 15:0 16:0.82222222 
0.5 1:5 2:2 3:80 4:40 5:0.165 6:4.175 7:80 8:989 9:420 10:123.60241 11:80 12:154 13:86 14:121 15:0 16:0.725 
0.5 1:5 2:2 3:80 4:40 5:0.27 6:3.65 7:80 8:877 9:378 10:129 11:80 12:147 13:86 14:129 15:0 16:0.55 
0.5 1:5 2:2 3:60 4:30 5:0.28 6:3.6 7:60 8:651 9:282 10:74.234568 11:60 12:111 13:66 14:63 15:0 16:0.53333333 
0.5 1:6 2:2 3:180 4:90 5:0.096296296 6:5.4222222 7:180 8:2793 9:1163 10:122 11:180 12:353 13:187 14:122 15:0 16:0.85555556 
0.5 1:6 2:2 3:60 4:30 5:0.2 6:4.8 7:60 8:837 9:355 10:103.5679 11:60 12:117 13:67 14:85 15:0 16:0.71666667 
0.5 1:10 2:4 3:40 4:10 5:0.8 6:3 7:40 8:415 9:211 10:15 11:40 12:55 13:51 14:10 15:0 16:0 
0.5 1:6 2:2 3:180 4:90 5:0.23703704 6:4.5777778 7:180 8:2394 9:1011 10:219.17647 11:180 12:334 13:187 14:210 15:0 16:0.64444444 
0.5 1:6 2:2 3:60 4:30 5:0.044444444 6:5.7333333 7:60 8:984 9:411 10:45 11:60 12:124 13:67 14:45 15:0 16:0.93333333 
0.5 1:6 2:2 3:60 4:30 5:0.26666667 6:4.4 7:60 8:774 9:331 10:63.653061 11:60 12:114 13:67 14:61 15:0 16:0.6 
0.5 1:6 2:2 3:60 4:30 5:0.46666667 6:3.2 7:60 8:585 9:259 10:101.15625 11:60 12:105 13:67 14:99 15:0 16:0.3 
0.5 1:5 2:2 3:80 4:40 5:0.15 6:4.25 7:80 8:1005 9:426 10:68.301587 11:80 12:155 13:86 14:68 15:0 16:0.75 
0.5 1:5 2:2 3:80 4:40 5:0.165 6:4.175 7:80 8:989 9:420 10:73.222222 11:80 12:154 13:86 14:72 15:0 16:0.725 
0.5 1:8 2:64 3:128 4:2 5:0.75 6:4.625 7:128 8:2196 9:1033 10:8 11:128 12:518 13:137 14:8 15:0 16:0 
0.5 1:10 2:4 3:40 4:10 5:0.8 6:3 7:40 8:415 9:211 10:13.555556 11:40 12:55 13:51 14:10 15:0 16:0 
0.5 1:8 2:64 3:128 4:2 5:0.75 6:4.625 7:128 8:2196 9:1033 10:10 11:128 12:518 13:137 14:10 15:0 16:0 
0.5 1:6 2:2 3:60 4:30 5:0.11111111 6:5.3333333 7:60 8:921 9:387 10:71.166667 11:60 12:121 13:67 14:65 15:0 16:0.83333333 
0.5 1:6 2:2 3:180 4:90 5:0.28888889 6:4.2666667 7:180 8:2247 9:955 10:155.13333 11:180 12:327 13:187 14:143 15:0 16:0.56666667 
0.5 1:5 2:2 3:80 4:40 5:0.12 6:4.4 7:80 8:1037 9:438 10:74.656716 11:80 12:157 13:86 14:70 15:0 16:0.8 
0.5 1:8 2:64 3:128 4:2 5:0.75 6:4.625 7:128 8:2196 9:1033 10:10 11:128 12:518 13:137 14:10 15:0 16:0 
0.5 1:5 2:2 3:120 4:60 5:0.21 6:3.95 7:120 8:1409 9:600 10:175.25676 11:120 12:224 13:126 14:171 15:0 16:0.65 
0.5 1:5 2:2 3:120 4:60 5:0.15 6:4.25 7:120 8:1505 9:636 10:175.82609 11:120 12:230 13:126 14:175 15:0 16:0.75 
0.5 1:5 2:2 3:80 4:40 5:0.165 6:4.175 7:80 8:989 9:420 10:103 11:80 12:154 13:86 14:91 15:0 16:0.725 
0.5 1:5 2:2 3:160 4:80 5:0.2775 6:3.6125 7:160 8:1733 9:744 10:376.56962 11:160 12:288 13:166 14:367 15:0 16:0.5375 
0.5 1:6 2:2 3:60 4:30 5:0.28888889 6:4.2666667 7:60 8:753 9:323 10:83.266667 11:60 12:113 13:67 14:80 15:0 16:0.6 
0.5 1:6 2:2 3:180 4:90 5:0.11851852 6:5.2888889 7:180 8:2730 9:1139 10:113.27907 11:180 12:350 13:187 14:104 15:0 16:0.82222222 
0.5 1:6 2:2 3:180 4:90 5:0.27407407 6:4.3555556 7:180 8:2289 9:971 10:177.36585 11:180 12:329 13:187 14:177 15:0 16:0.58888889 
0.5 1:10 2:4 3:40 4:10 5:0.8 6:3 7:40 8:415 9:211 10:14.263158 11:40 12:55 13:51 14:10 15:0 16:0 
0.5 1:5 2:2 3:60 4:30 5:0.08 6:4.6 7:60 8:811 9:342 10:77 11:60 12:121 13:66 14:77 15:0 16:0.86666667 
0.5 1:6 2:2 3:60 4:30 5:0.22222222 6:4.6666667 7:60 8:816 9:347 10:104.75862 11:60 12:116 13:67 14:84 15:0 16:0.66666667 
0.5 1:5 2:2 3:60 4:30 5:0.34 6:3.3 7:60 8:603 9:264 10:128.92754 11:60 12:108 13:66 14:127 15:0 16:0.45 
0.5 1:6 2:2 3:180 4:90 5:0.037037037 6:5.7777778 7:180 8:2961 9:1227 10:72 11:180 12:361 13:187 14:72 15:0 16:0.94444444 
0.5 1:5 2:2 3:60 4:30 5:0.08 6:4.6 7:60 8:811 9:342 10:59 11:60 12:121 13:66 14:59 15:0 16:0.88333333 
0.5 1:5 2:2 3:80 4:40 5:0.15 6:4.25 7:80 8:1005 9:426 10:140 11:80 12:155 13:86 14:140 15:0 16:0.75 
0.5 1:5 2:2 3:60 4:30 5:0.1 6:4.5 7:60 8:795 9:336 10:63.309859 11:60 12:120 13:66 14:58 15:0 16:0.83333333 
0.5 1:5 2:2 3:80 4:40 5:0.09 6:4.55 7:80 8:1069 9:450 10:73.666667 11:80 12:159 13:86 14:66 15:0 16:0.85 
0.5 1:5 2:2 3:80 4:40 5:0.195 6:4.025 7:80 8:957 9:408 10:97.53125 11:80 12:152 13:86 14:83 15:0 16:0.675 
0.5 1:8 2:64 3:128 4:2 5:0.75 6:4.625 7:128 8:2196 9:1033 10:10 11:128 12:518 13:137 14:10 15:0 16:0 
0.5 1:6 2:2 3:180 4:90 5:0.081481481 6:5.5111111 7:180 8:2835 9:1179 10:92.388889 11:180 12:355 13:187 14:83 15:0 16:0.88333333 
0.5 1:5 2:2 3:80 4:40 5:0.15 6:4.25 7:80 8:1005 9:426 10:115.32558 11:80 12:155 13:86 14:113 15:0 16:0.75 
0.5 1:5 2:2 3:120 4:60 5:0.05 6:4.75 7:120 8:1665 9:696 10:76.533333 11:120 12:240 13:126 14:64 15:0 16:0.91666667 
0.5 1:5 2:2 3:120 4:60 5:0.17 6:4.15 7:120 8:1473 9:624 10:147.44681 11:120 12:228 13:126 14:147 15:0 16:0.725 
0.5 1:6 2:2 3:180 4:90 5:0.21481481 6:4.7111111 7:180 8:2457 9:1035 10:152.53846 11:180 12:337 13:187 14:135 15:0 16:0.67777778 
0.5 1:5 2:2 3:120 4:60 5:0.1 6:4.5 7:120 8:1585 9:666 10:136.38776 11:120 12:235 13:126 14:121 15:0 16:0.83333333 
0.5 1:6 2:2 3:180 4:90 5:0.15555556 6:5.0666667 7:180 8:2625 9:1099 10:133.76471 11:180 12:345 13:187 14:133 15:0 16:0.76666667 
0.5 1:5 2:2 3:60 4:30 5:0.14 6:4.3 7:60 8:763 9:324 10:60.218182 11:60 12:118 13:66 14:56 15:0 16:0.76666667 
0.5 1:6 2:2 3:60 4:30 5:0.15555556 6:5.0666667 7:60 8:879 9:371 10:59.5 11:60 12:119 13:67 14:57 15:0 16:0.76666667 
0.5 1:8 2:64 3:128 4:2 5:0.75 6:4.625 7:128 8:2196 9:1033 10:9 11:128 12:518 13:137 14:9 15:0 16:0 
0.5 1:5 2:2 3:60 4:30 5:0.2 6:4 7:60 8:715 9:306 10:74.590164 11:60 12:115 13:66 14:70 15:0 16:0.66666667 
0.5 1:6 2:2 3:60 4:30 5:0.15555556 6:5.0666667 7:60 8:879 9:371 10:74.888889 11:60 12:119 13:67 14:70 15:0 16:0.76666667 
0.5 1:5 2:2 3:120 4:60 5:0.13 6:4.35 7:120 8:1537 9:648 10:117.47887 11:120 12:232 13:126 14:107 15:0 16:0.78333333 
0.5 1:6 2:2 3:60 4:30 5:0.2 6:4.8 7:60 8:837 9:355 10:85.659574 11:60 12:117 13:67 14:78 15:0 16:0.7 
0.5 1:5 2:2 3:120 4:60 5:0.2 6:4 7:120 8:1425 9:606 10:163.97015 11:120 12:225 13:126 14:163 15:0 16:0.66666667 
0.5 1:8 2:64 3:128 4:2 5:0.75 6:4.625 7:128 8:2196 9:1033 10:10 11:128 12:518 13:137 14:10 15:0 16:0 
0.5 1:5 2:2 3:120 4:60 5:0.21 6:3.95 7:120 8:1409 9:600 10:128.05882 11:120 12:224 13:126 14:115 15:0 16:0.65833333 
0.5 1:10 2:4 3:40 4:10 5:0.8 6:3 7:40 8:415 9:211 10:6 11:40 12:55 13:51 14:6 15:0 16:0.066666667 
0.5 1:8 2:64 3:128 4:2 5:0.75 6:4.625 7:128 8:2196 9:1033 10:10 11:128 12:518 13:137 14:10 15:0 16:0 
0.5 1:5 2:2 3:120 4:60 5:0.23 6:3.85 7:120 8:1377 9:588 10:218.62687 11:120 12:222 13:126 14:206 15:0 16:0.61666667 
0.5 1:5 2:2 3:80 4:40 5:0.195 6:4.025 7:80 8:957 9:408 10:88.5 11:80 12:152 13:86 14:83 15:0 16:0.6875 
0.5 1:8 2:64 3:128 4:2 5:0.75 6:4.625 7:128 8:2196 9:1033 10:10 11:128 12:518 13:137 14:10 15:0 16:0 
0.5 1:5 2:2 3:60 4:30 5:0.24 6:3.8 7:60 8:683 9:294 10:123 11:60 12:113 13:66 14:123 15:0 16:0.61666667 
0.5 1:5 2:2 3:120 4:60 5:0.09 6:4.55 7:120 8:1601 9:672 10:152.2809 11:120 12:236 13:126 14:137 15:0 16:0.85 
0.5 1:5 2:2 3:80 4:40 5:0.18 6:4.1 7:80 8:973 9:414 10:100.45833 11:80 12:153 13:86 14:92 15:0 16:0.7 
0.5 1:6 2:2 3:60 4:30 5:0.22222222 6:4.6666667 7:60 8:816 9:347 10:113 11:60 12:116 13:67 14:113 15:0 16:0.66666667 
0.5 1:8 2:64 3:128 4:2 5:0.75 6:4.625 7:128 8:2196 9:1033 10:10 11:128 12:518 13:137 14:10 15:0 16:0 
0.5 1:6 2:2 3:60 4:30 5:0.42222222 6:3.4666667 7:60 8:627 9:275 10:123 11:60 12:107 13:67 14:123 15:0 16:0.38333333 
0.5 1:5 2:2 3:80 4:40 5:0.15 6:4.25 7:80 8:1005 9:426 10:98.760563 11:80 12:155 13:86 14:92 15:0 16:0.75 
0.5 1:8 2:64 3:128 4:2 5:0.75 6:4.625 7:128 8:2196 9:1033 10:10 11:128 12:518 13:137 14:10 15:0 16:0 
0.5 1:5 2:2 3:60 4:30 5:0.14 6:4.3 7:60 8:763 9:324 10:96 11:60 12:118 13:66 14:96 15:0 16:0.76666667 
0.5 1:8 2:64 3:128 4:2 5:0.75 6:4.625 7:128 8:2196 9:1033 10:8 11:128 12:518 13:137 14:8 15:0 16:0 
0.5 1:5 2:2 3:120 4:60 5:0.15 6:4.25 7:120 8:1505 9:636 10:132.9726 11:120 12:230 13:126 14:128 15:0 16:0.75 
0.5 1:5 2:2 3:60 4:30 5:0.14 6:4.3 7:60 8:763 9:324 10:94.363636 11:60 12:118 13:66 14:94 15:0 16:0.76666667 
0.5 1:10 2:4 3:40 4:10 5:0.8 6:3 7:40 8:415 9:211 10:13.555556 11:40 12:55 13:51 14:10 15:0 16:0 
0.5 1:8 2:64 3:128 4:2 5:0.75 6:4.625 7:128 8:2196 9:1033 10:7 11:128 12:518 13:137 14:7 15:0 16:0 
0.5 1:5 2:2 3:80 4:40 5:0.195 6:4.025 7:80 8:957 9:408 10:121.25373 11:80 12:152 13:86 14:120 15:0 16:0.675 
0.5 1:5 2:2 3:80 4:40 5:0.165 6:4.175 7:80 8:989 9:420 10:94.333333 11:80 12:154 13:86 14:81 15:0 16:0.725 
0.5 1:6 2:2 3:60 4:30 5:0.31111111 6:4.1333333 7:60 8:732 9:315 10:101.04082 11:60 12:112 13:67 14:79 15:0 16:0.55 
0.5 1:5 2:2 3:80 4:40 5:0.165 6:4.175 7:80 8:989 9:420 10:77.546667 11:80 12:154 13:86 14:72 15:0 16:0.725 
0.5 1:10 2:4 3:40 4:10 5:0.8 6:3 7:40 8:415 9:211 10:15 11:40 12:55 13:51 14:10 15:0 16:0 
0.5 1:5 2:2 3:80 4:40 5:0.105 6:4.475 7:80 8:1053 9:444 10:106.68852 11:80 12:158 13:86 14:100 15:0 16:0.825 
0.5 1:5 2:2 3:120 4:60 5:0.14 6:4.3 7:120 8:1521 9:642 10:133.22222 11:120 12:231 13:126 14:111 15:0 16:0.76666667 
0.5 1:5 2:2 3:120 4:60 5:0.11 6:4.45 7:120 8:1569 9:660 10:115.68 11:120 12:234 13:126 14:112 15:0 16:0.81666667 
0.5 1:6 2:2 3:60 4:30 5:0.2 6:4.8 7:60 8:837 9:355 10:74.566265 11:60 12:117 13:67 14:69 15:0 16:0.7 
0.5 1:8 2:64 3:128 4:2 5:0.75 6:4.625 7:128 8:2196 9:1033 10:10 11:128 12:518 13:137 14:10 15:0 16:0 
0.5 1:5 2:2 3:60 4:30 5:0.1 6:4.5 7:60 8:795 9:336 10:90 11:60 12:120 13:66 14:90 15:0 16:0.83333333 
0.3183002895099341 1:10 2:4 3:40 4:10 5:0.8 6:3 7:40 8:415 9:211 10:7.125 11:40 12:55 13:51 14:7 15:0 16:0.13333333 
0.5 1:5 2:2 3:120 4:60 5:0.06 6:4.7 7:120 8:1649 9:690 10:108 11:120 12:239 13:126 14:108 15:0 16:0.9 
0.5 1:6 2:2 3:180 4:90 5:0.13333333 6:5.2 7:180 8:2688 9:1123 10:126.75385 11:180 12:348 13:187 14:121 15:0 16:0.8 
0.5 1:8 2:64 3:128 4:2 5:0.75 6:4.625 7:128 8:2196 9:1033 10:9 11:128 12:518 13:137 14:9 15:0 16:0 
0.5 1:5 2:2 3:80 4:40 5:0.06 6:4.7 7:80 8:1101 9:462 10:89 11:80 12:161 13:86 14:89 15:0 16:0.9 
0.5 1:6 2:2 3:180 4:90 5:0.17777778 6:4.9333333 7:180 8:2562 9:1075 10:122.13333 11:180 12:342 13:187 14:117 15:0 16:0.73333333 
0.5 1:6 2:2 3:180 4:90 5:0.15555556 6:5.0666667 7:180 8:2625 9:1099 10:189 11:180 12:345 13:187 14:189 15:0 16:0.76666667 
0.5 1:5 2:2 3:80 4:40 5:0.285 6:3.575 7:80 8:861 9:372 10:163.20779 11:80 12:146 13:86 14:162 15:0 16:0.525 
0.5 1:5 2:2 3:120 4:60 5:0.13 6:4.35 7:120 8:1537 9:648 10:166 11:120 12:232 13:126 14:166 15:0 16:0.78333333 
0.5 1:10 2:4 3:40 4:10 5:0.8 6:3 7:40 8:415 9:211 10:13.555556 11:40 12:55 13:51 14:10 15:0 16:0 
0.5 1:6 2:2 3:180 4:90 5:0.16296296 6:5.0222222 7:180 8:2604 9:1091 10:105 11:180 12:344 13:187 14:105 15:0 16:0.75555556 
0.5 1:5 2:2 3:120 4:60 5:0.07 6:4.65 7:120 8:1633 9:684 10:121.47368 11:120 12:238 13:126 14:116 15:0 16:0.88333333 
0.5 1:10 2:4 3:40 4:10 5:0.8 6:3 7:40 8:415 9:211 10:6.125 11:40 12:55 13:51 14:5 15:0 16:0 
0.5 1:8 2:64 3:128 4:2 5:0.75 6:4.625 7:128 8:2196 9:1033 10:9 11:128 12:518 13:137 14:9 15:0 16:0 
0.5 1:5 2:2 3:80 4:40 5:0.15 6:4.25 7:80 8:1005 9:426 10:75.036364 11:80 12:155 13:86 14:67 15:0 16:0.75 
0.5 1:6 2:2 3:60 4:30 5:0.28888889 6:4.2666667 7:60 8:753 9:323 10:101.12766 11:60 12:113 13:67 14:84 15:0 16:0.56666667 
0.5 1:5 2:2 3:80 4:40 5:0.165 6:4.175 7:80 8:989 9:420 10:122.36709 11:80 12:154 13:86 14:121 15:0 16:0.725 
0.5 1:5 2:2 3:80 4:40 5:0.105 6:4.475 7:80 8:1053 9:444 10:106.87179 11:80 12:158 13:86 14:90 15:0 16:0.825 
0.5 1:5 2:2 3:160 4:80 5:0.375 6:3.125 7:160 8:1525 9:666 10:531 11:160 12:275 13:166 14:531 15:0 16:0.38125 
0.5 1:5 2:2 3:80 4:40 5:0.135 6:4.325 7:80 8:1021 9:432 10:89 11:80 12:156 13:86 14:89 15:0 16:0.775 
0.5 1:5 2:2 3:160 4:80 5:0.3 6:3.5 7:160 8:1685 9:726 10:458.08571 11:160 12:285 13:166 14:419 15:0 16:0.5 
0.5 1:6 2:2 3:60 4:30 5:0.33333333 6:4 7:60 8:711 9:307 10:72.090909 11:60 12:111 13:67 14:59 15:0 16:0.5 
0.5 1:5 2:2 3:80 4:40 5:0.165 6:4.175 7:80 8:989 9:420 10:155.11 11:80 12:154 13:86 14:136 15:0 16:0.725 
0.5 1:8 2:64 3:128 4:2 5:0.75 6:4.625 7:128 8:2196 9:1033 10:8 11:128 12:518 13:137 14:8 15:0 16:0 
0.5 1:6 2:2 3:180 4:90 5:0.26666667 6:4.4 7:180 8:2310 9:979 10:170 11:180 12:330 13:187 14:170 15:0 16:0.60555556 
0.5 1:5 2:2 3:120 4:60 5:0.2 6:4 7:120 8:1425 9:606 10:180 11:120 12:225 13:126 14:180 15:0 16:0.66666667 
0.5 1:5 2:2 3:60 4:30 5:0.06 6:4.7 7:60 8:827 9:348 10:51.584906 11:60 12:122 13:66 14:50 15:0 16:0.9 
0.5 1:6 2:2 3:180 4:90 5:0.17037037 6:4.9777778 7:180 8:2583 9:1083 10:165 11:180 12:343 13:187 14:165 15:0 16:0.74444444 
0.5 1:6 2:2 3:180 4:90 5:0.066666667 6:5.6 7:180 8:2877 9:1195 10:108 11:180 12:357 13:187 14:108 15:0 16:0.9 
0.5 1:5 2:2 3:80 4:40 5:0.06 6:4.7 7:80 8:1101 9:462 10:59 11:80 12:161 13:86 14:59 15:0 16:0.9 
0.5 1:5 2:2 3:80 4:40 5:0.195 6:4.025 7:80 8:957 9:408 10:138 11:80 12:152 13:86 14:138 15:0 16:0.675 
0.5 1:6 2:2 3:180 4:90 5:0.12592593 6:5.2444444 7:180 8:2709 9:1131 10:177 11:180 12:349 13:187 14:177 15:0 16:0.82222222 
0.5 1:5 2:2 3:80 4:40 5:0.15 6:4.25 7:80 8:1005 9:426 10:103.2381 11:80 12:155 13:86 14:103 15:0 16:0.75 
0.5 1:5 2:2 3:80 4:40 5:0.255 6:3.725 7:80 8:893 9:384 10:123.29545 11:80 12:148 13:86 14:123 15:0 16:0.5875 
0.5 1:5 2:2 3:80 4:40 5:0.27 6:3.65 7:80 8:877 9:378 10:154 11:80 12:147 13:86 14:154 15:0 16:0.55 
0.5 1:5 2:2 3:120 4:60 5:0.09 6:4.55 7:120 8:1601 9:672 10:127.08333 11:120 12:236 13:126 14:115 15:0 16:0.85 
0.5 1:5 2:2 3:80 4:40 5:0.225 6:3.875 7:80 8:925 9:396 10:119.5 11:80 12:150 13:86 14:106 15:0 16:0.625 
0.5 1:5 2:2 3:120 4:60 5:0.14 6:4.3 7:120 8:1521 9:642 10:122.4 11:120 12:231 13:126 14:120 15:0 16:0.76666667 
0.5 1:5 2:2 3:60 4:30 5:0.1 6:4.5 7:60 8:795 9:336 10:79 11:60 12:120 13:66 14:79 15:0 16:0.83333333 
0.5 1:6 2:2 3:60 4:30 5:0.044444444 6:5.7333333 7:60 8:984 9:411 10:48.830508 11:60 12:124 13:67 14:44 15:0 16:0.93333333 
0.5 1:5 2:2 3:120 4:60 5:0.21 6:3.95 7:120 8:1409 9:600 10:154 11:120 12:224 13:126 14:154 15:0 16:0.65 
0.5 1:8 2:64 3:128 4:2 5:0.75 6:4.625 7:128 8:2196 9:1033 10:8 11:128 12:518 13:137 14:8 15:0 16:0 
0.5 1:6 2:2 3:60 4:30 5:0.2 6:4.8 7:60 8:837 9:355 10:62.253012 11:60 12:117 13:67 14:54 15:0 16:0.7 
0.5 1:6 2:2 3:60 4:30 5:0.28888889 6:4.2666667 7:60 8:753 9:323 10:103 11:60 12:113 13:67 14:103 15:0 16:0.56666667 
0.5 1:5 2:2 3:60 4:30 5:0.26 6:3.7 7:60 8:667 9:288 10:124 11:60 12:112 13:66 14:124 15:0 16:0.56666667 
0.5 1:5 2:2 3:60 4:30 5:0.16 6:4.2 7:60 8:747 9:318 10:78.348315 11:60 12:117 13:66 14:59 15:0 16:0.73333333 
0.5 1:5 2:2 3:120 4:60 5:0.17 6:4.15 7:120 8:1473 9:624 10:122.13333 11:120 12:228 13:126 14:117 15:0 16:0.71666667 
0.5 1:5 2:2 3:80 4:40 5:0.225 6:3.875 7:80 8:925 9:396 10:133.22222 11:80 12:150 13:86 14:133 15:0 16:0.625 
0.5 1:5 2:2 3:80 4:40 5:0.12 6:4.4 7:80 8:1037 9:438 10:120.11765 11:80 12:157 13:86 14:118 15:0 16:0.8 
0.5 1:6 2:2 3:180 4:90 5:0.14074074 6:5.1555556 7:180 8:2667 9:1115 10:129.34043 11:180 12:347 13:187 14:122 15:0 16:0.8 
0.5 1:6 2:2 3:60 4:30 5:0.31111111 6:4.1333333 7:60 8:732 9:315 10:90.340426 11:60 12:112 13:67 14:89 15:0 16:0.55 
0.5 1:5 2:2 3:80 4:40 5:0.12 6:4.4 7:80 8:1037 9:438 10:156 11:80 12:157 13:86 14:156 15:0 16:0.8125 
0.5 1:6 2:2 3:60 4:30 5:0.37777778 6:3.7333333 7:60 8:669 9:291 10:77.333333 11:60 12:109 13:67 14:72 15:0 16:0.43333333 
0.5 1:5 2:2 3:120 4:60 5:0.22 6:3.9 7:120 8:1393 9:594 10:144.1 11:120 12:223 13:126 14:127 15:0 16:0.63333333 
0.5 1:5 2:2 3:80 4:40 5:0.18 6:4.1 7:80 8:973 9:414 10:119 11:80 12:153 13:86 14:119 15:0 16:0.7 
0.5 1:5 2:2 3:80 4:40 5:0.15 6:4.25 7:80 8:1005 9:426 10:108 11:80 12:155 13:86 14:108 15:0 16:0.7625 
0.5 1:30 2:9.6 3:48 4:5 5:0.83663196 6:24.145833 7:8 8:216 9:91 10:-241.45886 11:8 12:43 13:24 14:-241.45886 15:3.94 16:0.0060952936 
0.5 1:5 2:2 3:120 4:60 5:0.17 6:4.15 7:120 8:1473 9:624 10:109.18182 11:120 12:228 13:126 14:103 15:0 16:0.71666667 
0.5 1:5 2:2 3:120 4:60 5:0.11 6:4.45 7:120 8:1569 9:660 10:114.48193 11:120 12:234 13:126 14:107 15:0 16:0.81666667 
0.5 1:6 2:2 3:180 4:90 5:0.14074074 6:5.1555556 7:180 8:2667 9:1115 10:144 11:180 12:347 13:187 14:144 15:0 16:0.78888889 
0.5 1:5 2:2 3:80 4:40 5:0.105 6:4.475 7:80 8:1053 9:444 10:92.5 11:80 12:158 13:86 14:79 15:0 16:0.825 
0.5 1:5 2:2 3:120 4:60 5:0.18 6:4.1 7:120 8:1457 9:618 10:178 11:120 12:227 13:126 14:178 15:0 16:0.7 
0.5 1:5 2:2 3:80 4:40 5:0.135 6:4.325 7:80 8:1021 9:432 10:128 11:80 12:156 13:86 14:128 15:0 16:0.775 
0.5 1:5 2:2 3:80 4:40 5:0.165 6:4.175 7:80 8:989 9:420 10:114.20619 11:80 12:154 13:86 14:94 15:0 16:0.725 
0.5 1:5 2:2 3:80 4:40 5:0.18 6:4.1 7:80 8:973 9:414 10:149 11:80 12:153 13:86 14:149 15:0 16:0.7 
0.5 1:5 2:2 3:60 4:30 5:0.2 6:4 7:60 8:715 9:306 10:88.649351 11:60 12:115 13:66 14:74 15:0 16:0.66666667 
0.5 1:6 2:2 3:60 4:30 5:0.11111111 6:5.3333333 7:60 8:921 9:387 10:71.5 11:60 12:121 13:67 14:57 15:0 16:0.83333333 
0.5 1:5 2:2 3:120 4:60 5:0.15 6:4.25 7:120 8:1505 9:636 10:152 11:120 12:230 13:126 14:152 15:0 16:0.75 
0.5 1:5 2:2 3:80 4:40 5:0.09 6:4.55 7:80 8:1069 9:450 10:73 11:80 12:159 13:86 14:73 15:0 16:0.85 
0.5 1:10 2:4 3:40 4:10 5:0.8 6:3 7:40 8:415 9:211 10:13.555556 11:40 12:55 13:51 14:10 15:0 16:0 
0.5 1:5 2:2 3:80 4:40 5:0.075 6:4.625 7:80 8:1085 9:456 10:79 11:80 12:160 13:86 14:79 15:0 16:0.875 
0.5 1:6 2:2 3:60 4:30 5:0.26666667 6:4.4 7:60 8:774 9:331 10:86.063291 11:60 12:114 13:67 14:78 15:0 16:0.6 
0.5 1:5 2:2 3:160 4:80 5:0.3 6:3.5 7:160 8:1685 9:726 10:431 11:160 12:285 13:166 14:431 15:0 16:0.5 
0.5 1:6 2:2 3:60 4:30 5:0.22222222 6:4.6666667 7:60 8:816 9:347 10:94.363636 11:60 12:116 13:67 14:94 15:0 16:0.66666667 
0.5 1:5 2:2 3:120 4:60 5:0.18 6:4.1 7:120 8:1457 9:618 10:136.49462 11:120 12:227 13:126 14:136 15:0 16:0.70833333 
0.5 1:5 2:2 3:60 4:30 5:0.14 6:4.3 7:60 8:763 9:324 10:89 11:60 12:118 13:66 14:89 15:0 16:0.76666667 
0.5 1:6 2:2 3:180 4:90 5:0.1037037 6:5.3777778 7:180 8:2772 9:1155 10:107.8 11:180 12:352 13:187 14:105 15:0 16:0.84444444 
0.5 1:5 2:2 3:120 4:60 5:0.04 6:4.8 7:120 8:1681 9:702 10:87.936709 11:120 12:241 13:126 14:83 15:0 16:0.93333333 
0.5 1:5 2:2 3:120 4:60 5:0.27 6:3.65 7:120 8:1313 9:564 10:155.06173 11:120 12:218 13:126 14:151 15:0 16:0.55 
0.5 1:6 2:2 3:180 4:90 5:0.2962963 6:4.2222222 7:180 8:2226 9:947 10:156 11:180 12:326 13:187 14:156 15:0 16:0.55555556 
0.5 1:5 2:2 3:160 4:80 5:0.4275 6:2.8625 7:160 8:1413 9:624 10:554 11:160 12:268 13:166 14:554 15:0 16:0.29375 
0.5 1:10 2:4 3:40 4:10 5:0.8 6:3 7:40 8:415 9:211 10:15 11:40 12:55 13:51 14:10 15:0 16:0 
0.5 1:6 2:2 3:180 4:90 5:0.088888889 6:5.4666667 7:180 8:2814 9:1171 10:109.9 11:180 12:354 13:187 14:98 15:0 16:0.86666667 
0.5 1:8 2:64 3:128 4:2 5:0.75 6:4.625 7:128 8:2196 9:1033 10:10 11:128 12:518 13:137 14:10 15:0 16:0 
0.5 1:10 2:4 3:40 4:10 5:0.8 6:3 7:40 8:415 9:211 10:7 11:40 12:55 13:51 14:6 15:0 16:0.066666667 
0.5 1:6 2:2 3:60 4:30 5:0.26666667 6:4.4 7:60 8:774 9:331 10:99.064516 11:60 12:114 13:67 14:98 15:0 16:0.6 
0.5 1:5 2:2 3:120 4:60 5:0.08 6:4.6 7:120 8:1617 9:678 10:122 11:120 12:237 13:126 14:122 15:0 16:0.86666667 
0.5 1:8 2:64 3:128 4:2 5:0.75 6:4.625 7:128 8:2196 9:1033 10:10 11:128 12:518 13:137 14:10 15:0 16:0 
0.5 1:5 2:2 3:80 4:40 5:0.18 6:4.1 7:80 8:973 9:414 10:144.48315 11:80 12:153 13:86 14:143 15:0 16:0.7 
0.5 1:5 2:2 3:80 4:40 5:0.135 6:4.325 7:80 8:1021 9:432 10:109.98667 11:80 12:156 13:86 14:93 15:0 16:0.775 
0.5 1:8 2:64 3:128 4:2 5:0.75 6:4.625 7:128 8:2196 9:1033 10:10 11:128 12:518 13:137 14:10 15:0 16:0 
0.5 1:6 2:2 3:180 4:90 5:0.096296296 6:5.4222222 7:180 8:2793 9:1163 10:182 11:180 12:353 13:187 14:182 15:0 16:0.85555556 
0.5 1:8 2:64 3:128 4:2 5:0.75 6:4.625 7:128 8:2196 9:1033 10:10 11:128 12:518 13:137 14:10 15:0 16:0 
0.5 1:8 2:64 3:128 4:2 5:0.75 6:4.625 7:128 8:2196 9:1033 10:10 11:128 12:518 13:137 14:10 15:0 16:0 
0.5 1:6 2:2 3:60 4:30 5:0.48888889 6:3.0666667 7:60 8:564 9:251 10:74.234568 11:60 12:104 13:67 14:63 15:0 16:0.26666667 
0.5 1:5 2:2 3:80 4:40 5:0.09 6:4.55 7:80 8:1069 9:450 10:93.255814 11:80 12:159 13:86 14:93 15:0 16:0.85 
0.5 1:5 2:2 3:80 4:40 5:0.18 6:4.1 7:80 8:973 9:414 10:87.52 11:80 12:153 13:86 14:82 15:0 16:0.7 
0.5 1:6 2:2 3:180 4:90 5:0.36296296 6:3.8222222 7:180 8:2037 9:875 10:175.97778 11:180 12:317 13:187 14:171 15:0 16:0.45555556 
0.5 1:6 2:2 3:60 4:30 5:0.37777778 6:3.7333333 7:60 8:669 9:291 10:103.88571 11:60 12:109 13:67 14:96 15:0 16:0.43333333 
0.5 1:5 2:2 3:120 4:60 5:0.07 6:4.65 7:120 8:1633 9:684 10:120 11:120 12:238 13:126 14:120 15:0 16:0.88333333 
0.5 1:5 2:2 3:80 4:40 5:0.45 6:2.75 7:80 8:685 9:306 10:157.93548 11:80 12:135 13:86 14:156 15:0 16:0.25 
0.5 1:10 2:4 3:40 4:10 5:0.8 6:3 7:40 8:415 9:211 10:14.263158 11:40 12:55 13:51 14:10 15:0 16:0.066666667 
0.5 1:5 2:2 3:80 4:40 5:0.09 6:4.55 7:80 8:1069 9:450 10:62 11:80 12:159 13:86 14:62 15:0 16:0.85 
0.5 1:5 2:2 3:60 4:30 5:0.14 6:4.3 7:60 8:763 9:324 10:70.375 11:60 12:118 13:66 14:55 15:0 16:0.76666667 
0.5 1:6 2:2 3:180 4:90 5:0.12592593 6:5.2444444 7:180 8:2709 9:1131 10:161 11:180 12:349 13:187 14:161 15:0 16:0.81111111 
0.5 1:5 2:2 3:80 4:40 5:0.03 6:4.85 7:80 8:1133 9:474 10:109 11:80 12:163 13:86 14:109 15:0 16:0.95 
0.5 1:6 2:2 3:180 4:90 5:0.1037037 6:5.3777778 7:180 8:2772 9:1155 10:102 11:180 12:352 13:187 14:102 15:0 16:0.84444444 
0.5 1:6 2:2 3:180 4:90 5:0.18518519 6:4.8888889 7:180 8:2541 9:1067 10:185.36082 11:180 12:341 13:187 14:180 15:0 16:0.72777778 
0.5 1:5 2:2 3:120 4:60 5:0.14 6:4.3 7:120 8:1521 9:642 10:130.78409 11:120 12:231 13:126 14:121 15:0 16:0.76666667 
0.5 1:5 2:2 3:120 4:60 5:0.25 6:3.75 7:120 8:1345 9:576 10:194.19149 11:120 12:220 13:126 14:191 15:0 16:0.58333333 
0.5 1:5 2:2 3:80 4:40 5:0.105 6:4.475 7:80 8:1053 9:444 10:118 11:80 12:158 13:86 14:118 15:0 16:0.825 
0.5 1:8 2:64 3:128 4:2 5:0.75 6:4.625 7:128 8:2196 9:1033 10:9 11:128 12:518 13:137 14:9 15:0 16:0 
0.5 1:5 2:2 3:120 4:60 5:0.27 6:3.65 7:120 8:1313 9:564 10:150.51515 11:120 12:218 13:126 14:143 15:0 16:0.55833333 
0.5 1:5 2:2 3:80 4:40 5:0.165 6:4.175 7:80 8:989 9:420 10:117.16438 11:80 12:154 13:86 14:111 15:0 16:0.725 
0.5 1:5 2:2 3:80 4:40 5:0.09 6:4.55 7:80 8:1069 9:450 10:73.454545 11:80 12:159 13:86 14:56 15:0 16:0.85 
0.5 1:6 2:2 3:180 4:90 5:0.14814815 6:5.1111111 7:180 8:2646 9:1107 10:132.28395 11:180 12:346 13:187 14:115 15:0 16:0.77777778 
0.5 1:6 2:2 3:180 4:90 5:0.16296296 6:5.0222222 7:180 8:2604 9:1091 10:171.09375 11:180 12:344 13:187 14:165 15:0 16:0.75555556 
0.5 1:8 2:64 3:128 4:2 5:0.75 6:4.625 7:128 8:2196 9:1033 10:10 11:128 12:518 13:137 14:10 15:0 16:0 
0.5 1:5 2:2 3:80 4:40 5:0.15 6:4.25 7:80 8:1005 9:426 10:60.705882 11:80 12:155 13:86 14:59 15:0 16:0.75 
0.5 1:5 2:2 3:80 4:40 5:0.345 6:3.275 7:80 8:797 9:348 10:122.63291 11:80 12:142 13:86 14:112 15:0 16:0.425 
0.5 1:30 2:10.6 3:53 4:5 5:0.84857397 6:22.056604 7:9 8:366 9:130 10:38.21292 11:9 12:101 13:25 14:38.21292 15:7.01 16:0.0045089305 
0.5 1:5 2:2 3:80 4:40 5:0.15 6:4.25 7:80 8:1005 9:426 10:80 11:80 12:155 13:86 14:80 15:0 16:0.75 
0.5 1:6 2:2 3:60 4:30 5:0.31111111 6:4.1333333 7:60 8:732 9:315 10:86.289157 11:60 12:112 13:67 14:68 15:0 16:0.53333333 
0.5 1:5 2:2 3:80 4:40 5:0.27 6:3.65 7:80 8:877 9:378 10:93 11:80 12:147 13:86 14:79 15:0 16:0.55 
0.5 1:6 2:2 3:60 4:30 5:0.53333333 6:2.8 7:60 8:522 9:235 10:106.28571 11:60 12:102 13:67 14:96 15:0 16:0.2 
0.5 1:5 2:2 3:60 4:30 5:0.18 6:4.1 7:60 8:731 9:312 10:72.090909 11:60 12:116 13:66 14:59 15:0 16:0.7 
0.5 1:5 2:2 3:80 4:40 5:0.225 6:3.875 7:80 8:925 9:396 10:118.93478 11:80 12:150 13:86 14:116 15:0 16:0.625 
0.5 1:5 2:2 3:160 4:80 5:0.2175 6:3.9125 7:160 8:1861 9:792 10:370 11:160 12:296 13:166 14:370 15:0 16:0.6375 
0.5 1:8 2:64 3:128 4:2 5:0.75 6:4.625 7:128 8:2196 9:1033 10:6 11:128 12:518 13:137 14:6 15:0 16:0 
0.5 1:5 2:2 3:120 4:60 5:0.19 6:4.05 7:120 8:1441 9:612 10:146 11:120 12:226 13:126 14:146 15:0 16:0.68333333 
0.5 1:10 2:4 3:40 4:10 5:0.8 6:3 7:40 8:415 9:211 10:15 11:40 12:55 13:51 14:10 15:0 16:0.066666667 
0.5 1:5 2:2 3:120 4:60 5:0.18 6:4.1 7:120 8:1457 9:618 10:106.28814 11:120 12:227 13:126 14:101 15:0 16:0.70833333 
0.5 1:8 2:64 3:128 4:2 5:0.75 6:4.625 7:128 8:2196 9:1033 10:9 11:128 12:518 13:137 14:9 15:0 16:0 
0.5 1:5 2:2 3:60 4:30 5:0.12 6:4.4 7:60 8:779 9:330 10:55 11:60 12:119 13:66 14:55 15:0 16:0.81666667 
0.5 1:5 2:2 3:80 4:40 5:0.15 6:4.25 7:80 8:1005 9:426 10:90.541667 11:80 12:155 13:86 14:87 15:0 16:0.75 
0.5 1:8 2:64 3:128 4:2 5:0.75 6:4.625 7:128 8:2196 9:1033 10:10 11:128 12:518 13:137 14:10 15:0 16:0 
0.5 1:5 2:2 3:160 4:80 5:0.2925 6:3.5375 7:160 8:1701 9:732 10:529 11:160 12:286 13:166 14:529 15:0 16:0.5125 
0.5 1:5 2:2 3:60 4:30 5:0.24 6:3.8 7:60 8:683 9:294 10:98.538462 11:60 12:113 13:66 14:85 15:0 16:0.6 
0.5 1:5 2:2 3:120 4:60 5:0.05 6:4.75 7:120 8:1665 9:696 10:101 11:120 12:240 13:126 14:101 15:0 16:0.91666667 
0.5 1:5 2:2 3:60 4:30 5:0.06 6:4.7 7:60 8:827 9:348 10:71.5 11:60 12:122 13:66 14:57 15:0 16:0.9 
0.5 1:8 2:64 3:128 4:2 5:0.75 6:4.625 7:128 8:2196 9:1033 10:10 11:128 12:518 13:137 14:10 15:0 16:0 
0.5 1:5 2:2 3:80 4:40 5:0.165 6:4.175 7:80 8:989 9:420 10:98.25 11:80 12:154 13:86 14:81 15:0 16:0.7375 
0.5 1:8 2:64 3:128 4:2 5:0.75 6:4.625 7:128 8:2196 9:1033 10:7 11:128 12:518 13:137 14:7 15:0 16:0 
0.5 1:6 2:2 3:180 4:90 5:0.096296296 6:5.4222222 7:180 8:2793 9:1163 10:120 11:180 12:353 13:187 14:120 15:0 16:0.85555556 
0.5 1:5 2:2 3:120 4:60 5:0.25 6:3.75 7:120 8:1345 9:576 10:156.4 11:120 12:220 13:126 14:148 15:0 16:0.59166667 
0.5 1:5 2:2 3:80 4:40 5:0.075 6:4.625 7:80 8:1085 9:456 10:108 11:80 12:160 13:86 14:108 15:0 16:0.875 
0.5 1:6 2:2 3:180 4:90 5:0.1037037 6:5.3777778 7:180 8:2772 9:1155 10:106.21687 11:180 12:352 13:187 14:104 15:0 16:0.84444444 
0.5 1:5 2:2 3:60 4:30 5:0.08 6:4.6 7:60 8:811 9:342 10:44.346939 11:60 12:121 13:66 14:43 15:0 16:0.86666667 
0.5 1:6 2:2 3:180 4:90 5:0.17777778 6:4.9333333 7:180 8:2562 9:1075 10:160 11:180 12:342 13:187 14:160 15:0 16:0.73333333 
0.5 1:5 2:2 3:120 4:60 5:0.09 6:4.55 7:120 8:1601 9:672 10:135.70787 11:120 12:236 13:126 14:132 15:0 16:0.85 
0.5 1:5 2:2 3:120 4:60 5:0.11 6:4.45 7:120 8:1569 9:660 10:155.95122 11:120 12:234 13:126 14:154 15:0 16:0.81666667 
0.5 1:8 2:64 3:128 4:2 5:0.75 6:4.625 7:128 8:2196 9:1033 10:9 11:128 12:518 13:137 14:9 15:0 16:0 
0.5 1:5 2:2 3:80 4:40 5:0.075 6:4.625 7:80 8:1085 9:456 10:109 11:80 12:160 13:86 14:109 15:0 16:0.875 
0.5 1:8 2:64 3:128 4:2 5:0.75 6:4.625 7:128 8:2196 9:1033 10:7 11:128 12:518 13:137 14:7 15:0 16:0 
0.5 1:5 2:2 3:120 4:60 5:0.16 6:4.2 7:120 8:1489 9:630 10:169.79167 11:120 12:229 13:126 14:169 15:0 16:0.74166667 
0.5 1:5 2:2 3:60 4:30 5:0.14 6:4.3 7:60 8:763 9:324 10:75 11:60 12:118 13:66 14:75 15:0 16:0.76666667 
0.5 1:5 2:2 3:60 4:30 5:0.16 6:4.2 7:60 8:747 9:318 10:69.228571 11:60 12:117 13:66 14:68 15:0 16:0.73333333 
0.5 1:5 2:2 3:60 4:30 5:0.06 6:4.7 7:60 8:827 9:348 10:95 11:60 12:122 13:66 14:95 15:0 16:0.9 
0.5 1:5 2:2 3:80 4:40 5:0.06 6:4.7 7:80 8:1101 9:462 10:143 11:80 12:161 13:86 14:143 15:0 16:0.9 
0.5 1:5 2:2 3:80 4:40 5:0.165 6:4.175 7:80 8:989 9:420 10:110 11:80 12:154 13:86 14:110 15:0 16:0.725 
0.5 1:6 2:2 3:60 4:30 5:0.4 6:3.6 7:60 8:648 9:283 10:121.09278 11:60 12:108 13:67 14:112 15:0 16:0.4 
0.5 1:6 2:2 3:60 4:30 5:0.2 6:4.8 7:60 8:837 9:355 10:116 11:60 12:117 13:67 14:116 15:0 16:0.7 
0.5 1:5 2:2 3:160 4:80 5:0.1725 6:4.1375 7:160 8:1957 9:828 10:258.14054 11:160 12:302 13:166 14:224 15:0 16:0.7125 
0.5 1:5 2:2 3:80 4:40 5:0.315 6:3.425 7:80 8:829 9:360 10:100.98305 11:80 12:144 13:86 14:90 15:0 16:0.4875 
0.5 1:8 2:64 3:128 4:2 5:0.75 6:4.625 7:128 8:2196 9:1033 10:10 11:128 12:518 13:137 14:10 15:0 16:0 
0.5 1:5 2:2 3:60 4:30 5:0.08 6:4.6 7:60 8:811 9:342 10:71.166667 11:60 12:121 13:66 14:65 15:0 16:0.86666667 
0.5 1:8 2:64 3:128 4:2 5:0.75 6:4.625 7:128 8:2196 9:1033 10:10 11:128 12:518 13:137 14:10 15:0 16:0 
0.5 1:10 2:4 3:40 4:10 5:0.8 6:3 7:40 8:415 9:211 10:14.263158 11:40 12:55 13:51 14:10 15:0 16:0 
0.5 1:5 2:2 3:160 4:80 5:0.27 6:3.65 7:160 8:1749 9:750 10:412.22759 11:160 12:289 13:166 14:387 15:0 16:0.55625 
0.5 1:5 2:2 3:80 4:40 5:0.21 6:3.95 7:80 8:941 9:402 10:124.14925 11:80 12:151 13:86 14:119 15:0 16:0.65 
0.5 1:5 2:2 3:80 4:40 5:0.075 6:4.625 7:80 8:1085 9:456 10:83 11:80 12:160 13:86 14:83 15:0 16:0.875 
0.5 1:5 2:2 3:60 4:30 5:0.12 6:4.4 7:60 8:779 9:330 10:98.392857 11:60 12:119 13:66 14:84 15:0 16:0.8 
0.5 1:8 2:64 3:128 4:2 5:0.75 6:4.625 7:128 8:2196 9:1033 10:8 11:128 12:518 13:137 14:8 15:0 16:0 
0.5 1:5 2:2 3:160 4:80 5:0.3525 6:3.2375 7:160 8:1573 9:684 10:463 11:160 12:278 13:166 14:463 15:0 16:0.4125 
0.5 1:5 2:2 3:120 4:60 5:0.16 6:4.2 7:120 8:1489 9:630 10:109 11:120 12:229 13:126 14:101 15:0 16:0.73333333 
0.5 1:8 2:64 3:128 4:2 5:0.75 6:4.625 7:128 8:2196 9:1033 10:5 11:128 12:518 13:137 14:5 15:0 16:0 
0.5 1:5 2:2 3:60 4:30 5:0.24 6:3.8 7:60 8:683 9:294 10:94.1875 11:60 12:113 13:66 14:91 15:0 16:0.61666667 
0.5 1:8 2:64 3:128 4:2 5:0.75 6:4.625 7:128 8:2196 9:1033 10:10 11:128 12:518 13:137 14:10 15:0 16:0 
0.5 1:5 2:2 3:120 4:60 5:0.18 6:4.1 7:120 8:1457 9:618 10:151.42169 11:120 12:227 13:126 14:144 15:0 16:0.70833333 
0.5 1:6 2:2 3:60 4:30 5:0.35555556 6:3.8666667 7:60 8:690 9:299 10:74.522388 11:60 12:110 13:67 14:74 15:0 16:0.46666667 
0.5 1:10 2:4 3:40 4:10 5:0.8 6:3 7:40 8:415 9:211 10:14.263158 11:40 12:55 13:51 14:10 15:0 16:0 
0.5 1:5 2:2 3:60 4:30 5:0.24 6:3.8 7:60 8:683 9:294 10:88.350649 11:60 12:113 13:66 14:77 15:0 16:0.6 
0.5 1:5 2:2 3:80 4:40 5:0.18 6:4.1 7:80 8:973 9:414 10:100.7037 11:80 12:153 13:86 14:95 15:0 16:0.7 
0.5 1:30 2:15.6 3:78 4:5 5:0.82851325 6:25.371795 7:11 8:413 9:159 10:-128.61048 11:11 12:103 13:27 14:-220.20035 15:7.88 16:0.0050401679 
0.5 1:6 2:2 3:60 4:30 5:0.17777778 6:4.9333333 7:60 8:858 9:363 10:62.043478 11:60 12:118 13:67 14:57 15:0 16:0.73333333 
0.5 1:5 2:2 3:80 4:40 5:0.21 6:3.95 7:80 8:941 9:402 10:139.31579 11:80 12:151 13:86 14:118 15:0 16:0.65 
0.5 1:6 2:2 3:180 4:90 5:0.14814815 6:5.1111111 7:180 8:2646 9:1107 10:87.666667 11:180 12:346 13:187 14:82 15:0 16:0.77777778 
0.5 1:8 2:64 3:128 4:2 5:0.75 6:4.625 7:128 8:2196 9:1033 10:10 11:128 12:518 13:137 14:10 15:0 16:0 
0.5 1:5 2:2 3:160 4:80 5:0.315 6:3.425 7:160 8:1653 9:714 10:469.0625 11:160 12:283 13:166 14:450 15:0 16:0.475 
0.5 1:6 2:2 3:180 4:90 5:0.16296296 6:5.0222222 7:180 8:2604 9:1091 10:139.75281 11:180 12:344 13:187 14:132 15:0 16:0.75555556 
0.5 1:8 2:64 3:128 4:2 5:0.75 6:4.625 7:128 8:2196 9:1033 10:9 11:128 12:518 13:137 14:9 15:0 16:0 
0.5 1:5 2:2 3:80 4:40 5:0.195 6:4.025 7:80 8:957 9:408 10:105.14865 11:80 12:152 13:86 14:103 15:0 16:0.675 
0.5 1:5 2:2 3:80 4:40 5:0.12 6:4.4 7:80 8:1037 9:438 10:102.13043 11:80 12:157 13:86 14:95 15:0 16:0.8 
0.5 1:6 2:2 3:60 4:30 5:0.4 6:3.6 7:60 8:648 9:283 10:65.913043 11:60 12:108 13:67 14:53 15:0 16:0.4 
0.5 1:5 2:2 3:120 4:60 5:0.23 6:3.85 7:120 8:1377 9:588 10:167.16667 11:120 12:222 13:126 14:160 15:0 16:0.625 
0.5 1:5 2:2 3:80 4:40 5:0.15 6:4.25 7:80 8:1005 9:426 10:106.69136 11:80 12:155 13:86 14:98 15:0 16:0.75 
0.5 1:8 2:64 3:128 4:2 5:0.75 6:4.625 7:128 8:2196 9:1033 10:10 11:128 12:518 13:137 14:10 15:0 16:0 
0.5 1:5 2:2 3:80 4:40 5:0.135 6:4.325 7:80 8:1021 9:432 10:88.810526 11:80 12:156 13:86 14:83 15:0 16:0.775 
0.5 1:8 2:64 3:128 4:2 5:0.75 6:4.625 7:128 8:2196 9:1033 10:6 11:128 12:518 13:137 14:6 15:0 16:0 
0.5 1:5 2:2 3:80 4:40 5:0.165 6:4.175 7:80 8:989 9:420 10:91 11:80 12:154 13:86 14:91 15:0 16:0.725 
0.5 1:6 2:2 3:180 4:90 5:0.23703704 6:4.5777778 7:180 8:2394 9:1011 10:173.22449 11:180 12:334 13:187 14:167 15:0 16:0.64444444 
0.5 1:8 2:64 3:128 4:2 5:0.75 6:4.625 7:128 8:2196 9:1033 10:10 11:128 12:518 13:137 14:10 15:0 16:0 
0.5 1:5 2:2 3:80 4:40 5:0.21 6:3.95 7:80 8:941 9:402 10:124.43478 11:80 12:151 13:86 14:117 15:0 16:0.65 
0.5 1:8 2:64 3:128 4:2 5:0.75 6:4.625 7:128 8:2196 9:1033 10:9 11:128 12:518 13:137 14:9 15:0 16:0 
0.5 1:5 2:2 3:120 4:60 5:0.14 6:4.3 7:120 8:1521 9:642 10:168 11:120 12:231 13:126 14:168 15:0 16:0.775 
0.5 1:5 2:2 3:80 4:40 5:0.33 6:3.35 7:80 8:813 9:354 10:107.16216 11:80 12:143 13:86 14:92 15:0 16:0.45 
0.5 1:30 2:9.6 3:48 4:5 5:0.83766821 6:23.6875 7:8 8:315 9:112 10:59177.648 11:8 12:83 13:24 14:-49.585105 15:7.13 16:0.0028175167 
0.5 1:5 2:2 3:120 4:60 5:0.22 6:3.9 7:120 8:1393 9:594 10:140.48193 11:120 12:223 13:126 14:128 15:0 16:0.63333333 
0.5 1:5 2:2 3:120 4:60 5:0.08 6:4.6 7:120 8:1617 9:678 10:108 11:120 12:237 13:126 14:108 15:0 16:0.86666667 
0.5 1:8 2:64 3:128 4:2 5:0.75 6:4.625 7:128 8:2196 9:1033 10:10 11:128 12:518 13:137 14:10 15:0 16:0 
0.5 1:8 2:64 3:128 4:2 5:0.75 6:4.625 7:128 8:2196 9:1033 10:7 11:128 12:518 13:137 14:7 15:0 16:0 
0.5 1:6 2:2 3:60 4:30 5:0.15555556 6:5.0666667 7:60 8:879 9:371 10:55 11:60 12:119 13:67 14:55 15:0 16:0.78333333 
0.5 1:6 2:2 3:60 4:30 5:0.22222222 6:4.6666667 7:60 8:816 9:347 10:79.194805 11:60 12:116 13:67 14:64 15:0 16:0.66666667 
0.5 1:5 2:2 3:60 4:30 5:0.24 6:3.8 7:60 8:683 9:294 10:76.428571 11:60 12:113 13:66 14:64 15:0 16:0.6 
0.5 1:5 2:2 3:60 4:30 5:0.18 6:4.1 7:60 8:731 9:312 10:101.67778 11:60 12:116 13:66 14:84 15:0 16:0.7 
0.5 1:8 2:64 3:128 4:2 5:0.75 6:4.625 7:128 8:2196 9:1033 10:6 11:128 12:518 13:137 14:6 15:0 16:0 
0.5 1:5 2:2 3:120 4:60 5:0.15 6:4.25 7:120 8:1505 9:636 10:158.46667 11:120 12:230 13:126 14:157 15:0 16:0.75 
0.5 1:8 2:64 3:128 4:2 5:0.75 6:4.625 7:128 8:2196 9:1033 10:9 11:128 12:518 13:137 14:9 15:0 16:0 
0.5 1:6 2:2 3:60 4:30 5:0.2 6:4.8 7:60 8:837 9:355 10:77.090909 11:60 12:117 13:67 14:73 15:0 16:0.71666667 
0.5 1:5 2:2 3:80 4:40 5:0.345 6:3.275 7:80 8:797 9:348 10:146.94737 11:80 12:142 13:86 14:145 15:0 16:0.425 
0.5 1:8 2:64 3:128 4:2 5:0.75 6:4.625 7:128 8:2196 9:1033 10:6 11:128 12:518 13:137 14:6 15:0 16:0 
0.5 1:8 2:64 3:128 4:2 5:0.75 6:4.625 7:128 8:2196 9:1033 10:10 11:128 12:518 13:137 14:10 15:0 16:0 
0.5 1:5 2:2 3:120 4:60 5:0.19 6:4.05 7:120 8:1441 9:612 10:180 11:120 12:226 13:126 14:180 15:0 16:0.68333333 
0.5 1:5 2:2 3:60 4:30 5:0.2 6:4 7:60 8:715 9:306 10:114 11:60 12:115 13:66 14:96 15:0 16:0.66666667 
0.5 1:6 2:2 3:60 4:30 5:0.22222222 6:4.6666667 7:60 8:816 9:347 10:62.377778 11:60 12:116 13:67 14:57 15:0 16:0.66666667 
0.5 1:6 2:2 3:60 4:30 5:0.11111111 6:5.3333333 7:60 8:921 9:387 10:90 11:60 12:121 13:67 14:90 15:0 16:0.83333333 
0.5 1:8 2:64 3:128 4:2 5:0.75 6:4.625 7:128 8:2196 9:1033 10:9 11:128 12:518 13:137 14:9 15:0 16:0 
0.5 1:5 2:2 3:120 4:60 5:0.15 6:4.25 7:120 8:1505 9:636 10:138 11:120 12:230 13:126 14:138 15:0 16:0.75 
0.5 1:5 2:2 3:80 4:40 5:0.165 6:4.175 7:80 8:989 9:420 10:109 11:80 12:154 13:86 14:101 15:0 16:0.725 
0.5 1:5 2:2 3:60 4:30 5:0.18 6:4.1 7:60 8:731 9:312 10:66.830508 11:60 12:116 13:66 14:62 15:0 16:0.7 
0.5 1:5 2:2 3:80 4:40 5:0.12 6:4.4 7:80 8:1037 9:438 10:99.626506 11:80 12:157 13:86 14:93 15:0 16:0.8 
0.5 1:6 2:2 3:60 4:30 5:0.11111111 6:5.3333333 7:60 8:921 9:387 10:87.936709 11:60 12:121 13:67 14:83 15:0 16:0.83333333 
0.5 1:5 2:2 3:80 4:40 5:0.045 6:4.775 7:80 8:1117 9:468 10:83 11:80 12:162 13:86 14:83 15:0 16:0.925 
0.5 1:5 2:2 3:80 4:40 5:0.165 6:4.175 7:80 8:989 9:420 10:103.64103 11:80 12:154 13:86 14:91 15:0 16:0.725 
0.5 1:5 2:2 3:120 4:60 5:0.1 6:4.5 7:120 8:1585 9:666 10:130 11:120 12:235 13:126 14:130 15:0 16:0.83333333 
0.5 1:5 2:2 3:60 4:30 5:0.14 6:4.3 7:60 8:763 9:324 10:78.906977 11:60 12:118 13:66 14:65 15:0 16:0.76666667 
0.5 1:5 2:2 3:60 4:30 5:0.16 6:4.2 7:60 8:747 9:318 10:62.377778 11:60 12:117 13:66 14:57 15:0 16:0.73333333 
0.5 1:5 2:2 3:80 4:40 5:0.105 6:4.475 7:80 8:1053 9:444 10:89.985507 11:80 12:158 13:86 14:89 15:0 16:0.825 
0.5 1:6 2:2 3:180 4:90 5:0.14814815 6:5.1111111 7:180 8:2646 9:1107 10:175.82609 11:180 12:346 13:187 14:175 15:0 16:0.77777778 
0.5 1:6 2:2 3:60 4:30 5:0.33333333 6:4 7:60 8:711 9:307 10:84.597403 11:60 12:111 13:67 14:77 15:0 16:0.5 
0.5 1:10 2:4 3:40 4:10 5:0.8 6:3 7:40 8:415 9:211 10:15 11:40 12:55 13:51 14:10 15:0 16:0.066666667 
0.5 1:5 2:2 3:160 4:80 5:0.2925 6:3.5375 7:160 8:1701 9:732 10:538.34682 11:160 12:286 13:166 14:529 15:0 16:0.51875 
0.5 1:5 2:2 3:160 4:80 5:0.27 6:3.65 7:160 8:1749 9:750 10:465.29268 11:160 12:289 13:166 14:450 15:0 16:0.55 
0.5 1:5 2:2 3:120 4:60 5:0.14 6:4.3 7:120 8:1521 9:642 10:148 11:120 12:231 13:126 14:148 15:0 16:0.76666667 
0.5 1:5 2:2 3:80 4:40 5:0.24 6:3.8 7:80 8:909 9:390 10:128.06154 11:80 12:149 13:86 14:127 15:0 16:0.6 
0.5 1:5 2:2 3:60 4:30 5:0.38 6:3.1 7:60 8:571 9:252 10:99.136364 11:60 12:106 13:66 14:93 15:0 16:0.36666667 
0.5 1:5 2:2 3:80 4:40 5:0.09 6:4.55 7:80 8:1069 9:450 10:100.26667 11:80 12:159 13:86 14:80 15:0 16:0.85 
0.5 1:5 2:2 3:80 4:40 5:0.18 6:4.1 7:80 8:973 9:414 10:108.6 11:80 12:153 13:86 14:104 15:0 16:0.7 
0.5 1:5 2:2 3:120 4:60 5:0.15 6:4.25 7:120 8:1505 9:636 10:189 11:120 12:230 13:126 14:189 15:0 16:0.75 
0.4111193618370269 1:5 2:2 3:80 4:40 5:0.135 6:4.325 7:80 8:1021 9:432 10:137 11:80 12:156 13:86 14:137 15:0 16:0.775 
0.5 1:30 2:14.4 3:72 4:5 5:0.83171872 6:23.944444 7:10 8:445 9:147 10:131.8811 11:10 12:144 13:26 14:38.1959 15:10.1 16:0.0050451062 
0.3327744248546203 1:10 2:4 3:40 4:10 5:0.8 6:3 7:40 8:415 9:211 10:13.555556 11:40 12:55 13:51 14:10 15:0 16:0 
0.5 1:10 2:4 3:40 4:10 5:0.8 6:3 7:40 8:415 9:211 10:6.125 11:40 12:55 13:51 14:5 15:0 16:0 
0.5 1:8 2:64 3:128 4:2 5:0.75 6:4.625 7:128 8:2196 9:1033 10:4 11:128 12:518 13:137 14:4 15:0 16:0 
0.5 1:5 2:2 3:80 4:40 5:0.24 6:3.8 7:80 8:909 9:390 10:96.658228 11:80 12:149 13:86 14:88 15:0 16:0.6125 
0.5 1:5 2:2 3:60 4:30 5:0.14 6:4.3 7:60 8:763 9:324 10:80.909091 11:60 12:118 13:66 14:74 15:0 16:0.76666667 
0.5 1:8 2:64 3:128 4:2 5:0.75 6:4.625 7:128 8:2196 9:1033 10:9 11:128 12:518 13:137 14:9 15:0 16:0 
0.5 1:6 2:2 3:180 4:90 5:0.17777778 6:4.9333333 7:180 8:2562 9:1075 10:171.09091 11:180 12:342 13:187 14:161 15:0 16:0.73333333 
0.5 1:30 2:14.4 3:72 4:5 5:0.83114686 6:25.138889 7:8 8:328 9:118 10:8.8992818 11:8 12:88 13:24 14:5.3860044 15:6.73 16:0.004224207 
0.5 1:6 2:2 3:60 4:30 5:0.26666667 6:4.4 7:60 8:774 9:331 10:75.681818 11:60 12:114 13:67 14:66 15:0 16:0.6 
0.5 1:5 2:2 3:80 4:40 5:0.15 6:4.25 7:80 8:1005 9:426 10:89.075758 11:80 12:155 13:86 14:79 15:0 16:0.75 
0.5 1:5 2:2 3:60 4:30 5:0.06 6:4.7 7:60 8:827 9:348 10:65.6 11:60 12:122 13:66 14:48 15:0 16:0.9 
0.5 1:5 2:2 3:160 4:80 5:0.24 6:3.8 7:160 8:1813 9:774 10:505 11:160 12:293 13:166 14:505 15:0 16:0.6 
0.5 1:5 2:2 3:80 4:40 5:0.165 6:4.175 7:80 8:989 9:420 10:149 11:80 12:154 13:86 14:149 15:0 16:0.75 
0.5 1:5 2:2 3:80 4:40 5:0.33 6:3.35 7:80 8:813 9:354 10:156.04 11:80 12:143 13:86 14:138 15:0 16:0.45 
0.5 1:5 2:2 3:60 4:30 5:0.1 6:4.5 7:60 8:795 9:336 10:92 11:60 12:120 13:66 14:92 15:0 16:0.83333333 
0.5 1:8 2:64 3:128 4:2 5:0.75 6:4.625 7:128 8:2196 9:1033 10:9 11:128 12:518 13:137 14:9 15:0 16:0 
-0.01102040460871481 1:40 2:3.375 3:27 4:8 5:0.84463761 6:28.925926 7:27 8:2467 9:913 10:-188.87046 11:27 12:526 13:68 14:-386.61 15:10.52 16:0.0061870978 
-0.5 1:5 2:2 3:120 4:60 5:0.1 6:4.5 7:120 8:1585 9:666 10:125.78571 11:120 12:235 13:126 14:120 15:0 16:0.83333333 
-0.4217332637937737 1:5 2:2 3:60 4:30 5:0.12 6:4.4 7:60 8:779 9:330 10:45.528302 11:60 12:119 13:66 14:44 15:0 16:0.8 
-0.5 1:6 2:2 3:60 4:30 5:0.22222222 6:4.6666667 7:60 8:816 9:347 10:80.066667 11:60 12:116 13:67 14:67 15:0 16:0.66666667 
-0.5 1:5 2:2 3:80 4:40 5:0.225 6:3.875 7:80 8:925 9:396 10:118.71429 11:80 12:150 13:86 14:108 15:0 16:0.625 
-0.5 1:5 2:2 3:120 4:60 5:0.16 6:4.2 7:120 8:1489 9:630 10:118.09091 11:120 12:229 13:126 14:111 15:0 16:0.73333333 
-0.01545778661907422 1:50 2:2.4 3:24 4:10 5:0.84275644 6:33.25 7:24 8:2534 9:995 10:-300.21568 11:24 12:304 13:75 14:-348.71 15:5.77 16:0.0071759259 
-0.5 1:5 2:2 3:80 4:40 5:0.195 6:4.025 7:80 8:957 9:408 10:135.31707 11:80 12:152 13:86 14:134 15:0 16:0.675 
-0.009808095049788891 1:80 2:2.6 3:26 4:10 5:0.84610959 6:53.653846 7:26 8:4165 9:1704 10:-1095.5462 11:26 12:347 13:107 14:-1129.95 15:18.59 16:0.0029585799 
-0.004050169289812111 1:40 2:3.875 3:31 4:8 5:0.84432912 6:29.516129 7:31 8:2812 9:1063 10:-312.55578 11:31 12:579 13:72 14:-436.65 15:8.29 16:0.007086999 
-0.02117592587559624 1:50 2:2.6 3:26 4:10 5:0.84353515 6:36.384615 7:26 8:2857 9:1119 10:-275.25925 11:26 12:378 13:77 14:-302.56 15:8.53 16:0.0025641026 
-0.01515043651433289 1:40 2:3.625 3:29 4:8 5:0.84656895 6:28.758621 7:29 8:2639 9:985 10:-239.71473 11:29 12:560 13:70 14:-327.68603 15:11.16 16:0.0011494253 
-0.01213516096962525 1:50 2:8 3:56 4:7 5:0.84561245 6:37.178571 7:56 8:6015 9:2283 10:-569.89959 11:56 12:1386 13:107 14:-750.91 15:13.59 16:0.0040651098 
-0.009477558786784574 1:80 2:2.3 3:23 4:10 5:0.83981758 6:53.913043 7:23 8:3706 9:1507 10:-1160.8939 11:23 12:287 13:104 14:-1352.24 15:23.38 16:0.0022883295 
-0.4868771391119472 1:5 2:2 3:60 4:30 5:0.38 6:3.1 7:60 8:571 9:252 10:115.19277 11:60 12:106 13:66 14:111 15:0 16:0.36666667 
-0.5 1:8 2:64 3:128 4:2 5:0.75 6:4.625 7:128 8:2196 9:1033 10:10 11:128 12:518 13:137 14:10 15:0 16:0 
-0.01296587575040542 1:50 2:3.625 3:29 4:8 5:0.84476585 6:37.344828 7:29 8:3189 9:1234 10:-359.71603 11:29 12:565 13:80 14:-422.49 15:11.66 16:0.0025153206 
-0.02143517262897016 1:50 2:9.7142857 3:68 4:7 5:0.85122021 6:36.426471 7:68 8:7219 9:2690 10:-697.19137 11:68 12:1800 13:119 14:-913.37 15:14.4 16:0.0081667738 
-0.01923207547086679 1:5 2:2 3:160 4:80 5:0.285 6:3.575 7:160 8:1717 9:738 10:425.55556 11:160 12:287 13:166 14:405 15:0 16:0.525 
-0.4919243827614737 1:5 2:2 3:120 4:60 5:0.15 6:4.25 7:120 8:1505 9:636 10:124.25 11:120 12:230 13:126 14:122 15:0 16:0.75 
-0.01316866689189051 1:50 2:2.2 3:22 4:10 5:0.84195966 6:34.909091 7:22 8:2407 9:937 10:-503.96723 11:22 12:292 13:73 14:-727.29 15:13.68 16:0 
-0.01262234368468745 1:50 2:8.1428571 3:57 4:7 5:0.84341913 6:36.929825 7:57 8:5992 9:2321 10:-551.66814 11:57 12:1289 13:108 14:-728.96 15:11.95 16:0.0031252812 
-0.01930311873645163 1:50 2:3.75 3:30 4:8 5:0.83887 6:37.566667 7:30 8:3283 9:1293 10:-260.36966 11:30 12:543 13:81 14:-404.75 15:7.79 16:0.010434473 
-0.004548098933534724 1:50 2:3.625 3:29 4:8 5:0.84523737 6:35.655172 7:29 8:3095 9:1218 10:-379.0252 11:29 12:503 13:80 14:-482.25 15:11.26 16:0 
-0.5 1:5 2:2 3:80 4:40 5:0.09 6:4.55 7:80 8:1069 9:450 10:97.185714 11:80 12:159 13:86 14:86 15:0 16:0.85 
-0.01186960227375902 1:50 2:2 3:20 4:10 5:0.83882129 6:36.75 7:20 8:2260 9:872 10:-508.35256 11:20 12:270 13:71 14:-860.81411 15:16.02 16:0.0038461538 
-0.5 1:6 2:2 3:180 4:90 5:0.14814815 6:5.1111111 7:180 8:2646 9:1107 10:119.11765 11:180 12:346 13:187 14:112 15:0 16:0.77777778 
-0.4942611940689833 1:5 2:2 3:120 4:60 5:0.21 6:3.95 7:120 8:1409 9:600 10:164.42857 11:120 12:224 13:126 14:161 15:0 16:0.65833333 
-0.5 1:6 2:2 3:60 4:30 5:0.28888889 6:4.2666667 7:60 8:753 9:323 10:98.682353 11:60 12:113 13:67 14:84 15:0 16:0.56666667 
-0.5 1:5 2:2 3:80 4:40 5:0.15 6:4.25 7:80 8:1005 9:426 10:108.06818 11:80 12:155 13:86 14:95 15:0 16:0.75 
-0.003831730941636191 1:50 2:4.125 3:33 4:8 5:0.83618781 6:36.545455 7:33 8:3507 9:1413 10:-609.09237 11:33 12:534 13:84 14:-707.78 15:13.8 16:0.0073569382 
-0.02187133980219558 1:30 2:12.4 3:62 4:5 5:0.82503496 6:25.306452 7:85 8:8989 9:3462 10:-483.9869 11:85 12:8989 13:3462 14:-483.9869 15:8.91 16:0.0059518486 
-0.01291697602227604 1:40 2:3.5 3:28 4:8 5:0.84635348 6:28.285714 7:28 8:2456 9:948 10:-447.08758 11:28 12:447 13:69 14:-543.88 15:9.11 16:0.010977398 
-0.008451589962231446 1:80 2:2.5 3:25 4:10 5:0.84268931 6:54.88 7:25 8:4095 9:1675 10:-903.87826 11:25 12:331 13:106 14:-974.67 15:18.48 16:0.0067058824 
-0.0140898966642255 1:40 2:2.75 3:22 4:8 5:0.84691689 6:29.272727 7:22 8:2040 9:748 10:-374.63612 11:22 12:422 13:63 14:-590.43 15:9.12 16:0.015261209 
-0.5 1:5 2:2 3:80 4:40 5:0.105 6:4.475 7:80 8:1053 9:444 10:73.9 11:80 12:158 13:86 14:70 15:0 16:0.825 
-0.5 1:5 2:2 3:120 4:60 5:0.12 6:4.4 7:120 8:1553 9:654 10:134.07353 11:120 12:233 13:126 14:134 15:0 16:0.8 
-0.5 1:5 2:2 3:80 4:40 5:0.09 6:4.55 7:80 8:1069 9:450 10:129.78947 11:80 12:159 13:86 14:123 15:0 16:0.85 
-0.5 1:6 2:2 3:180 4:90 5:0.14074074 6:5.1555556 7:180 8:2667 9:1115 10:117.47887 11:180 12:347 13:187 14:107 15:0 16:0.78888889 
-0.5 1:5 2:2 3:80 4:40 5:0.195 6:4.025 7:80 8:957 9:408 10:128.56522 11:80 12:152 13:86 14:108 15:0 16:0.675 
-0.5 1:5 2:2 3:120 4:60 5:0.21 6:3.95 7:120 8:1409 9:600 10:134.66316 11:120 12:224 13:126 14:119 15:0 16:0.65833333 
-0.3456909195653521 1:5 2:2 3:60 4:30 5:0.06 6:4.7 7:60 8:827 9:348 10:57 11:60 12:122 13:66 14:57 15:0 16:0.9 
-0.5 1:6 2:2 3:60 4:30 5:0.17777778 6:4.9333333 7:60 8:858 9:363 10:82.525 11:60 12:118 13:67 14:64 15:0 16:0.73333333 
-0.4598068270604498 1:5 2:2 3:120 4:60 5:0.2 6:4 7:120 8:1425 9:606 10:137 11:120 12:225 13:126 14:137 15:0 16:0.66666667 
-0.5 1:5 2:2 3:120 4:60 5:0.15 6:4.25 7:120 8:1505 9:636 10:115 11:120 12:230 13:126 14:115 15:0 16:0.75 
-0.02092397435761629 1:50 2:2.9 3:29 4:10 5:0.84436298 6:34.137931 7:29 8:3045 9:1218 10:-717.52017 11:29 12:376 13:80 14:-998.57 15:17.96 16:0.012858973 
-0.05635574916978034 1:6 2:2 3:180 4:90 5:0.16296296 6:5.0222222 7:180 8:2604 9:1091 10:151.42169 11:180 12:344 13:187 14:144 15:0 16:0.76111111 
-0.0117937054454596 1:40 2:3.875 3:31 4:8 5:0.84654888 6:30 7:31 8:2823 9:1065 10:-293.31896 11:31 12:587 13:72 14:-539.5 15:8.95 16:0.0016129032 
-0.003687197588026271 1:50 2:2.5 3:25 4:10 5:0.84778467 6:33.52 7:25 8:2617 9:1031 10:-507.6994 11:25 12:323 13:76 14:-552.53 15:9.96 16:0.0082105263 
-0.003811471913472562 1:50 2:2.4 3:24 4:10 5:0.84264518 6:35.083333 7:24 8:2594 9:1018 10:-619.02511 11:24 12:318 13:75 14:-883.28 15:15 16:0.0024509804 
-0.003238368804925261 1:50 2:2.4 3:24 4:10 5:0.84038027 6:33.833333 7:24 8:2531 9:1012 10:-583.63354 11:24 12:274 13:75 14:-653.89 15:10.99 16:0.0077419857 
-0.02103249476486668 1:50 2:10 3:70 4:7 5:0.8348009 6:39.985714 7:70 8:7744 9:3045 10:-383.21306 11:70 12:1619 13:121 14:-440.7 15:10.28 16:0.006004534 
-0.5 1:5 2:2 3:80 4:40 5:0.15 6:4.25 7:80 8:1005 9:426 10:98.375 11:80 12:155 13:86 14:89 15:0 16:0.75 
-0.5 1:5 2:2 3:80 4:40 5:0.09 6:4.55 7:80 8:1069 9:450 10:121.1978 11:80 12:159 13:86 14:107 15:0 16:0.85 
-0.5 1:6 2:2 3:60 4:30 5:0.15555556 6:5.0666667 7:60 8:879 9:371 10:61.107692 11:60 12:119 13:67 14:50 15:0 16:0.76666667 
-0.02203381175643687 1:50 2:8.7142857 3:61 4:7 5:0.84802135 6:36.983607 7:61 8:6603 9:2469 10:-726.61201 11:61 12:1612 13:112 14:-923.35 15:16.46 16:0.0071981755 
-0.02182082276782538 1:50 2:11.714286 3:82 4:7 5:0.84403583 6:37.768293 7:82 8:8829 9:3347 10:-566.68015 11:82 12:2124 13:133 14:-655.88 15:12.12 16:0.0055341956 
-0.5 1:5 2:2 3:80 4:40 5:0.165 6:4.175 7:80 8:989 9:420 10:85.230769 11:80 12:154 13:86 14:79 15:0 16:0.75 
-0.5 1:8 2:64 3:128 4:2 5:0.75 6:4.625 7:128 8:2196 9:1033 10:10 11:128 12:518 13:137 14:10 15:0 16:0 
-0.3807961485188034 1:5 2:2 3:160 4:80 5:0.15 6:4.25 7:160 8:2005 9:846 10:259.76471 11:160 12:305 13:166 14:247 15:0 16:0.75 
-0.001758408541296661 1:50 2:3.625 3:29 4:8 5:0.84522888 6:35.206897 7:29 8:3087 9:1225 10:-593.06841 11:29 12:481 13:80 14:-731.93 15:14.61 16:0.0027630416 
-0.5 1:5 2:2 3:60 4:30 5:0.14 6:4.3 7:60 8:763 9:324 10:84.861111 11:60 12:118 13:66 14:80 15:0 16:0.76666667 
-0.01710589911140736 1:50 2:4 3:32 4:8 5:0.83813648 6:37.96875 7:32 8:3493 9:1370 10:-366.1406 11:32 12:602 13:83 14:-412.55 15:9.17 16:0.0080729167 
-0.005815192100697197 1:40 2:3.5 3:28 4:8 5:0.84454961 6:28.428571 7:28 8:2454 9:942 10:-428.39019 11:28 12:457 13:69 14:-708.48 15:12.63 16:0.011265461 
-0.5 1:5 2:2 3:80 4:40 5:0.135 6:4.325 7:80 8:1021 9:432 10:123 11:80 12:156 13:86 14:123 15:0 16:0.775 
-0.002580514727344523 1:50 2:3.5 3:28 4:8 5:0.84746706 6:35.714286 7:28 8:3002 9:1176 10:-506.83317 11:28 12:491 13:79 14:-718.93 15:14.08 16:0.0032533256 
-0.2465343654769523 1:5 2:2 3:120 4:60 5:0.15 6:4.25 7:120 8:1505 9:636 10:113 11:120 12:230 13:126 14:113 15:0 16:0.75833333 
-0.01051233419867691 1:30 2:9.8 3:49 4:5 5:0.82865439 6:24.77551 7:10 8:445 9:147 10:131.8811 11:10 12:445 13:147 14:131.8811 15:8.07 16:0.0081582528 
-0.5 1:10 2:4 3:40 4:10 5:0.8 6:3 7:40 8:415 9:211 10:11.4 11:40 12:55 13:51 14:9 15:0 16:0.066666667 
-0.01233823766330416 1:40 2:3.125 3:25 4:8 5:0.84780287 6:28.52 7:25 8:2188 9:856 10:-350.90144 11:25 12:360 13:66 14:-497.99 15:10.79 16:0.004 
-0.2310710471037272 1:5 2:2 3:160 4:80 5:0.45 6:2.75 7:160 8:1365 9:606 10:594.7644 11:160 12:265 13:166 14:550 15:0 16:0.25 
-0.01013321417408969 1:80 2:2.5 3:25 4:10 5:0.84216222 6:52.88 7:25 8:4105 9:1707 10:-1231.2335 11:25 12:282 13:106 14:-1426.96 15:25.53 16:0.0044444444 
-0.01612623250699935 1:50 2:6.8571429 3:48 4:7 5:0.84152663 6:38.145833 7:48 8:5249 9:2009 10:-611.75172 11:48 12:1156 13:99 14:-667.44 15:13.43 16:0.0090323535 
-0.5 1:8 2:64 3:128 4:2 5:0.75 6:4.625 7:128 8:2196 9:1033 10:10 11:128 12:518 13:137 14:10 15:0 16:0 
-0.01182985182187674 1:80 2:2.3 3:23 4:10 5:0.84077588 6:57.391304 7:23 8:3868 9:1562 10:-1158.0192 11:23 12:324 13:104 14:-1313.38 15:21.7 16:0.0094202899 
-0.0112340816133058 1:80 2:2.5 3:25 4:10 5:0.84777384 6:53.64 7:25 8:4047 9:1657 10:-1262.7715 11:25 12:319 13:106 14:-1346.98 15:22.95 16:0.0066666667 
-0.004626619559941048 1:5 2:2 3:160 4:80 5:0.375 6:3.125 7:160 8:1525 9:666 10:395.67516 11:160 12:275 13:166 14:384 15:0 16:0.38125 
-0.02037964062153441 1:50 2:9.5714286 3:67 4:7 5:0.84495843 6:36.597015 7:67 8:7050 9:2712 10:-710.01978 11:67 12:1585 13:118 14:-882.21 15:14.44 16:0.0038910765 
-0.1710314504259112 1:5 2:2 3:160 4:80 5:0.3225 6:3.3875 7:160 8:1637 9:708 10:445 11:160 12:282 13:166 14:445 15:0 16:0.4625 
-0.005642968319503894 1:40 2:3.25 3:26 4:8 5:0.84286262 6:30.692308 7:26 8:2448 9:923 10:-378.12866 11:26 12:488 13:67 14:-494.36 15:8.25 16:0.0019230769 
-0.5 1:5 2:2 3:60 4:30 5:0.14 6:4.3 7:60 8:763 9:324 10:98 11:60 12:118 13:66 14:98 15:0 16:0.76666667 
-0.003939323832072961 1:80 2:2.4 3:24 4:10 5:0.84269531 6:55.125 7:24 8:3871 9:1576 10:-1225.0745 11:24 12:318 13:105 14:-1443.79 15:22.52 16:0.0041666667 
-0.01254136548404749 1:80 2:2.3 3:23 4:10 5:0.84457174 6:53.695652 7:23 8:3769 9:1546 10:-1085.4471 11:23 12:267 13:104 14:-1105.39 15:20.56 16:0.0047314578 
-0.4287723940313404 1:5 2:2 3:160 4:80 5:0.2475 6:3.7625 7:160 8:1797 9:768 10:510.50299 11:160 12:292 13:166 14:486 15:0 16:0.5875 
-0.4058640269726175 1:5 2:2 3:60 4:30 5:0.24 6:3.8 7:60 8:683 9:294 10:61.9375 11:60 12:113 13:66 14:53 15:0 16:0.6 
-0.02114152022990151 1:50 2:6.7142857 3:47 4:7 5:0.85803783 6:34.446809 7:47 8:4680 9:1813 10:-706.35061 11:47 12:973 13:98 14:-848.76 15:16.21 16:0.0085562145 
-0.005903625133970691 1:50 2:3.625 3:29 4:8 5:0.84359095 6:35.965517 7:29 8:3097 9:1222 10:-619.6913 11:29 12:498 13:80 14:-894.21 15:15.1 16:0.0046373365 
-0.01367237594362069 1:80 2:2.5 3:25 4:10 5:0.84026208 6:52.6 7:25 8:3983 9:1661 10:-1058.9752 11:25 12:263 13:106 14:-1070.92 15:20.61 16:0.008 
-0.5 1:5 2:2 3:80 4:40 5:0.195 6:4.025 7:80 8:957 9:408 10:75.606061 11:80 12:152 13:86 14:72 15:0 16:0.675 
-0.003798997981746186 1:6 2:2 3:180 4:90 5:0.15555556 6:5.0666667 7:180 8:2625 9:1099 10:103 11:180 12:345 13:187 14:103 15:0 16:0.77777778 
-0.5 1:6 2:2 3:180 4:90 5:0.14814815 6:5.1111111 7:180 8:2646 9:1107 10:121 11:180 12:346 13:187 14:121 15:0 16:0.77777778 
-0.02083780333086177 1:50 2:6.2857143 3:44 4:7 5:0.84501981 6:37.75 7:44 8:4814 9:1837 10:-531.64692 11:44 12:1053 13:95 14:-665.82 15:13.17 16:0.0031655844 
-0.5 1:5 2:2 3:120 4:60 5:0.08 6:4.6 7:120 8:1617 9:678 10:131 11:120 12:237 13:126 14:131 15:0 16:0.86666667 
-0.02037466772750773 1:50 2:8.2857143 3:58 4:7 5:0.83806286 6:38.5 7:58 8:6391 9:2451 10:-414.36132 11:58 12:1430 13:109 14:-569.15 15:12.11 16:0.0031172088 
-0.5 1:6 2:2 3:180 4:90 5:0.17037037 6:4.9777778 7:180 8:2583 9:1083 10:148 11:180 12:343 13:187 14:148 15:0 16:0.74444444 
-0.02888967143913407 1:5 2:2 3:160 4:80 5:0.2775 6:3.6125 7:160 8:1733 9:744 10:481 11:160 12:288 13:166 14:481 15:0 16:0.5375 
-0.01422205683721683 1:50 2:7 3:49 4:7 5:0.84526815 6:37.22449 7:49 8:5222 9:1999 10:-612.7521 11:49 12:1147 13:100 14:-775.57 15:13.6 16:0.0044884621 
-0.009577754976573602 1:40 2:3.75 3:30 4:8 5:0.84630218 6:27.7 7:30 8:2537 9:992 10:-352.16612 11:30 12:452 13:71 14:-498.97 15:9.04 16:0.0064814815 
-0.5 1:6 2:2 3:180 4:90 5:0.088888889 6:5.4666667 7:180 8:2814 9:1171 10:123.20879 11:180 12:354 13:187 14:122 15:0 16:0.87222222 
-0.06802957929470965 1:6 2:2 3:180 4:90 5:0.34074074 6:3.9555556 7:180 8:2100 9:899 10:150.76812 11:180 12:320 13:187 14:137 15:0 16:0.48888889 
-0.5 1:6 2:2 3:60 4:30 5:0.33333333 6:4 7:60 8:711 9:307 10:114 11:60 12:111 13:67 14:96 15:0 16:0.5 
-0.1291209361353109 1:5 2:2 3:160 4:80 5:0.1875 6:4.0625 7:160 8:1925 9:816 10:366.79439 11:160 12:300 13:166 14:366 15:0 16:0.6875 
-0.5 1:8 2:64 3:128 4:2 5:0.75 6:4.625 7:128 8:2196 9:1033 10:10 11:128 12:518 13:137 14:10 15:0 16:0 
-0.01840686379297218 1:50 2:2.7 3:27 4:10 5:0.83264903 6:34.777778 7:27 8:2877 9:1147 10:-386.00693 11:27 12:349 13:78 14:-433.18 15:8.9 16:0.0026455026 
-0.01871093128039208 1:50 2:9.4285714 3:66 4:7 5:0.84461337 6:37.242424 7:66 8:6941 9:2703 10:-565.07068 11:66 12:1492 13:117 14:-685.61 15:13.01 16:0.0024224866 
-0.002364238897129767 1:50 2:2.6 3:26 4:10 5:0.84290193 6:32.923077 7:26 8:2712 9:1082 10:-464.75121 11:26 12:311 13:77 14:-540.74 15:12.3 16:0.011188811 
-0.004006938142291194 1:80 2:2.5 3:25 4:10 5:0.8504135 6:51.8 7:25 8:3973 9:1639 10:-1200.8554 11:25 12:292 13:106 14:-1251.17 15:21.34 16:0.005 
-0.5 1:5 2:2 3:80 4:40 5:0.135 6:4.325 7:80 8:1021 9:432 10:92.880952 11:80 12:156 13:86 14:77 15:0 16:0.775 
-0.0115474356438626 1:50 2:2.5 3:25 4:10 5:0.84315057 6:34.68 7:25 8:2718 9:1055 10:-361.39103 11:25 12:367 13:76 14:-478.17 15:11.31 16:0.0022222222 
-0.5 1:8 2:64 3:128 4:2 5:0.75 6:4.625 7:128 8:2196 9:1033 10:10 11:128 12:518 13:137 14:10 15:0 16:0 
-0.004597695346486167 1:50 2:3.5 3:28 4:8 5:0.84293611 6:37.178571 7:28 8:3066 9:1182 10:-495.03604 11:28 12:543 13:79 14:-626.27 15:15.02 16:0.0059267241 
-0.01716526190049483 1:40 2:3.5 3:28 4:8 5:0.8390722 6:29.428571 7:28 8:2533 9:985 10:-262.68914 11:28 12:455 13:69 14:-312.10777 15:8.95 16:0.0023809524 
-0.5 1:5 2:2 3:120 4:60 5:0.11 6:4.45 7:120 8:1569 9:660 10:163.57143 11:120 12:234 13:126 14:155 15:0 16:0.81666667 
-0.5 1:5 2:2 3:80 4:40 5:0.15 6:4.25 7:80 8:1005 9:426 10:80.790323 11:80 12:155 13:86 14:73 15:0 16:0.75 
-0.5 1:5 2:2 3:80 4:40 5:0.075 6:4.625 7:80 8:1085 9:456 10:70.458333 11:80 12:160 13:86 14:64 15:0 16:0.875 
-0.3062947938639329 1:5 2:2 3:120 4:60 5:0.04 6:4.8 7:120 8:1681 9:702 10:90.5625 11:120 12:241 13:126 14:81 15:0 16:0.93333333 
-0.4271346061999352 1:5 2:2 3:120 4:60 5:0.2 6:4 7:120 8:1425 9:606 10:179 11:120 12:225 13:126 14:179 15:0 16:0.66666667 
-0.009808580578370339 1:40 2:2.75 3:22 4:8 5:0.85090271 6:27.090909 7:22 8:1928 9:714 10:-306.61627 11:22 12:378 13:63 14:-506.53 15:9.2 16:0.0018939394 
-0.007124847595242379 1:50 2:2.3 3:23 4:10 5:0.83874466 6:35.956522 7:23 8:2551 9:990 10:-502.8291 11:23 12:324 13:74 14:-619.53 15:10.7 16:0.0087792642 
-0.01559302621864245 1:80 2:2.5 3:25 4:10 5:0.84769716 6:51.52 7:25 8:3916 9:1612 10:-812.98875 11:25 12:290 13:106 14:-829.41 15:14.75 16:0.0053333333 
-0.5 1:5 2:2 3:80 4:40 5:0.195 6:4.025 7:80 8:957 9:408 10:109.65 11:80 12:152 13:86 14:97 15:0 16:0.675 
-0.007990409008463206 1:50 2:2.6 3:26 4:10 5:0.84077104 6:33.846154 7:26 8:2778 9:1125 10:-631.54765 11:26 12:289 13:77 14:-709.07 15:11.81 16:0.0038461538 
-0.005321751307315319 1:5 2:2 3:160 4:80 5:0.4725 6:2.6375 7:160 8:1317 9:588 10:430.52941 11:160 12:262 13:166 14:403 15:0 16:0.2125 
-0.0205941785910761 1:50 2:3.625 3:29 4:8 5:0.84716841 6:36.310345 7:29 8:3150 9:1213 10:-802.45011 11:29 12:568 13:80 14:-956.27 15:16.81 16:0 
-0.01070431924074754 1:50 2:3.25 3:26 4:8 5:0.84138214 6:35.346154 7:26 8:2743 9:1084 10:-523.01945 11:26 12:417 13:77 14:-561.79 15:11.05 16:0.0016722408 
-0.5 1:5 2:2 3:160 4:80 5:0.2175 6:3.9125 7:160 8:1861 9:792 10:398 11:160 12:296 13:166 14:398 15:0 16:0.6375 
-0.5 1:5 2:2 3:80 4:40 5:0.105 6:4.475 7:80 8:1053 9:444 10:74 11:80 12:158 13:86 14:74 15:0 16:0.825 
-0.001328682145787594 1:40 2:3.25 3:26 4:8 5:0.84615322 6:29.384615 7:26 8:2374 9:889 10:-438.83256 11:26 12:479 13:67 14:-775.07 15:11.48 16:0.0092475054 
-0.5 1:6 2:2 3:60 4:30 5:0.33333333 6:4 7:60 8:711 9:307 10:127.48052 11:60 12:111 13:67 14:115 15:0 16:0.5 
-0.06768478071858718 1:5 2:2 3:160 4:80 5:0.36 6:3.2 7:160 8:1557 9:678 10:537.9708 11:160 12:277 13:166 14:509 15:0 16:0.4 
-0.01720925617696548 1:50 2:5.5714286 3:39 4:7 5:0.83294515 6:39.666667 7:39 8:4451 9:1714 10:-441.22562 11:39 12:926 13:90 14:-499.27 15:10.04 16:0.0097576951 
-0.01016027738149206 1:80 2:2.4 3:24 4:10 5:0.84622631 6:54.958333 7:24 8:3923 9:1584 10:-1069.9804 11:24 12:340 13:105 14:-1130.34 15:20.45 16:0.0046296296 
-0.01594915352828841 1:80 2:2.5 3:25 4:10 5:0.8410938 6:57.08 7:25 8:4108 9:1685 10:-1135.382 11:25 12:335 13:106 14:-1397.66 15:25.01 16:0.009 
-0.01561193092146256 1:50 2:2.4 3:24 4:10 5:0.8403179 6:32.708333 7:24 8:2471 9:1001 10:-476.4862 11:24 12:241 13:75 14:-515.16 15:8.65 16:0.0034722222 
-0.5 1:5 2:2 3:80 4:40 5:0.21 6:3.95 7:80 8:941 9:402 10:145.08333 11:80 12:151 13:86 14:144 15:0 16:0.65 
-0.5 1:5 2:2 3:80 4:40 5:0.135 6:4.325 7:80 8:1021 9:432 10:95.75 11:80 12:156 13:86 14:77 15:0 16:0.775 
-0.006163094138635521 1:30 2:18.2 3:91 4:5 5:0.83000003 6:24.604396 7:13 8:495 9:190 10:-72.776618 11:13 12:495 13:190 14:-72.776618 15:6.56 16:0.003350151 
-0.00899988589724952 1:80 2:2.6 3:26 4:10 5:0.84088935 6:55.923077 7:26 8:4246 9:1748 10:-782.59941 11:26 12:339 13:107 14:-808.36 15:16.77 16:0.0059171598 
-0.01344366541877043 1:50 2:4.25 3:34 4:8 5:0.84149667 6:35.941176 7:34 8:3614 9:1439 10:-728.40172 11:34 12:589 13:85 14:-870.72 15:15.59 16:0.0064701589 
-0.5 1:6 2:2 3:180 4:90 5:0.11111111 6:5.3333333 7:180 8:2751 9:1147 10:108.76667 11:180 12:351 13:187 14:108 15:0 16:0.83333333 
-0.5 1:10 2:4 3:40 4:10 5:0.8 6:3 7:40 8:415 9:211 10:10 11:40 12:55 13:51 14:10 15:0 16:0.066666667 
-0.009177452884237609 1:80 2:2.3 3:23 4:10 5:0.84755163 6:53.521739 7:23 8:3708 9:1497 10:-1006.182 11:23 12:302 13:104 14:-1090.23 15:19.94 16:0.0024154589 
-0.008963098944214518 1:50 2:3.625 3:29 4:8 5:0.84412926 6:36.793103 7:29 8:3156 9:1215 10:-515.86486 11:29 12:569 13:80 14:-564.71 15:9.57 16:0.011756046 
-0.5 1:5 2:2 3:80 4:40 5:0.09 6:4.55 7:80 8:1069 9:450 10:95.692308 11:80 12:159 13:86 14:74 15:0 16:0.8625 
-0.5 1:5 2:2 3:80 4:40 5:0.195 6:4.025 7:80 8:957 9:408 10:150.76087 11:80 12:152 13:86 14:140 15:0 16:0.675 
-0.4554010812955416 1:5 2:2 3:80 4:40 5:0.315 6:3.425 7:80 8:829 9:360 10:118.5 11:80 12:144 13:86 14:109 15:0 16:0.475 
-0.5 1:10 2:4 3:40 4:10 5:0.8 6:3 7:40 8:415 9:211 10:10.571429 11:40 12:55 13:51 14:8 15:0 16:0.066666667 
-0.01010297574442012 1:40 2:3.25 3:26 4:8 5:0.8507888 6:28.884615 7:26 8:2356 9:862 10:-350.05037 11:26 12:515 13:67 14:-517.53 15:9.24 16:0.0015384615 
-0.5 1:5 2:2 3:120 4:60 5:0.08 6:4.6 7:120 8:1617 9:678 10:124.43478 11:120 12:237 13:126 14:122 15:0 16:0.86666667 
-0.01629127359463972 1:50 2:3.5 3:28 4:8 5:0.84010728 6:35.964286 7:28 8:3056 9:1219 10:-439.5645 11:28 12:459 13:79 14:-468.59 15:11.97 16:0.0017857143 
-0.5 1:10 2:4 3:40 4:10 5:0.8 6:3 7:40 8:415 9:211 10:8 11:40 12:55 13:51 14:8 15:0 16:0.13333333 
-0.01643994034210657 1:30 2:14.2 3:71 4:5 5:0.83808806 6:23.478873 7:7 8:282 9:93 10:98.2491 11:7 12:282 13:93 14:98.2491 15:8.73 16:0.0029387303 
-0.0008286841799939326 1:50 2:3.125 3:25 4:8 5:0.83771844 6:37.04 7:25 8:2763 9:1084 10:-447.21573 11:25 12:430 13:76 14:-573.47 15:10.59 16:0.0092132867 
-0.01141727953069194 1:50 2:8.5714286 3:60 4:7 5:0.85131596 6:35.266667 7:60 8:6150 9:2320 10:-674.98232 11:60 12:1455 13:111 14:-814.49 15:13.82 16:0.0055255341 
-0.005300072294669668 1:50 2:2.6 3:26 4:10 5:0.84628901 6:32.346154 7:26 8:2722 9:1102 10:-556.81752 11:26 12:282 13:77 14:-766.62 15:15.51 16:0.0038461538 
-0.007206102333502121 1:30 2:9.8 3:49 4:5 5:0.83206889 6:23.959184 7:12 8:476 9:173 10:0.46155745 11:12 12:476 13:173 14:0.46155745 15:5.7 16:0.0053215078 
-0.5 1:6 2:2 3:60 4:30 5:0.37777778 6:3.7333333 7:60 8:669 9:291 10:99.575758 11:60 12:109 13:67 14:86 15:0 16:0.45 
-0.5 1:5 2:2 3:80 4:40 5:0.105 6:4.475 7:80 8:1053 9:444 10:82.151515 11:80 12:158 13:86 14:71 15:0 16:0.825 
-0.5 1:5 2:2 3:60 4:30 5:0.16 6:4.2 7:60 8:747 9:318 10:71.016129 11:60 12:117 13:66 14:64 15:0 16:0.73333333 
-0.004471115344123745 1:50 2:3.375 3:27 4:8 5:0.84462998 6:36.333333 7:27 8:2974 9:1144 10:-495.93328 11:27 12:526 13:78 14:-788.02 15:14.18 16:0.012643491 
-0.5 1:5 2:2 3:80 4:40 5:0.15 6:4.25 7:80 8:1005 9:426 10:133.27473 11:80 12:155 13:86 14:128 15:0 16:0.75 
-0.04031000934139278 1:5 2:2 3:160 4:80 5:0.345 6:3.275 7:160 8:1589 9:690 10:462.87273 11:160 12:279 13:166 14:430 15:0 16:0.425 
-0.5 1:6 2:2 3:60 4:30 5:0.15555556 6:5.0666667 7:60 8:879 9:371 10:70.671642 11:60 12:119 13:67 14:61 15:0 16:0.76666667 
-0.5 1:5 2:2 3:80 4:40 5:0.18 6:4.1 7:80 8:973 9:414 10:114.73563 11:80 12:153 13:86 14:111 15:0 16:0.7 
-0.003648052581214866 1:50 2:2.7 3:27 4:10 5:0.84218119 6:34.555556 7:27 8:2891 9:1141 10:-502.95418 11:27 12:372 13:78 14:-660.38 15:11.42 16:0.0066872428 
-0.4906472162338116 1:6 2:2 3:60 4:30 5:0.4 6:3.6 7:60 8:648 9:283 10:70.454545 11:60 12:108 13:67 14:67 15:0 16:0.43333333 
-0.02156193267445689 1:50 2:6 3:42 4:7 5:0.85639462 6:34.809524 7:42 8:4325 9:1635 10:-363.42839 11:42 12:964 13:93 14:-390.93 15:8.15 16:0.0060896665 
-0.2811849383357065 1:6 2:2 3:180 4:90 5:0.14074074 6:5.1555556 7:180 8:2667 9:1115 10:171.91304 11:180 12:347 13:187 14:157 15:0 16:0.78888889 
-0.1359782914460538 1:5 2:2 3:160 4:80 5:0.21 6:3.95 7:160 8:1877 9:798 10:452 11:160 12:297 13:166 14:452 15:0 16:0.65 
-0.5 1:5 2:2 3:120 4:60 5:0.15 6:4.25 7:120 8:1505 9:636 10:165 11:120 12:230 13:126 14:165 15:0 16:0.75 
-0.001036014603953361 1:50 2:2.7 3:27 4:10 5:0.8459985 6:33.259259 7:27 8:2848 9:1144 10:-580.49214 11:27 12:323 13:78 14:-680.9 15:11.62 16:0.02003367 
-0.01870798926814499 1:40 2:4.125 3:33 4:8 5:0.84382567 6:29.242424 7:33 8:2961 9:1120 10:-589.6359 11:33 12:618 13:74 14:-910.73 15:15.61 16:0.0082360591 
-0.006128036203902302 1:50 2:3.625 3:29 4:8 5:0.84405193 6:35.275862 7:29 8:3024 9:1197 10:-653.62946 11:29 12:478 13:80 14:-879.12 15:15.83 16:0.0098522167 
-0.5 1:10 2:4 3:40 4:10 5:0.8 6:3 7:40 8:415 9:211 10:12 11:40 12:55 13:51 14:8 15:0 16:0.066666667 
-0.0119277514404764 1:30 2:9.6 3:48 4:5 5:0.8401439 6:23.083333 7:11 8:425 9:160 10:-155.80535 11:11 12:425 13:160 14:-155.80535 15:7.53 16:0.0064047677 
-0.5 1:10 2:4 3:40 4:10 5:0.8 6:3 7:40 8:415 9:211 10:13.555556 11:40 12:55 13:51 14:10 15:0 16:0 
-0.01556235193435623 1:80 2:2.4 3:24 4:10 5:0.84269479 6:54.208333 7:24 8:3907 9:1593 10:-1256.9682 11:24 12:312 13:105 14:-1455.49 15:25.27 16:0.0037878788 
-0.5 1:6 2:2 3:180 4:90 5:0.12592593 6:5.2444444 7:180 8:2709 9:1131 10:167 11:180 12:349 13:187 14:167 15:0 16:0.81111111 
-0.5 1:6 2:2 3:60 4:30 5:0.26666667 6:4.4 7:60 8:774 9:331 10:109.47727 11:60 12:114 13:67 14:88 15:0 16:0.6 
-0.01962007648651604 1:50 2:10.571429 3:74 4:7 5:0.83932217 6:38.905405 7:74 8:8154 9:3115 10:-506.96539 11:74 12:1897 13:125 14:-556.33 15:11.27 16:0.002977952 
-0.5 1:5 2:2 3:80 4:40 5:0.21 6:3.95 7:80 8:941 9:402 10:141 11:80 12:151 13:86 14:141 15:0 16:0.65 
-0.5 1:6 2:2 3:180 4:90 5:0.15555556 6:5.0666667 7:180 8:2625 9:1099 10:157.22222 11:180 12:345 13:187 14:153 15:0 16:0.77222222 
-0.01056357375770278 1:50 2:4.25 3:34 4:8 5:0.842875 6:36.352941 7:34 8:3641 9:1424 10:-715.14892 11:34 12:646 13:85 14:-861.16 15:16.41 16:0.013209846 
-0.01825159322034129 1:50 2:7.7142857 3:54 4:7 5:0.84291167 6:37.759259 7:54 8:5883 9:2219 10:-687.57853 11:54 12:1378 13:105 14:-781.86 15:13.9 16:0.0015193212 
-0.01676883960095343 1:50 2:3 3:24 4:8 5:0.8494829 6:34.833333 7:24 8:2574 9:988 10:-642.84762 11:24 12:434 13:75 14:-941.37 15:15.75 16:0.0014367816 
-0.5 1:5 2:2 3:80 4:40 5:0.03 6:4.85 7:80 8:1133 9:474 10:74.925926 11:80 12:163 13:86 14:69 15:0 16:0.95 
-0.5 1:8 2:64 3:128 4:2 5:0.75 6:4.625 7:128 8:2196 9:1033 10:10 11:128 12:518 13:137 14:10 15:0 16:0 
-0.5 1:8 2:64 3:128 4:2 5:0.75 6:4.625 7:128 8:2196 9:1033 10:10 11:128 12:518 13:137 14:10 15:0 16:0 
-0.003640754782271067 1:50 2:2.4 3:24 4:10 5:0.84498456 6:36.083333 7:24 8:2631 9:1022 10:-477.82129 11:24 12:342 13:75 14:-527.17 15:11.42 16:0.010127315 
-0.1621172307100914 1:6 2:2 3:180 4:90 5:0.36296296 6:3.8222222 7:180 8:2037 9:875 10:201.67816 11:180 12:317 13:187 14:196 15:0 16:0.45555556 
-0.01266650286297422 1:80 2:2.2 3:22 4:10 5:0.84219387 6:56.772727 7:22 8:3668 9:1478 10:-936.53781 11:22 12:301 13:103 14:-964.9 15:17.8 16:0.0097787081 
-0.08325309041172275 1:5 2:2 3:160 4:80 5:0.315 6:3.425 7:160 8:1653 9:714 10:543 11:160 12:283 13:166 14:543 15:0 16:0.475 
-0.02183802907135005 1:50 2:9.1428571 3:64 4:7 5:0.83975997 6:38.75 7:64 8:6891 9:2736 10:-431.93433 11:64 12:1372 13:115 14:-446.71 15:9.42 16:0.0056631508 
-0.003587063098912491 1:80 2:2.6 3:26 4:10 5:0.84383798 6:54.423077 7:26 8:4162 9:1710 10:-1247.215 11:26 12:342 13:107 14:-1372.74 15:25.06 16:0.0053113553 
-0.5 1:5 2:2 3:80 4:40 5:0.165 6:4.175 7:80 8:989 9:420 10:101 11:80 12:154 13:86 14:101 15:0 16:0.725 
-0.002383806667879561 1:6 2:2 3:180 4:90 5:0.17037037 6:4.9777778 7:180 8:2583 9:1083 10:132 11:180 12:343 13:187 14:132 15:0 16:0.74444444 
-0.01008481357829203 1:40 2:3.125 3:25 4:8 5:0.84153995 6:28.92 7:25 8:2304 9:893 10:-295.49848 11:25 12:400 13:66 14:-488.23491 15:10.46 16:0.015139573 
-0.5 1:6 2:2 3:180 4:90 5:0.14814815 6:5.1111111 7:180 8:2646 9:1107 10:162.33333 11:180 12:346 13:187 14:160 15:0 16:0.77777778 
-0.5 1:5 2:2 3:120 4:60 5:0.24 6:3.8 7:120 8:1361 9:582 10:150.56944 11:120 12:221 13:126 14:146 15:0 16:0.60833333 
-0.5 1:5 2:2 3:120 4:60 5:0.11 6:4.45 7:120 8:1569 9:660 10:157.60215 11:120 12:234 13:126 14:157 15:0 16:0.81666667 
-0.003080973010334147 1:80 2:2.5 3:25 4:10 5:0.84612366 6:54.16 7:25 8:3985 9:1629 10:-1143.3023 11:25 12:320 13:106 14:-1184.56 15:21.47 16:0.01352381 
-0.5 1:8 2:64 3:128 4:2 5:0.75 6:4.625 7:128 8:2196 9:1033 10:11.266667 11:128 12:518 13:137 14:8 15:0 16:0 
-0.5 1:5 2:2 3:80 4:40 5:0.24 6:3.8 7:80 8:909 9:390 10:122 11:80 12:149 13:86 14:122 15:0 16:0.6 
-0.004382798961938768 1:50 2:2.6 3:26 4:10 5:0.84408682 6:34.538462 7:24 8:2600 9:1008 10:-660.74247 11:24 12:340 13:75 14:-975.78 15:12.37 16:0.020186064 
-0.5 1:5 2:2 3:120 4:60 5:0.18 6:4.1 7:120 8:1457 9:618 10:160 11:120 12:227 13:126 14:160 15:0 16:0.7 
-0.0148914343943633 1:40 2:3.375 3:27 4:8 5:0.84501083 6:30.740741 7:27 8:2565 9:934 10:-394.61094 11:27 12:582 13:68 14:-536.91 15:8.77 16:0.0069664903 
-0.01221410241827819 1:50 2:6.7142857 3:47 4:7 5:0.82438878 6:41.255319 7:47 8:5494 9:2130 10:-434.02403 11:47 12:1153 13:98 14:-590.27 15:10.02 16:0.010623006 
-0.3022307665792383 1:5 2:2 3:160 4:80 5:0.27 6:3.65 7:160 8:1749 9:750 10:484.57542 11:160 12:289 13:166 14:481 15:0 16:0.55 
-0.2245612885622085 1:6 2:2 3:180 4:90 5:0.17777778 6:4.9333333 7:180 8:2562 9:1075 10:115.05882 11:180 12:342 13:187 14:108 15:0 16:0.73888889 
-0.5 1:5 2:2 3:80 4:40 5:0.06 6:4.7 7:80 8:1101 9:462 10:80 11:80 12:161 13:86 14:80 15:0 16:0.9 
-0.5 1:6 2:2 3:60 4:30 5:0.33333333 6:4 7:60 8:711 9:307 10:86.573171 11:60 12:111 13:67 14:80 15:0 16:0.5 
-0.5 1:8 2:64 3:128 4:2 5:0.75 6:4.625 7:128 8:2196 9:1033 10:10 11:128 12:518 13:137 14:10 15:0 16:0 
-0.01145438325889517 1:50 2:3.125 3:25 4:8 5:0.8431397 6:37.48 7:25 8:2794 9:1064 10:-391.32765 11:25 12:501 13:76 14:-631.49 15:10.84 16:0.0057587383 
-0.5 1:6 2:2 3:60 4:30 5:0.17777778 6:4.9333333 7:60 8:858 9:363 10:69.982456 11:60 12:118 13:67 14:57 15:0 16:0.73333333 
-0.01704106918981768 1:50 2:6.1428571 3:43 4:7 5:0.84205197 6:38.581395 7:43 8:4787 9:1813 10:-509.99461 11:43 12:1074 13:94 14:-861.57 15:15.99 16:0.00096899225 
-0.5 1:6 2:2 3:180 4:90 5:0.096296296 6:5.4222222 7:180 8:2793 9:1163 10:144.5625 11:180 12:353 13:187 14:131 15:0 16:0.85555556 
-0.01878078846927728 1:5 2:2 3:120 4:60 5:0.04 6:4.8 7:120 8:1681 9:702 10:102 11:120 12:241 13:126 14:102 15:0 16:0.93333333 
-0.5 1:5 2:2 3:120 4:60 5:0.09 6:4.55 7:120 8:1601 9:672 10:116.33333 11:120 12:236 13:126 14:102 15:0 16:0.85 
-0.4322334395677869 1:5 2:2 3:80 4:40 5:0.315 6:3.425 7:80 8:829 9:360 10:160.71605 11:80 12:144 13:86 14:160 15:0 16:0.475 
-0.002873725308326913 1:40 2:4.125 3:33 4:8 5:0.84963095 6:28.575758 7:33 8:2944 9:1108 10:-399.50088 11:33 12:625 13:74 14:-490.01 15:10.68 16:0.0068530129 
-0.01056975485391222 1:50 2:2.6 3:26 4:10 5:0.84055986 6:33.961538 7:26 8:2795 9:1107 10:-672.36254 11:26 12:342 13:77 14:-867.12 15:14.89 16:0.0071753904 
-0.5 1:5 2:2 3:120 4:60 5:0.18 6:4.1 7:120 8:1457 9:618 10:182 11:120 12:227 13:126 14:182 15:0 16:0.7 
-0.004539800968735875 1:30 2:7.8 3:39 4:5 5:0.82277012 6:25.974359 7:8 8:308 9:108 10:-37.625138 11:8 12:308 13:108 14:-37.625138 15:7.87 16:0.0053328202 
-0.06069947720186798 1:5 2:2 3:120 4:60 5:0.2 6:4 7:120 8:1425 9:606 10:120.58889 11:120 12:225 13:126 14:116 15:0 16:0.66666667 
-0.5 1:5 2:2 3:80 4:40 5:0.225 6:3.875 7:80 8:925 9:396 10:108.46512 11:80 12:150 13:86 14:103 15:0 16:0.625 
-0.5 1:6 2:2 3:60 4:30 5:0.15555556 6:5.0666667 7:60 8:879 9:371 10:72.39759 11:60 12:119 13:67 14:61 15:0 16:0.76666667 
-0.006773526959605396 1:50 2:3.375 3:27 4:8 5:0.84212569 6:34.814815 7:27 8:2806 9:1131 10:-482.416 11:27 12:387 13:78 14:-488.15 15:8.69 16:0.0013227513 
-0.002971832278944486 1:40 2:3 3:24 4:8 5:0.84971394 6:29.666667 7:24 8:2235 9:827 10:-237.77228 11:24 12:461 13:65 14:-463.01 15:7.19 16:0.0041666667 
-0.01584278717435361 1:50 2:4.125 3:33 4:8 5:0.83852296 6:37.060606 7:33 8:3565 9:1425 10:-407.45544 11:33 12:567 13:84 14:-529.01 15:9.96 16:0.00755025 
-0.01230219182722832 1:50 2:10 3:70 4:7 5:0.8451198 6:37.785714 7:70 8:7451 9:2870 10:-539.29363 11:70 12:1677 13:121 14:-598.07 15:11.44 16:0.008636371 
-0.5 1:5 2:2 3:60 4:30 5:0.18 6:4.1 7:60 8:731 9:312 10:76.133333 11:60 12:116 13:66 14:64 15:0 16:0.7 
-0.004559298943131826 1:50 2:2.4 3:24 4:10 5:0.84099024 6:33.583333 7:24 8:2553 9:1015 10:-516.61864 11:24 12:282 13:75 14:-674.68 15:11.93 16:0.0024509804 
-0.007848434497756653 1:50 2:2.4 3:24 4:10 5:0.84234144 6:33.791667 7:24 8:2596 9:1021 10:-575.10117 11:24 12:308 13:75 14:-811.74 15:12.36 16:0.009837963 
-0.5 1:8 2:64 3:128 4:2 5:0.75 6:4.625 7:128 8:2196 9:1033 10:10 11:128 12:518 13:137 14:10 15:0 16:0 
-0.5 1:5 2:2 3:120 4:60 5:0.05 6:4.75 7:120 8:1665 9:696 10:115 11:120 12:240 13:126 14:115 15:0 16:0.91666667 
-0.006268836731980002 1:50 2:3.125 3:25 4:8 5:0.83667983 6:36.72 7:25 8:2774 9:1089 10:-497.28825 11:25 12:431 13:76 14:-716.28 15:12.95 16:0.0048951049 
-0.344893673698167 1:6 2:2 3:180 4:90 5:0.22962963 6:4.6222222 7:180 8:2415 9:1019 10:183.5 11:180 12:335 13:187 14:166 15:0 16:0.66666667 
-0.483619855074069 1:5 2:2 3:60 4:30 5:0.14 6:4.3 7:60 8:763 9:324 10:72.39759 11:60 12:118 13:66 14:61 15:0 16:0.76666667 
-0.5 1:5 2:2 3:120 4:60 5:0.17 6:4.15 7:120 8:1473 9:624 10:127.38462 11:120 12:228 13:126 14:122 15:0 16:0.71666667 
-0.01466650182630597 1:80 2:2.4 3:24 4:10 5:0.8435145 6:51.375 7:24 8:3796 9:1581 10:-1205.4088 11:24 12:241 13:105 14:-1222.59 15:20.84 16:0.0066773504 
-0.006767474528861417 1:50 2:3.625 3:29 4:8 5:0.83753031 6:37.206897 7:29 8:3135 9:1242 10:-445.67571 11:29 12:494 13:80 14:-614.59 15:12.51 16:0.0032174582 
-0.0180540381576384 1:50 2:3.875 3:31 4:8 5:0.83624214 6:38.258065 7:31 8:3484 9:1352 10:-655.10793 11:31 12:627 13:82 14:-892.06 15:17.84 16:0.0035547434 
-0.007907933108402288 1:50 2:2.3 3:23 4:10 5:0.84191142 6:34.173913 7:23 8:2508 9:980 10:-631.33514 11:23 12:304 13:74 14:-836.32 15:16.89 16:0.0022883295 
-0.0145753997736357 1:50 2:3.75 3:30 4:8 5:0.84275308 6:37.066667 7:30 8:3280 9:1286 10:-384.58557 11:30 12:553 13:81 14:-447.37 15:9.1 16:0.0024444444 
-0.2240655575706324 1:6 2:2 3:60 4:30 5:0.11111111 6:5.3333333 7:60 8:921 9:387 10:62.986842 11:60 12:121 13:67 14:59 15:0 16:0.83333333 
-0.5 1:5 2:2 3:80 4:40 5:0.18 6:4.1 7:80 8:973 9:414 10:70.454545 11:80 12:153 13:86 14:67 15:0 16:0.7125 
-0.02029401668239 1:50 2:2.1 3:21 4:10 5:0.84150504 6:34.857143 7:21 8:2300 9:897 10:-508.24838 11:21 12:261 13:72 14:-543.29 15:9.63 16:0.0051517683 
-0.06076861104129806 1:5 2:2 3:80 4:40 5:0.36 6:3.2 7:80 8:781 9:342 10:123.94118 11:80 12:141 13:86 14:111 15:0 16:0.4125 
-0.01653276322120886 1:50 2:7.1428571 3:50 4:7 5:0.83573053 6:40.2 7:50 8:5679 9:2207 10:-563.97721 11:50 12:1190 13:101 14:-722.73 15:12.4 16:0.0012701613 
-0.011467964894535 1:50 2:8.8571429 3:62 4:7 5:0.84391695 6:37.870968 7:62 8:6665 9:2556 10:-575.29555 11:62 12:1502 13:113 14:-699.92 15:14.2 16:0.0055433918 
-0.01571250084569118 1:50 2:7.5714286 3:53 4:7 5:0.8462534 6:37.207547 7:53 8:5606 9:2170 10:-447.19618 11:53 12:1198 13:104 14:-577.81 15:9.32 16:0.0057390831 
-0.003742829651864887 1:50 2:2.6 3:26 4:10 5:0.84080955 6:34.346154 7:26 8:2737 9:1094 10:-537.89881 11:26 12:310 13:77 14:-786.15 15:13.71 16:0 
-0.3146895728188399 1:5 2:2 3:160 4:80 5:0.3525 6:3.2375 7:160 8:1573 9:684 10:462 11:160 12:278 13:166 14:462 15:0 16:0.41875 
-0.5 1:5 2:2 3:80 4:40 5:0.195 6:4.025 7:80 8:957 9:408 10:89.208333 11:80 12:152 13:86 14:75 15:0 16:0.675 
-0.005970767881072964 1:80 2:2.3 3:23 4:10 5:0.8476571 6:53.26087 7:23 8:3744 9:1527 10:-1113.3138 11:23 12:285 13:104 14:-1195.45 15:21.08 16:0.0052795031 
-0.005206291963897311 1:30 2:12.8 3:64 4:5 5:0.83451653 6:24.078125 7:14 8:602 9:206 10:-45.589879 11:14 12:191 13:30 14:-48.137794 15:5.95 16:0.0016809779 
-0.2719747814212637 1:5 2:2 3:120 4:60 5:0.34 6:3.3 7:120 8:1201 9:522 10:191.78652 11:120 12:211 13:126 14:184 15:0 16:0.43333333 
-0.006735108698326556 1:40 2:3.25 3:26 4:8 5:0.84520067 6:28.730769 7:26 8:2345 9:878 10:-228.48866 11:26 12:475 13:67 14:-336.51 15:6.57 16:0.0070592565 
-0.004450176262841989 1:50 2:2.5 3:25 4:10 5:0.84253532 6:33.4 7:25 8:2647 9:1059 10:-555.25143 11:25 12:291 13:76 14:-606.67 15:11.08 16:0.0073529412 
-0.01329383692227903 1:50 2:2.625 3:21 4:8 5:0.84418386 6:35.285714 7:21 8:2250 9:864 10:-366.6708 11:21 12:354 13:72 14:-602.69 15:11.81 16:0.001984127 
-0.5 1:8 2:64 3:128 4:2 5:0.75 6:4.625 7:128 8:2196 9:1033 10:10 11:128 12:518 13:137 14:10 15:0 16:0 
-0.004295847853315419 1:40 2:3.75 3:30 4:8 5:0.84551049 6:28.9 7:30 8:2694 9:1035 10:-379.67977 11:30 12:515 13:71 14:-542.37 15:11.28 16:0 
-0.0126101797247913 1:50 2:3 3:24 4:8 5:0.84456109 6:37.375 7:24 8:2679 9:1017 10:-458.95546 11:24 12:479 13:75 14:-786.98 15:13.21 16:0.0018939394 
-0.5 1:5 2:2 3:80 4:40 5:0.15 6:4.25 7:80 8:1005 9:426 10:128.84337 11:80 12:155 13:86 14:128 15:0 16:0.75 
-0.009921100877831372 1:50 2:3.625 3:29 4:8 5:0.8415444 6:36.896552 7:29 8:3178 9:1235 10:-461.31981 11:29 12:554 13:80 14:-694.95 15:12.54 16:0 
-0.0148666944391594 1:5 2:2 3:160 4:80 5:0.405 6:2.975 7:160 8:1461 9:642 10:338.65957 11:160 12:271 13:166 14:324 15:0 16:0.33125 
-0.5 1:5 2:2 3:120 4:60 5:0.1 6:4.5 7:120 8:1585 9:666 10:120.83871 11:120 12:235 13:126 14:116 15:0 16:0.83333333 
-0.2831245919082644 1:30 2:14.2 3:71 4:5 5:0.82992526 6:24.788732 7:11 8:425 9:160 10:-155.80535 11:11 12:102 13:27 14:-158.72174 15:6.36 16:0.0052241805 
-0.0003126112254316093 1:50 2:2.5 3:25 4:10 5:0.83953212 6:33 7:25 8:2628 9:1049 10:-442.556 11:25 12:290 13:76 14:-526.92 15:10.87 16:0.0022222222 
-0.01626928344825211 1:80 2:2.6 3:26 4:10 5:0.84066186 6:54.346154 7:26 8:4161 9:1730 10:-1324.0126 11:26 12:300 13:107 14:-1351.69 15:22.79 16:0 
-0.003650296001550872 1:50 2:3.25 3:26 4:8 5:0.84465457 6:36.807692 7:26 8:2841 9:1096 10:-454.7842 11:26 12:487 13:77 14:-527.49 15:10.55 16:0 
-0.09867377236429703 1:6 2:2 3:60 4:30 5:0.26666667 6:4.4 7:60 8:774 9:331 10:67.297297 11:60 12:114 13:67 14:58 15:0 16:0.6 
-0.004173482487962024 1:50 2:2.5 3:25 4:10 5:0.8375998 6:33.4 7:25 8:2676 9:1064 10:-423.05461 11:25 12:305 13:76 14:-572.18 15:11.07 16:0.011928105 
-0.5 1:5 2:2 3:80 4:40 5:0.12 6:4.4 7:80 8:1037 9:438 10:135.89412 11:80 12:157 13:86 14:127 15:0 16:0.8 
-0.01342570078369051 1:80 2:2.3 3:23 4:10 5:0.84270364 6:55.521739 7:23 8:3790 9:1539 10:-856.7494 11:23 12:301 13:104 14:-882.61 15:17.6 16:0.0060618729 
-0.01167734508121626 1:50 2:8.8571429 3:62 4:7 5:0.84335036 6:38.258065 7:62 8:6787 9:2596 10:-677.04689 11:62 12:1544 13:113 14:-761.39 15:13.83 16:0.0048110638 
-0.5 1:6 2:2 3:60 4:30 5:0.2 6:4.8 7:60 8:837 9:355 10:105.95294 11:60 12:117 13:67 14:95 15:0 16:0.7 
-0.0158870530750867 1:50 2:9.7142857 3:68 4:7 5:0.84406124 6:37.5 7:68 8:7233 9:2786 10:-508.52033 11:68 12:1622 13:119 14:-694.84 15:12.44 16:0.0071542076 
-0.01123296125928185 1:40 2:2.375 3:19 4:8 5:0.84603454 6:29.736842 7:19 8:1828 9:663 10:-333.91958 11:19 12:371 13:60 14:-591.03 15:10.38 16:0 
-0.02431503584132267 1:5 2:2 3:80 4:40 5:0.09 6:4.55 7:80 8:1069 9:450 10:74.843373 11:80 12:159 13:86 14:62 15:0 16:0.85 
-0.5 1:5 2:2 3:120 4:60 5:0.19 6:4.05 7:120 8:1441 9:612 10:171 11:120 12:226 13:126 14:171 15:0 16:0.68333333 
-0.3821780594539257 1:5 2:2 3:120 4:60 5:0.16 6:4.2 7:120 8:1489 9:630 10:103.59322 11:120 12:229 13:126 14:92 15:0 16:0.73333333 
-0.204169828729545 1:6 2:2 3:60 4:30 5:0.088888889 6:5.4666667 7:60 8:942 9:395 10:120.87654 11:60 12:122 13:67 14:119 15:0 16:0.86666667 
-0.01073246109883297 1:50 2:3.75 3:30 4:8 5:0.84235353 6:36.933333 7:30 8:3256 9:1285 10:-605.9069 11:30 12:531 13:81 14:-862.63 15:13.87 16:0.010917108 
-0.01289661288934318 1:80 2:2.6 3:26 4:10 5:0.8461342 6:52.807692 7:26 8:4165 9:1715 10:-876.91936 11:26 12:330 13:107 14:-1049.27 15:20.03 16:0.0044281377 
-0.3624482311753982 1:6 2:2 3:180 4:90 5:0.096296296 6:5.4222222 7:180 8:2793 9:1163 10:113 11:180 12:353 13:187 14:113 15:0 16:0.85555556 
-0.5 1:5 2:2 3:80 4:40 5:0.105 6:4.475 7:80 8:1053 9:444 10:73.75 11:80 12:158 13:86 14:70 15:0 16:0.825 
-0.1857934197677262 1:5 2:2 3:160 4:80 5:0.3225 6:3.3875 7:160 8:1637 9:708 10:461.78443 11:160 12:282 13:166 14:431 15:0 16:0.4625 
-0.007355644307006538 1:40 2:3.5 3:28 4:8 5:0.84195239 6:29.535714 7:28 8:2524 9:959 10:-267.37822 11:28 12:495 13:69 14:-447.43 15:9.25 16:0.010285364 
-0.006550703639797211 1:40 2:3.375 3:27 4:8 5:0.84572541 6:29.296296 7:27 8:2420 9:915 10:-386.17176 11:27 12:476 13:68 14:-632.89 15:8.97 16:0.0063131313 
-0.006903133577898884 1:50 2:3.5 3:28 4:8 5:0.84207027 6:36.357143 7:28 8:3021 9:1179 10:-588.701 11:28 12:505 13:79 14:-669.79 15:13.04 16:0.0094970333 
-0.009238649102981389 1:50 2:2.75 3:22 4:8 5:0.83895234 6:36.5 7:22 8:2462 9:958 10:-534.23874 11:22 12:376 13:73 14:-696.03 15:13.63 16:0.008355615 
-0.3654769137056046 1:6 2:2 3:180 4:90 5:0.18518519 6:4.8888889 7:180 8:2541 9:1067 10:200 11:180 12:341 13:187 14:200 15:0 16:0.72222222 
-0.2093141956499498 1:5 2:2 3:120 4:60 5:0.12 6:4.4 7:120 8:1553 9:654 10:126.64045 11:120 12:233 13:126 14:117 15:0 16:0.8 
-0.5 1:5 2:2 3:80 4:40 5:0.18 6:4.1 7:80 8:973 9:414 10:107 11:80 12:153 13:86 14:93 15:0 16:0.7 
-0.007357812406889919 1:50 2:8.4285714 3:59 4:7 5:0.84964084 6:36.40678 7:59 8:6165 9:2373 10:-616.51043 11:59 12:1362 13:110 14:-871.27 15:15.24 16:0.0041949066 
-0.284849790658123 1:5 2:2 3:80 4:40 5:0.285 6:3.575 7:80 8:861 9:372 10:167 11:80 12:146 13:86 14:167 15:0 16:0.525 
-0.008571918713522864 1:80 2:2.4 3:24 4:10 5:0.84642637 6:52.916667 7:24 8:3894 9:1608 10:-1200.2748 11:24 12:274 13:105 14:-1245.1 15:20.58 16:0 
-0.007018046742407171 1:50 2:3.25 3:26 4:8 5:0.84771671 6:35.846154 7:26 8:2828 9:1076 10:-570.69738 11:26 12:515 13:77 14:-771.76 15:12.45 16:0 
-0.0108027197725819 1:30 2:13.6 3:68 4:5 5:0.83040305 6:24.441176 7:10 8:445 9:147 10:131.8811 11:10 12:445 13:147 14:131.8811 15:5.81 16:0.0048916954 
-0.01105804608976616 1:50 2:8.4285714 3:59 4:7 5:0.83505782 6:39.389831 7:59 8:6523 9:2540 10:-481.27561 11:59 12:1386 13:110 14:-567.9 15:12.16 16:0.010707988 
-0.0203759654467207 1:50 2:6.1428571 3:43 4:7 5:0.83521861 6:40.046512 7:43 8:4892 9:1879 10:-332.25505 11:43 12:1045 13:94 14:-426 15:8.4 16:0.0039051646 
-0.0142602662910559 1:50 2:7.5714286 3:53 4:7 5:0.84001965 6:38.45283 7:53 8:5912 9:2228 10:-580.56436 11:53 12:1387 13:104 14:-849.72 15:12.76 16:0.0026127567 
-0.5 1:5 2:2 3:160 4:80 5:0.2025 6:3.9875 7:160 8:1893 9:804 10:374.2 11:160 12:298 13:166 14:363 15:0 16:0.6625 
-0.01415272362811872 1:40 2:2.875 3:23 4:8 5:0.848078 6:29.173913 7:23 8:2130 9:780 10:-184.13288 11:23 12:449 13:64 14:-462.82 15:10.99 16:0.0064611507 
-0.01367067281600631 1:40 2:3.375 3:27 4:8 5:0.84353596 6:28.407407 7:27 8:2408 9:911 10:-414.92616 11:27 12:471 13:68 14:-798.73 15:12.63 16:0.0016835017 
-0.01867213318245667 1:50 2:7.2857143 3:51 4:7 5:0.84345005 6:38.156863 7:51 8:5588 9:2102 10:-566.53897 11:51 12:1311 13:102 14:-797.62 15:15.39 16:0.0056537401 
-0.5 1:5 2:2 3:80 4:40 5:0.12 6:4.4 7:80 8:1037 9:438 10:78.242424 11:80 12:157 13:86 14:65 15:0 16:0.8 
-0.5 1:5 2:2 3:80 4:40 5:0.09 6:4.55 7:80 8:1069 9:450 10:80.296296 11:80 12:159 13:86 14:75 15:0 16:0.85 
-0.5 1:5 2:2 3:80 4:40 5:0.15 6:4.25 7:80 8:1005 9:426 10:121 11:80 12:155 13:86 14:121 15:0 16:0.75 
-0.006387399487038148 1:6 2:2 3:60 4:30 5:0.66666667 6:2 7:60 8:396 9:187 10:112 11:60 12:96 13:67 14:112 15:0 16:0 
-0.02138086698057706 1:50 2:6.2857143 3:44 4:7 5:0.83712684 6:39.068182 7:44 8:4951 9:1877 10:-715.75077 11:44 12:1110 13:95 14:-898.56 15:14.12 16:0.011525494 
-0.003096840216292177 1:50 2:2.7 3:27 4:10 5:0.84575276 6:33.259259 7:27 8:2852 9:1139 10:-601.08251 11:27 12:335 13:78 14:-775.26 15:15.87 16:0.0074074074 
-0.004926723188361282 1:40 2:3 3:24 4:8 5:0.84567533 6:29.291667 7:24 8:2223 9:813 10:-297.97408 11:24 12:476 13:65 14:-504.28 15:7.7 16:0.0052669553 
-0.01275036174279312 1:50 2:2.3 3:23 4:10 5:0.84612614 6:33.434783 7:23 8:2448 9:959 10:-379.7266 11:23 12:289 13:74 14:-494.73 15:7.31 16:0.0050724638 
-0.01501345244568858 1:50 2:7.2857143 3:51 4:7 5:0.84629592 6:37.27451 7:51 8:5509 9:2094 10:-484.76396 11:51 12:1248 13:102 14:-569.03 15:11.17 16:0.0043864708 
-0.3828787957541095 1:5 2:2 3:120 4:60 5:0.22 6:3.9 7:120 8:1393 9:594 10:206.69767 11:120 12:223 13:126 14:206 15:0 16:0.63333333 
-0.5 1:6 2:2 3:60 4:30 5:0.42222222 6:3.4666667 7:60 8:627 9:275 10:115.19277 11:60 12:107 13:67 14:111 15:0 16:0.36666667 
-0.01209513542230702 1:30 2:16.2 3:81 4:5 5:0.82688004 6:25.617284 7:13 8:552 9:196 10:125.80167 11:13 12:552 13:196 14:125.80167 15:7.73 16:0.0026080467 
-0.007928541679182333 1:50 2:3.5 3:28 4:8 5:0.83849881 6:37.071429 7:28 8:3065 9:1206 10:-555.93564 11:28 12:495 13:79 14:-611.31 15:9.47 16:0.0048812794 
-0.5 1:5 2:2 3:80 4:40 5:0.15 6:4.25 7:80 8:1005 9:426 10:92.8 11:80 12:155 13:86 14:80 15:0 16:0.75 
-0.002395911790815973 1:80 2:2.5 3:25 4:10 5:0.84271714 6:55.64 7:25 8:4075 9:1670 10:-1098.6851 11:25 12:328 13:106 14:-1151.13 15:22.38 16:0.0045751634 
-0.1418955141416606 1:5 2:2 3:120 4:60 5:0.21 6:3.95 7:120 8:1409 9:600 10:129.5 11:120 12:224 13:126 14:113 15:0 16:0.65 
-0.275325372661537 1:5 2:2 3:120 4:60 5:0.26 6:3.7 7:120 8:1329 9:570 10:168 11:120 12:219 13:126 14:168 15:0 16:0.56666667 
-0.01243016550684917 1:50 2:3.25 3:26 4:8 5:0.84907872 6:35.192308 7:26 8:2721 9:1055 10:-370.67968 11:26 12:451 13:77 14:-415.14 15:8.18 16:0.010192308 
-0.01393267157370968 1:40 2:4.125 3:33 4:8 5:0.84208599 6:30.212121 7:33 8:2981 9:1125 10:-362.25705 11:33 12:629 13:74 14:-477.94 15:8.92 16:0.011604961 
-0.01198739101261169 1:80 2:2.4 3:24 4:10 5:0.84207868 6:57.25 7:24 8:4009 9:1624 10:-1180.5307 11:24 12:348 13:105 14:-1222.5 15:21.25 16:0.0020833333 
-0.5 1:6 2:2 3:60 4:30 5:0.31111111 6:4.1333333 7:60 8:732 9:315 10:78.7 11:60 12:112 13:67 14:67 15:0 16:0.53333333 
-0.5 1:10 2:4 3:40 4:10 5:0.8 6:3 7:40 8:415 9:211 10:13.555556 11:40 12:55 13:51 14:10 15:0 16:0 
-0.3289931154882241 1:5 2:2 3:120 4:60 5:0.37 6:3.15 7:120 8:1153 9:504 10:148.64474 11:120 12:208 13:126 14:143 15:0 16:0.38333333 
-0.002041667729573787 1:5 2:2 3:120 4:60 5:0.14 6:4.3 7:120 8:1521 9:642 10:130.32979 11:120 12:231 13:126 14:110 15:0 16:0.76666667 
-0.005429180642454962 1:80 2:2.4 3:24 4:10 5:0.84751645 6:52.5 7:24 8:3823 9:1569 10:-851.69712 11:24 12:284 13:105 14:-891.62 15:16.01 16:0.0050925926 
-0.008919941744039398 1:50 2:2.4 3:24 4:10 5:0.84626616 6:31.375 7:24 8:2439 9:972 10:-458.90165 11:24 12:264 13:75 14:-647.14 15:9.67 16:0.0021929825 
-0.002124128917829097 1:50 2:3 3:24 4:8 5:0.83900296 6:37.375 7:24 8:2675 9:1037 10:-359.47286 11:24 12:435 13:75 14:-433.02 15:6.98 16:0.0060350529 
-0.5 1:5 2:2 3:80 4:40 5:0.195 6:4.025 7:80 8:957 9:408 10:103.1358 11:80 12:152 13:86 14:96 15:0 16:0.675 
-0.01339720936659394 1:50 2:9.1428571 3:64 4:7 5:0.84232269 6:37.859375 7:64 8:6871 9:2646 10:-692.42687 11:64 12:1532 13:115 14:-762.97 15:15.66 16:0.004085806 
-0.5 1:5 2:2 3:60 4:30 5:0.2 6:4 7:60 8:715 9:306 10:83.266667 11:60 12:115 13:66 14:80 15:0 16:0.7 
-0.5 1:6 2:2 3:180 4:90 5:0.16296296 6:5.0222222 7:180 8:2604 9:1091 10:169.79167 11:180 12:344 13:187 14:169 15:0 16:0.76111111 
-0.01527191985792716 1:40 2:2.875 3:23 4:8 5:0.84646397 6:28.956522 7:23 8:2119 9:799 10:-229.56586 11:23 12:399 13:64 14:-579.82 15:9.46 16:0.006934033 
-0.01187674563663621 1:80 2:2.5 3:25 4:10 5:0.84389887 6:53.2 7:25 8:4004 9:1660 10:-927.12043 11:25 12:287 13:106 14:-1070.28 15:19.95 16:0.0092973856 
-0.01515517520713877 1:50 2:3.875 3:31 4:8 5:0.84284961 6:36.451613 7:31 8:3332 9:1345 10:-617.38415 11:31 12:489 13:82 14:-725.7 15:12.64 16:0.0064020939 
-0.5 1:8 2:64 3:128 4:2 5:0.75 6:4.625 7:128 8:2196 9:1033 10:10 11:128 12:518 13:137 14:10 15:0 16:0 
-0.3626087917331462 1:5 2:2 3:60 4:30 5:0.2 6:4 7:60 8:715 9:306 10:72.295775 11:60 12:115 13:66 14:69 15:0 16:0.66666667 
-0.2116132005151372 1:6 2:2 3:180 4:90 5:0.15555556 6:5.0666667 7:180 8:2625 9:1099 10:107.18571 11:180 12:345 13:187 14:96 15:0 16:0.76666667 
-0.003733722469651664 1:50 2:3.75 3:30 4:8 5:0.83684178 6:38 7:30 8:3359 9:1312 10:-427.85408 11:30 12:581 13:81 14:-645.7 15:11.21 16:0.0011111111 
-0.01206147493298475 1:50 2:3.25 3:26 4:8 5:0.84083854 6:36.230769 7:26 8:2833 9:1100 10:-358.90976 11:26 12:475 13:77 14:-484.56 15:11.03 16:0.0044281377 
-0.01365350017820482 1:50 2:8 3:56 4:7 5:0.84276042 6:38.035714 7:56 8:6077 9:2357 10:-567.14528 11:56 12:1300 13:107 14:-778.52 15:13.28 16:0.0052579365 
-0.5 1:5 2:2 3:60 4:30 5:0.16 6:4.2 7:60 8:747 9:318 10:66.044118 11:60 12:117 13:66 14:61 15:0 16:0.73333333 
-0.002338245435981656 1:50 2:2.4 3:24 4:10 5:0.84577468 6:34.833333 7:24 8:2600 9:1008 10:-660.74247 11:24 12:340 13:75 14:-975.78 15:16.45 16:0.013593445 
-0.5 1:8 2:64 3:128 4:2 5:0.75 6:4.625 7:128 8:2196 9:1033 10:10 11:128 12:518 13:137 14:10 15:0 16:0 
-0.5 1:5 2:2 3:80 4:40 5:0.105 6:4.475 7:80 8:1053 9:444 10:105.32432 11:80 12:158 13:86 14:93 15:0 16:0.8375 
-0.4465617221556008 1:5 2:2 3:120 4:60 5:0.23 6:3.85 7:120 8:1377 9:588 10:141.17391 11:120 12:222 13:126 14:133 15:0 16:0.61666667 
-0.02035737282910094 1:50 2:9.7142857 3:68 4:7 5:0.84392696 6:37.176471 7:68 8:7153 9:2791 10:-448.32176 11:68 12:1532 13:119 14:-469.84 15:8.91 16:0.0080524684 
-0.08445611685280731 1:6 2:2 3:180 4:90 5:0.20740741 6:4.7555556 7:180 8:2478 9:1043 10:134.66316 11:180 12:338 13:187 14:119 15:0 16:0.69444444 
-0.5 1:5 2:2 3:120 4:60 5:0.11 6:4.45 7:120 8:1569 9:660 10:164 11:120 12:234 13:126 14:164 15:0 16:0.81666667 
-0.0125738206261622 1:40 2:3.875 3:31 4:8 5:0.84650748 6:29.677419 7:31 8:2858 9:1049 10:-364.54927 11:31 12:653 13:72 14:-556.12 15:9.02 16:0 
-0.01159399092842289 1:50 2:8.2857143 3:58 4:7 5:0.84746879 6:36.913793 7:58 8:6181 9:2358 10:-707.71402 11:58 12:1406 13:109 14:-815 15:15.88 16:0.0043942104 
