svm_type c_svc
kernel_type rbf
gamma 0.0078125
nr_class 2
total_sv 1031
rho -5.56242
label 1 0
nr_sv 515 516
SV
32 1:0.12592593 2:0 3:6.0481283 4:7.7621777 
32 1:0.75 2:0 3:7.540146 4:4.2393822 
32 1:0.31111111 2:0.014948392 3:4.7014925 4:6.5357143 
32 1:0.255 2:0.002399188 3:4.4651163 4:6.0337838 
32 1:0.15555556 2:0.028779535 3:5.8770053 4:7.6086957 
32 1:0.27 2:0 3:4.3953488 4:5.9659864 
32 1:0.1875 2:0 3:4.9156627 4:6.4166667 
32 1:0.15 2:0 3:4.9534884 4:6.483871 
32 1:0.045 2:0 3:5.4418605 4:6.8950617 
32 1:0.1 2:0 3:5.0909091 4:6.625 
32 1:0.8 2:0.23529412 3:4.1372549 4:7.5454545 
32 1:0.75 2:0 3:7.540146 4:4.2393822 
32 1:0.17 2:0.0030349014 3:4.952381 4:6.4605263 
32 1:0.8 2:0.20224719 3:4.1372549 4:7.5454545 
32 1:0.14814815 2:0.066797642 3:5.9197861 4:7.6473988 
32 1:0.24 2:0.030641195 3:4.5348837 4:6.1006711 
32 1:0.11111111 2:0.13632675 3:5.7761194 4:7.6115702 
32 1:0.24 2:0 3:4.6626506 4:6.1877133 
32 1:0.8 2:0.066914498 3:4.1372549 4:7.5454545 
32 1:0.14 2:0 3:5.0952381 4:6.5844156 
32 1:0.165 2:0.076190476 3:4.8837209 4:6.4220779 
32 1:0.195 2:0.064139942 3:4.744186 4:6.2960526 
32 1:0.14 2:0.042567125 3:4.9090909 4:6.4661017 
32 1:0.22222222 2:0 3:5.4919786 4:7.25 
32 1:0.22 2:0.12615271 3:4.7142857 4:6.2466368 
32 1:0.15 2:0.11315924 3:4.9534884 4:6.483871 
32 1:0.195 2:0.023489216 3:4.744186 4:6.2960526 
32 1:0.75 2:0 3:7.540146 4:4.2393822 
32 1:0.75 2:0 3:7.540146 4:4.2393822 
32 1:0.1 2:0 3:5.0909091 4:6.625 
32 1:0.75 2:0 3:7.540146 4:4.2393822 
32 1:0.18518519 2:0.071759259 3:5.7058824 4:7.4516129 
21.38793209384488 1:0.83893404 2:5.2475692 3:6.7586207 4:3.4936709 
32 1:0.26666667 2:0 3:5.2352941 4:7 
32 1:0.08 2:0.030841121 3:5.1818182 4:6.7024793 
32 1:0.18 2:0.087897813 3:4.8139535 4:6.3594771 
32 1:0.2 2:0.17142857 3:4.6363636 4:6.2173913 
32 1:0.15 2:0.11818182 3:4.9534884 4:6.483871 
32 1:0.2 2:0.085887352 3:4.6363636 4:6.2173913 
32 1:0.75 2:0 3:7.540146 4:4.2393822 
32 1:0.09 2:0 3:5.2325581 4:6.7232704 
32 1:0.088888889 2:0.11447811 3:6.2620321 4:7.9491525 
32 1:0.75 2:0 3:7.540146 4:4.2393822 
32 1:0.074074074 2:0.11147541 3:6.3475936 4:8.0224719 
32 1:0.15 2:0.0023089356 3:4.9534884 4:6.483871 
32 1:0.26 2:0.1220545 3:4.5238095 4:6.0684932 
32 1:0.19 2:0.063578826 3:4.8571429 4:6.3761062 
32 1:0.2 2:0.054512417 3:5.2985075 4:7.1538462 
32 1:0.15 2:0.17456716 3:4.9534884 4:6.483871 
32 1:0.1 2:0.03125 3:5.2857143 4:6.7446809 
32 1:0.075 2:0 3:5.3023256 4:6.78125 
32 1:0.2 2:0.0047114252 3:4.8095238 4:6.3333333 
32 1:0.04 2:0 3:5.3636364 4:6.8536585 
32 1:0.8 2:0.20224719 3:4.1372549 4:7.5454545 
32 1:0.09 2:0 3:5.2325581 4:6.7232704 
32 1:0.14 2:0.030482012 3:5.0952381 4:6.5844156 
32 1:0.2775 2:0.025739675 3:4.4819277 4:6.0173611 
32 1:0.34 2:0.028556564 3:4.1428571 4:5.6919431 
32 1:0.75 2:0 3:7.540146 4:4.2393822 
32 1:0.75 2:0 3:7.540146 4:4.2393822 
32 1:0.24 2:0.14752724 3:4.4545455 4:6.0442478 
32 1:0.17 2:0 3:4.952381 4:6.4605263 
32 1:0.75 2:0 3:7.540146 4:4.2393822 
32 1:0.75 2:0 3:7.540146 4:4.2393822 
32 1:0.16 2:0.2175164 3:4.8181818 4:6.3846154 
6.964353794390663 1:0.8 2:0.29080119 3:4.1372549 4:7.5454545 
32 1:0.17777778 2:0.10378463 3:5.7486631 4:7.4912281 
32 1:0.75 2:0.4 3:7.540146 4:4.2393822 
32 1:0.75 2:0 3:7.540146 4:4.2393822 
32 1:0.8 2:0.12173913 3:4.1372549 4:7.5454545 
32 1:0.75 2:0 3:7.540146 4:4.2393822 
32 1:0.22222222 2:0.0038610039 3:5.1791045 4:7.0344828 
32 1:0.14 2:0 3:5.0952381 4:6.5844156 
32 1:0.26666667 2:0.010803732 3:4.9402985 4:6.7894737 
32 1:0.75 2:0.34594595 3:7.540146 4:4.2393822 
32 1:0.17 2:0.058269066 3:4.952381 4:6.4605263 
32 1:0.53333333 2:0.10169492 3:3.5074627 4:5.1176471 
32 1:0.135 2:0.051621443 3:5.0232558 4:6.5448718 
32 1:0.17777778 2:0.096301465 3:5.7486631 4:7.4912281 
32 1:0.24 2:0.094028771 3:4.4545455 4:6.0442478 
32 1:0.8 2:0.20224719 3:4.1372549 4:7.5454545 
32 1:0.75 2:0 3:7.540146 4:4.2393822 
32 1:0.75 2:0 3:7.540146 4:4.2393822 
32 1:0.081481481 2:0.18673246 3:6.3048128 4:7.9859155 
32 1:0.1 2:0.11956866 3:5.2857143 4:6.7446809 
32 1:0.15 2:0.084921592 3:4.9534884 4:6.483871 
32 1:0.15 2:0.038108236 3:5.047619 4:6.5434783 
32 1:0.195 2:0.017061281 3:4.744186 4:6.2960526 
32 1:0.14 2:0.0038610039 3:4.9090909 4:6.4661017 
32 1:0.15 2:0 3:5.047619 4:6.5434783 
32 1:0.8 2:0.21459227 3:4.1372549 4:7.5454545 
32 1:0.037037037 2:0.057760664 3:6.5614973 4:8.2022161 
32 1:0.75 2:0 3:7.540146 4:4.2393822 
32 1:0.12 2:0.064382996 3:5.0930233 4:6.6050955 
32 1:0.21 2:0.024583664 3:4.6744186 4:6.2317881 
32 1:0.09 2:0.26966292 3:5.2325581 4:6.7232704 
32 1:0.17 2:0.042932813 3:4.952381 4:6.4605263 
32 1:0.165 2:0.074179743 3:4.8837209 4:6.4220779 
32 1:0.42222222 2:0 3:4.1044776 4:5.8598131 
32 1:0.8 2:0.03960396 3:4.1372549 4:7.5454545 
32 1:0.8 2:0.25906736 3:4.1372549 4:7.5454545 
32 1:0.8 2:0.0090497738 3:4.1372549 4:7.5454545 
32 1:0.27 2:0 3:4.3953488 4:5.9659864 
32 1:0.06 2:0 3:5.372093 4:6.8385093 
32 1:0.09 2:0 3:5.2325581 4:6.7232704 
32 1:0.12 2:0.016215284 3:5.1904762 4:6.6652361 
32 1:0.14814815 2:0 3:5.9197861 4:7.6473988 
16.58479069739031 1:0.8 2:0.29080119 3:4.1372549 4:7.5454545 
32 1:0.315 2:0.041482489 3:4.3012048 4:5.8409894 
32 1:0.8 2:0.23529412 3:4.1372549 4:7.5454545 
32 1:0.14 2:0 3:4.9090909 4:6.4661017 
32 1:0.08 2:0 3:5.3809524 4:6.8227848 
32 1:0.28888889 2:0 3:4.8208955 4:6.6637168 
32 1:0.09 2:0.056376449 3:5.3333333 4:6.7838983 
32 1:0.15 2:0.015533981 3:4.9534884 4:6.483871 
32 1:0.35555556 2:0.10344389 3:4.4626866 4:6.2727273 
32 1:0.09 2:0 3:5.2325581 4:6.7232704 
32 1:0.14 2:0.063936064 3:4.9090909 4:6.4661017 
32 1:0.059259259 2:0.068212824 3:6.4331551 4:8.0949721 
32 1:0.18 2:0.1904135 3:4.7272727 4:6.3017241 
32 1:0.8 2:0.25192802 3:4.1372549 4:7.5454545 
32 1:0.75 2:0 3:7.540146 4:4.2393822 
32 1:0.8 2:0.21459227 3:4.1372549 4:7.5454545 
32 1:0.12 2:0.019219898 3:5.0930233 4:6.6050955 
32 1:0.34 2:0.015063141 3:4 4:5.5833333 
32 1:0.195 2:0.044141689 3:4.744186 4:6.2960526 
32 1:0.096296296 2:0 3:6.2192513 4:7.9121813 
32 1:0.83114686 2:0.49187358 3:4.9166667 4:3.7272727 
32 1:0.135 2:0 3:5.0232558 4:6.5448718 
32 1:0.75 2:0 3:7.540146 4:4.2393822 
32 1:0.18 2:0.065125059 3:4.8139535 4:6.3594771 
32 1:0.22222222 2:0.072590738 3:5.1791045 4:7.0344828 
32 1:0.105 2:0 3:5.1627907 4:6.664557 
32 1:0.75 2:0 3:7.540146 4:4.2393822 
32 1:0.14 2:0.14198363 3:4.9090909 4:6.4661017 
32 1:0.165 2:0.016832441 3:4.8837209 4:6.4220779 
32 1:0.22222222 2:0.13918306 3:5.1791045 4:7.0344828 
32 1:0.75 2:0 3:7.540146 4:4.2393822 
32 1:0.22222222 2:0.058972199 3:5.1791045 4:7.0344828 
32 1:0.33 2:0.12270439 3:4.1162791 4:5.6853147 
32 1:0.8 2:0.27692308 3:4.1372549 4:7.5454545 
32 1:0.03 2:0 3:5.5116279 4:6.9509202 
32 1:0.31111111 2:0.14752724 3:4.7014925 4:6.5357143 
32 1:0.135 2:0.06763877 3:5.0232558 4:6.5448718 
32 1:0.8 2:0.23529412 3:4.1372549 4:7.5454545 
32 1:0.11111111 2:0.2283508 3:5.7761194 4:7.6115702 
32 1:0.8 2:0.27692308 3:4.1372549 4:7.5454545 
32 1:0.225 2:0.0099350401 3:4.6046512 4:6.1666667 
32 1:0.75 2:0 3:7.540146 4:4.2393822 
32 1:0.1 2:0.087542088 3:5.0909091 4:6.625 
32 1:0.75 2:0 3:7.540146 4:4.2393822 
32 1:0.195 2:0.050024522 3:4.744186 4:6.2960526 
32 1:0.28888889 2:0.096463023 3:4.8208955 4:6.6637168 
32 1:0.15 2:0 3:4.9534884 4:6.483871 
32 1:0.2 2:0.063492063 3:4.6363636 4:6.2173913 
32 1:0.1037037 2:0.021091243 3:6.1764706 4:7.875 
32 1:0.04 2:0.08320951 3:5.5714286 4:6.9751037 
32 1:0.26666667 2:0.042567125 3:4.9402985 4:6.7894737 
32 1:0.8 2:0.061538462 3:4.1372549 4:7.5454545 
32 1:0.15555556 2:0.0057331863 3:5.8770053 4:7.6086957 
32 1:0.2 2:0.022216482 3:5.2985075 4:7.1538462 
32 1:0.8 2:0.25192802 3:4.1372549 4:7.5454545 
32 1:0.8 2:0.20224719 3:4.1372549 4:7.5454545 
32 1:0.8 2:0.128 3:4.1372549 4:7.5454545 
32 1:0.17 2:0 3:4.952381 4:6.4605263 
32 1:0.12 2:0.25421572 3:5 4:6.5462185 
32 1:0.2175 2:0 3:4.7710843 4:6.2871622 
32 1:0.75 2:0 3:7.540146 4:4.2393822 
32 1:0.1 2:0 3:5.0909091 4:6.625 
32 1:0.09 2:0 3:5.3333333 4:6.7838983 
32 1:0.8 2:0.23529412 3:4.1372549 4:7.5454545 
32 1:0.02 2:0.2163612 3:5.4545455 4:6.9274194 
32 1:0.8 2:0.25192802 3:4.1372549 4:7.5454545 
32 1:0.33 2:0.011700207 3:4.2289157 4:5.7686833 
32 1:0.015 2:0 3:5.5813953 4:7.0060976 
32 1:0.75 2:0 3:7.540146 4:4.2393822 
32 1:0.75 2:0 3:7.540146 4:4.2393822 
32 1:0.2 2:0.0028183639 3:4.6363636 4:6.2173913 
32 1:0.33 2:0.15225947 3:4.1162791 4:5.6853147 
32 1:0.75 2:0 3:7.540146 4:4.2393822 
32 1:0.32 2:0.081395349 3:4.2380952 4:5.7887324 
32 1:0.75 2:0.34710744 3:7.540146 4:4.2393822 
32 1:0.11 2:0.012590494 3:5.2380952 4:6.7051282 
32 1:0.15 2:0 3:5.047619 4:6.5434783 
32 1:0.8 2:0.18050542 3:4.1372549 4:7.5454545 
32 1:0.195 2:0.077879039 3:4.744186 4:6.2960526 
32 1:0.15 2:0 3:4.9534884 4:6.483871 
32 1:0.14 2:0 3:4.9090909 4:6.4661017 
32 1:0.06 2:0.046903929 3:5.372093 4:6.8385093 
32 1:0.22 2:0.025822809 3:4.7142857 4:6.2466368 
32 1:0.24 2:0.0023501763 3:4.4545455 4:6.0442478 
32 1:0.8 2:0.08 3:4.1372549 4:7.5454545 
32 1:0.33333333 2:0.10060976 3:4.5820896 4:6.4054054 
32 1:0.2 2:0.19693597 3:5.2985075 4:7.1538462 
32 1:0.2625 2:0 3:4.5542169 4:6.0862069 
32 1:0.03 2:0 3:5.5116279 4:6.9509202 
32 1:0.285 2:0.0058306132 3:4.4457831 4:5.9825784 
32 1:0.225 2:0 3:4.7349398 4:6.2542373 
32 1:0.18 2:0 3:4.9047619 4:6.4185022 
32 1:0.75 2:0 3:7.540146 4:4.2393822 
32 1:0.75 2:0 3:7.540146 4:4.2393822 
32 1:0.17777778 2:0.11337209 3:5.4179104 4:7.2711864 
32 1:0.23703704 2:0.036590486 3:5.4064171 4:7.1676647 
32 1:0.21 2:0.061588331 3:4.6744186 4:6.2317881 
32 1:0.18 2:0.078922322 3:4.7272727 4:6.3017241 
32 1:0.21 2:0 3:4.7619048 4:6.2901786 
32 1:0.25 2:0.016570924 3:4.5714286 4:6.1136364 
32 1:0.225 2:0.028853231 3:4.6046512 4:6.1666667 
32 1:0.2175 2:0.0068230987 3:4.7710843 4:6.2871622 
32 1:0.05 2:0 3:5.5238095 4:6.9375 
32 1:0.14 2:0.089201878 3:4.9090909 4:6.4661017 
32 1:0.09 2:0.017011117 3:5.2325581 4:6.7232704 
32 1:0.75 2:0 3:7.540146 4:4.2393822 
32 1:0.15 2:0 3:4.9534884 4:6.483871 
32 1:0.12 2:0.15578652 3:5.0930233 4:6.6050955 
32 1:0.3675 2:0.008785854 3:4.0481928 4:5.5833333 
32 1:0.8 2:0.20224719 3:4.1372549 4:7.5454545 
32 1:0.28 2:0.16372796 3:4.2727273 4:5.8648649 
32 1:0.33333333 2:0.19972261 3:4.5820896 4:6.4054054 
32 1:0.48888889 2:0.16372796 3:3.7462687 4:5.4230769 
32 1:0.75 2:0 3:7.540146 4:4.2393822 
32 1:0.13 2:0 3:5.1428571 4:6.625 
32 1:0.08 2:0.063542494 3:5.1818182 4:6.7024793 
32 1:0.225 2:0.0016694491 3:4.6046512 4:6.1666667 
32 1:0.345 2:0.013340544 3:4.0465116 4:5.6126761 
32 1:0.18 2:0.043273754 3:4.8139535 4:6.3594771 
32 1:0.12 2:0 3:5.0930233 4:6.6050955 
32 1:0.18 2:0.010318143 3:4.8139535 4:6.3594771 
32 1:0.26666667 2:0 3:5.2352941 4:7 
32 1:0.14 2:0.04609475 3:5.0952381 4:6.5844156 
32 1:0.75 2:0 3:7.540146 4:4.2393822 
32 1:0.24 2:0.13729186 3:4.4545455 4:6.0442478 
32 1:0.23 2:0 3:4.6666667 4:6.2027027 
32 1:0.195 2:0.19848326 3:4.744186 4:6.2960526 
32 1:0.22 2:0.092981511 3:4.7142857 4:6.2466368 
32 1:0.75 2:0 3:7.540146 4:4.2393822 
32 1:0.24 2:0.17700916 3:4.4545455 4:6.0442478 
32 1:0.23 2:0.059472759 3:4.6666667 4:6.2027027 
32 1:0.1 2:0.0058921732 3:5.2857143 4:6.7446809 
32 1:0.09 2:0.22485207 3:5.2325581 4:6.7232704 
32 1:0.18 2:0.067203163 3:4.9047619 4:6.4185022 
32 1:0.53333333 2:0.16424294 3:3.5074627 4:5.1176471 
32 1:0.24 2:0 3:4.4545455 4:6.0442478 
32 1:0.75 2:0.35616438 3:7.540146 4:4.2393822 
32 1:0.1 2:0 3:5.0909091 4:6.625 
32 1:0.15 2:0.10609382 3:4.9534884 4:6.483871 
32 1:0.8 2:0.032786885 3:4.1372549 4:7.5454545 
32 1:0.75 2:0 3:7.540146 4:4.2393822 
32 1:0.75 2:0 3:7.540146 4:4.2393822 
32 1:0.37777778 2:0.015063141 3:4.3432836 4:6.1376147 
32 1:0.14 2:0.052434457 3:5.0952381 4:6.5844156 
32 1:0.18 2:0.050244698 3:4.9047619 4:6.4185022 
32 1:0.75 2:0 3:7.540146 4:4.2393822 
32 1:0.75 2:0.10810811 3:7.540146 4:4.2393822 
32 1:0.2175 2:0.078408811 3:4.7710843 4:6.2871622 
32 1:0.8 2:0.25192802 3:4.1372549 4:7.5454545 
32 1:0.01 2:0 3:5.7142857 4:7.0860656 
32 1:0.75 2:0.20224719 3:7.540146 4:4.2393822 
32 1:0.31111111 2:0.23707637 3:4.7014925 4:6.5357143 
32 1:0.75 2:0 3:7.540146 4:4.2393822 
32 1:0.285 2:0.0074278184 3:4.3255814 4:5.8972603 
32 1:0.14814815 2:0.0047093816 3:5.9197861 4:7.6473988 
32 1:0.16 2:0.076190476 3:5 4:6.5021834 
32 1:0.17777778 2:0.084733382 3:5.4179104 4:7.2711864 
32 1:0.13333333 2:0.057380241 3:6.0053476 4:7.7241379 
32 1:0.18 2:0.19972261 3:4.7272727 4:6.3017241 
32 1:0.11 2:0.067562422 3:5.2380952 4:6.7051282 
32 1:0.75 2:0 3:7.540146 4:4.2393822 
32 1:0.09 2:0.023385867 3:5.2325581 4:6.7232704 
32 1:0.36296296 2:0.028692199 3:4.6791444 4:6.4258675 
32 1:0.8 2:0.03960396 3:4.1372549 4:7.5454545 
32 1:0.22 2:0.12371957 3:4.7142857 4:6.2466368 
32 1:0.15555556 2:0.042918455 3:5.5373134 4:7.3865546 
32 1:0.14074074 2:0.058410226 3:5.9625668 4:7.685879 
32 1:0.46666667 2:0.021545667 3:3.8656716 4:5.5714286 
32 1:0.09 2:0.10564748 3:5.3333333 4:6.7838983 
32 1:0.75 2:0.23529412 3:7.540146 4:4.2393822 
32 1:0.225 2:0.024983807 3:4.6046512 4:6.1666667 
32 1:0.09 2:0.099827883 3:5.3333333 4:6.7838983 
32 1:0.2925 2:0.017514121 3:4.4096386 4:5.9475524 
32 1:0.75 2:0 3:7.540146 4:4.2393822 
32 1:0.08 2:0 3:5.3809524 4:6.8227848 
32 1:0.07 2:0 3:5.4285714 4:6.8613445 
32 1:0.35555556 2:0.0070344689 3:4.4626866 4:6.2727273 
32 1:0.165 2:0 3:4.8837209 4:6.4220779 
32 1:0.12 2:0 3:5.1904762 4:6.6652361 
32 1:0.405 2:0 3:3.8674699 4:5.3911439 
32 1:0.8 2:0.23529412 3:4.1372549 4:7.5454545 
32 1:0.8 2:0.23529412 3:4.1372549 4:7.5454545 
32 1:0.4 2:0.040385213 3:4.2238806 4:6 
10.41384298709959 1:0.8 2:0.29080119 3:4.1372549 4:7.5454545 
32 1:0.28888889 2:0.18204965 3:4.8208955 4:6.6637168 
32 1:0.24 2:0.098774081 3:4.4545455 4:6.0442478 
32 1:0.165 2:0.070818071 3:4.8837209 4:6.4220779 
32 1:0.12592593 2:0 3:6.0481283 4:7.7621777 
32 1:0.33333333 2:0.0029112082 3:4.5820896 4:6.4054054 
32 1:0.04 2:0.057760664 3:5.5714286 4:6.9751037 
15.61041705125801 1:0.8 2:0.0090497738 3:4.1372549 4:7.5454545 
32 1:0.16 2:0.0046734719 3:5 4:6.5021834 
32 1:0.31111111 2:0.24484244 3:4.7014925 4:6.5357143 
32 1:0.75 2:0 3:7.540146 4:4.2393822 
32 1:0.15 2:0.004425294 3:4.9534884 4:6.483871 
32 1:0.435 2:0.018211034 3:3.7228916 4:5.2322097 
32 1:0.75 2:0.33910035 3:7.540146 4:4.2393822 
32 1:0.18 2:0 3:4.8139535 4:6.3594771 
32 1:0.14 2:0.063291139 3:5.0952381 4:6.5844156 
32 1:0.75 2:0 3:7.540146 4:4.2393822 
32 1:0.2 2:0 3:5.2985075 4:7.1538462 
32 1:0.22222222 2:0.21222565 3:5.1791045 4:7.0344828 
32 1:0.13 2:0 3:5.1428571 4:6.625 
32 1:0.24 2:0.093775706 3:4.5348837 4:6.1006711 
32 1:0.09 2:0.027700831 3:5.3333333 4:6.7838983 
32 1:0.37777778 2:0.07890223 3:4.3432836 4:6.1376147 
32 1:0.75 2:0 3:7.540146 4:4.2393822 
32 1:0.8 2:0.15384615 3:4.1372549 4:7.5454545 
32 1:0.081481481 2:0.10706367 3:6.3048128 4:7.9859155 
32 1:0.165 2:0.12989066 3:4.8837209 4:6.4220779 
32 1:0.57777778 2:0.091709125 3:3.2686567 4:4.8 
32 1:0.75 2:0 3:7.540146 4:4.2393822 
32 1:0.39 2:0.17684382 3:3.8372093 4:5.3884892 
32 1:0.4 2:0.21718464 3:4.2238806 4:6 
32 1:0.12 2:0.1578226 3:5 4:6.5462185 
32 1:0.75 2:0 3:7.540146 4:4.2393822 
32 1:0.8 2:0.27692308 3:4.1372549 4:7.5454545 
32 1:0.27 2:0.02654189 3:4.4761905 4:6.0229358 
32 1:0.23 2:0.043810494 3:4.6666667 4:6.2027027 
32 1:0.28888889 2:0.040016333 3:4.8208955 4:6.6637168 
32 1:0.75 2:0 3:7.540146 4:4.2393822 
32 1:0.3525 2:0 3:4.1204819 4:5.6582734 
32 1:0.75 2:0 3:7.540146 4:4.2393822 
32 1:0.75 2:0 3:7.540146 4:4.2393822 
32 1:0.135 2:0 3:5.0232558 4:6.5448718 
32 1:0.21 2:0.092603728 3:4.7619048 4:6.2901786 
32 1:0.19 2:0 3:4.8571429 4:6.3761062 
32 1:0.17037037 2:0 3:5.7914439 4:7.5306122 
32 1:0.16296296 2:0 3:5.8342246 4:7.5697674 
32 1:0.75 2:0 3:7.540146 4:4.2393822 
32 1:0.165 2:0.026852312 3:4.8837209 4:6.4220779 
32 1:0.14814815 2:0.12207239 3:5.9197861 4:7.6473988 
32 1:0.11111111 2:0.27045576 3:5.7761194 4:7.6115702 
32 1:0.045 2:0 3:5.4418605 4:6.8950617 
32 1:0.75 2:0 3:7.540146 4:4.2393822 
32 1:0.15 2:0.020370748 3:4.9534884 4:6.483871 
32 1:0.8 2:0.15384615 3:4.1372549 4:7.5454545 
32 1:0.83663196 2:0 3:3.7916667 4:5.0232558 
32 1:0.75 2:0 3:7.540146 4:4.2393822 
32 1:0.17 2:0 3:4.952381 4:6.4605263 
32 1:0.75 2:0 3:7.540146 4:4.2393822 
32 1:0.1037037 2:0 3:6.1764706 4:7.875 
32 1:0.8 2:0.20224719 3:4.1372549 4:7.5454545 
32 1:0.31111111 2:0.13729186 3:4.7014925 4:6.5357143 
32 1:0.14 2:0.10663823 3:5.0952381 4:6.5844156 
32 1:0.3 2:0.077714286 3:4.255814 4:5.8275862 
32 1:0.09 2:0 3:5.3333333 4:6.7838983 
32 1:0.8 2:0.27692308 3:4.1372549 4:7.5454545 
32 1:0.42222222 2:0.21517105 3:4.1044776 4:5.8598131 
32 1:0.15 2:0 3:4.9534884 4:6.483871 
32 1:0.75 2:0 3:7.540146 4:4.2393822 
32 1:0.75 2:0.4 3:7.540146 4:4.2393822 
32 1:0.26666667 2:0.1904135 3:4.9402985 4:6.7894737 
32 1:0.13333333 2:0.020380435 3:5.6567164 4:7.5 
32 1:0.12 2:0 3:5 4:6.5462185 
32 1:0.225 2:0.0044212574 3:4.6046512 4:6.1666667 
32 1:0.2 2:0.1463096 3:4.6363636 4:6.2173913 
32 1:0.28 2:0.088177283 3:4.2727273 4:5.8648649 
32 1:0.18 2:0 3:4.8139535 4:6.3594771 
32 1:0.75 2:0 3:7.540146 4:4.2393822 
32 1:0.8 2:0.20224719 3:4.1372549 4:7.5454545 
32 1:0.23 2:0.12020798 3:4.6666667 4:6.2027027 
32 1:0.8 2:0.128 3:4.1372549 4:7.5454545 
32 1:0.18 2:0.085070892 3:4.8139535 4:6.3594771 
32 1:0.225 2:0.014067995 3:4.6046512 4:6.1666667 
32 1:0.75 2:0 3:7.540146 4:4.2393822 
32 1:0.8 2:0.25192802 3:4.1372549 4:7.5454545 
32 1:0.22222222 2:0.059514235 3:5.1791045 4:7.0344828 
32 1:0.195 2:0.11158798 3:4.744186 4:6.2960526 
32 1:0.15 2:0.070880095 3:4.9534884 4:6.483871 
32 1:0.195 2:0.20046814 3:4.744186 4:6.2960526 
32 1:0.15 2:0.052942637 3:4.9534884 4:6.483871 
32 1:0.1 2:0.061593281 3:5.2857143 4:6.7446809 
32 1:0.105 2:0.1713988 3:5.1627907 4:6.664557 
32 1:0.2962963 2:0 3:5.0641711 4:6.8282209 
32 1:0.16 2:0 3:5 4:6.5021834 
32 1:0.8 2:0.066914498 3:4.1372549 4:7.5454545 
32 1:0.75 2:0 3:7.540146 4:4.2393822 
32 1:0.165 2:0.19246862 3:4.8837209 4:6.4220779 
32 1:0.22222222 2:0 3:5.1791045 4:7.0344828 
32 1:0.12 2:0.068801601 3:5.0930233 4:6.6050955 
32 1:0.84558527 2:0.024093441 3:25.455882 4:4.3635922 
32 1:0.18 2:0.058289175 3:4.8139535 4:6.3594771 
32 1:0.05 2:0.17836812 3:5.5238095 4:6.9375 
32 1:0.26666667 2:0 3:4.9402985 4:6.7894737 
32 1:0.8 2:0.15384615 3:4.1372549 4:7.5454545 
32 1:0.75 2:0 3:7.540146 4:4.2393822 
32 1:0.06 2:0.30985915 3:5.2727273 4:6.7786885 
32 1:0.75 2:0.30188679 3:7.540146 4:4.2393822 
32 1:0.1 2:0 3:5.2857143 4:6.7446809 
32 1:0.04 2:0 3:5.3636364 4:6.8536585 
32 1:0.75 2:0 3:7.540146 4:4.2393822 
32 1:0.75 2:0 3:7.540146 4:4.2393822 
32 1:0.2 2:0.13918306 3:4.6363636 4:6.2173913 
32 1:0.75 2:0 3:7.540146 4:4.2393822 
32 1:0.22222222 2:0.28245775 3:5.1791045 4:7.0344828 
32 1:0.26666667 2:0.13666987 3:4.9402985 4:6.7894737 
32 1:0.28888889 2:0 3:4.8208955 4:6.6637168 
32 1:0.21 2:0.024587285 3:4.7619048 4:6.2901786 
32 1:0.8 2:0.27692308 3:4.1372549 4:7.5454545 
32 1:0.75 2:0 3:7.540146 4:4.2393822 
32 1:0.09 2:0.0027469097 3:5.2325581 4:6.7232704 
32 1:0.165 2:0.20726783 3:4.8837209 4:6.4220779 
32 1:0.17 2:0.12267658 3:4.952381 4:6.4605263 
32 1:0.15 2:0.011472275 3:4.9534884 4:6.483871 
32 1:0.165 2:0.12371134 3:4.8837209 4:6.4220779 
32 1:0.16296296 2:0.057057802 3:5.8342246 4:7.5697674 
32 1:0.2 2:0.077718103 3:5.6203209 4:7.3716814 
32 1:0.8 2:0.18050542 3:4.1372549 4:7.5454545 
32 1:0.345 2:0.090634441 3:4.0465116 4:5.6126761 
32 1:0.2025 2:0 3:4.8433735 4:6.352349 
32 1:0.17777778 2:0.060771968 3:5.7486631 4:7.4912281 
32 1:0.8 2:0.18050542 3:4.1372549 4:7.5454545 
32 1:0.15 2:0 3:5.047619 4:6.5434783 
32 1:0.2 2:0.18013414 3:4.6363636 4:6.2173913 
32 1:0.195 2:0 3:4.744186 4:6.2960526 
32 1:0.1037037 2:0.051926014 3:6.1764706 4:7.875 
32 1:0.2 2:0.093603744 3:5.2985075 4:7.1538462 
32 1:0.075 2:0 3:5.3023256 4:6.78125 
32 1:0.8 2:0.25906736 3:4.1372549 4:7.5454545 
32 1:0.75 2:0 3:7.540146 4:4.2393822 
32 1:0.45 2:0.012330456 3:3.5581395 4:5.0740741 
32 1:0.16 2:0.056706652 3:5 4:6.5021834 
32 1:0.165 2:0.0086473132 3:4.8837209 4:6.4220779 
32 1:0.37777778 2:0.071428571 3:4.3432836 4:6.1376147 
32 1:0.14074074 2:0 3:5.9625668 4:7.685879 
32 1:0.18 2:0.003630337 3:4.9047619 4:6.4185022 
32 1:0.75 2:0 3:7.540146 4:4.2393822 
32 1:0.165 2:0.093052109 3:4.8837209 4:6.4220779 
32 1:0.18 2:0.087712367 3:4.9047619 4:6.4185022 
32 1:0.15555556 2:0.067484663 3:5.5373134 4:7.3865546 
32 1:0.8 2:0.25192802 3:4.1372549 4:7.5454545 
21.78934931546705 1:0.8 2:0.0090497738 3:4.1372549 4:7.5454545 
32 1:0.8 2:0.16666667 3:4.1372549 4:7.5454545 
32 1:0.21481481 2:0.12199037 3:5.5347594 4:7.2908012 
32 1:0.22222222 2:0.090096798 3:5.1791045 4:7.0344828 
32 1:0.14 2:0.093603744 3:4.9090909 4:6.4661017 
32 1:0.75 2:0 3:7.540146 4:4.2393822 
32 1:0.8 2:0.128 3:4.1372549 4:7.5454545 
32 1:0.195 2:0.16098321 3:4.744186 4:6.2960526 
32 1:0.135 2:0.07158981 3:5.0232558 4:6.5448718 
32 1:0.195 2:0 3:4.744186 4:6.2960526 
11.61402865158315 1:0.8 2:0.29080119 3:4.1372549 4:7.5454545 
32 1:0.28888889 2:0.11755455 3:4.8208955 4:6.6637168 
32 1:0.24 2:0.0057803468 3:4.6190476 4:6.158371 
32 1:0.8 2:0.25192802 3:4.1372549 4:7.5454545 
32 1:0.2 2:0 3:5.2985075 4:7.1538462 
32 1:0.75 2:0 3:7.540146 4:4.2393822 
32 1:0.26666667 2:0.02654189 3:5.2352941 4:7 
32 1:0.08 2:0 3:5.3809524 4:6.8227848 
32 1:0.75 2:0 3:7.540146 4:4.2393822 
32 1:0.11 2:0.032326072 3:5.2380952 4:6.7051282 
32 1:0.75 2:0.33027523 3:7.540146 4:4.2393822 
32 1:0.19259259 2:0.13608247 3:5.6631016 4:7.4117647 
32 1:0.18518519 2:0.063578826 3:5.7058824 4:7.4516129 
32 1:0.14 2:0.072590738 3:4.9090909 4:6.4661017 
32 1:0.06 2:0.22568093 3:5.2727273 4:6.7786885 
32 1:0.165 2:0 3:4.8837209 4:6.4220779 
32 1:0.15 2:0.11989543 3:4.9534884 4:6.483871 
32 1:0.2 2:0.028771804 3:4.6363636 4:6.2173913 
32 1:0.135 2:0 3:5.0232558 4:6.5448718 
32 1:0.16 2:0.090096798 3:4.8181818 4:6.3846154 
32 1:0.135 2:0.094597959 3:5.0232558 4:6.5448718 
32 1:0.8 2:0.20224719 3:4.1372549 4:7.5454545 
32 1:0.195 2:0.21032505 3:4.744186 4:6.2960526 
32 1:0.8 2:0.097560976 3:4.1372549 4:7.5454545 
32 1:0.195 2:0 3:4.744186 4:6.2960526 
32 1:0.2 2:0.14198363 3:5.2985075 4:7.1538462 
32 1:0.85034454 2:0.016458029 3:4.44 4:4.5483871 
32 1:0.17 2:0.082940622 3:4.952381 4:6.4605263 
32 1:0.14074074 2:0.1574344 3:5.9625668 4:7.685879 
32 1:0.1037037 2:0.026315789 3:6.1764706 4:7.875 
32 1:0.165 2:0.054034582 3:4.8837209 4:6.4220779 
32 1:0.14 2:0 3:5.0952381 4:6.5844156 
32 1:0.83171872 2:1.1016798 3:5.6538462 4:3.0902778 
32 1:0.195 2:0.083362279 3:4.744186 4:6.2960526 
32 1:0.18 2:0.063908702 3:4.8139535 4:6.3594771 
32 1:0.15555556 2:0.026314101 3:5.8770053 4:7.6086957 
32 1:0.12 2:0 3:5.0930233 4:6.6050955 
32 1:0.75 2:0 3:7.540146 4:4.2393822 
32 1:0.83766821 2:2.0033544 3:4.6666667 4:3.7951807 
32 1:0.8 2:0.18823529 3:4.1372549 4:7.5454545 
32 1:0.225 2:0.064516129 3:4.6046512 4:6.1666667 
32 1:0.27 2:0.063129919 3:4.5180723 4:6.0519031 
32 1:0.75 2:0 3:7.540146 4:4.2393822 
32 1:0.41481481 2:0 3:4.3796791 4:6.0967742 
32 1:0.18 2:0 3:4.9047619 4:6.4185022 
32 1:0.195 2:0 3:4.744186 4:6.2960526 
32 1:0.8 2:0.18823529 3:4.1372549 4:7.5454545 
32 1:0.08 2:0.090575275 3:5.1818182 4:6.7024793 
32 1:0.15555556 2:0 3:5.8770053 4:7.6086957 
32 1:0.8 2:0.25192802 3:4.1372549 4:7.5454545 
32 1:0.17777778 2:0.042932813 3:5.7486631 4:7.4912281 
32 1:0.75 2:0 3:7.540146 4:4.2393822 
32 1:0.315 2:0.11501597 3:4.1860465 4:5.7569444 
32 1:0.07 2:0 3:5.4285714 4:6.8613445 
32 1:0.15 2:0 3:5.047619 4:6.5434783 
32 1:0.3975 2:0 3:3.9036145 4:5.4301471 
32 1:0.26 2:0 3:4.3636364 4:5.9553571 
32 1:0.135 2:0 3:5.0232558 4:6.5448718 
32 1:0.19259259 2:0.12592869 3:5.6631016 4:7.4117647 
32 1:0.75 2:0 3:7.540146 4:4.2393822 
32 1:0.165 2:0 3:4.8837209 4:6.4220779 
32 1:0.22222222 2:0.19327731 3:5.1791045 4:7.0344828 
32 1:0.13 2:0.093361777 3:5.1428571 4:6.625 
32 1:0.14 2:0.077718103 3:5.0952381 4:6.5844156 
32 1:0.4275 2:0 3:3.7590361 4:5.2723881 
32 1:0.42 2:0.095395826 3:3.6976744 4:5.2335766 
-32 1:0.19259259 2:0.14087618 3:5.6631016 4:7.4117647 
-0.4638922013777151 1:0.83900264 2:0.26719069 3:25.815385 4:4.5046875 
-32 1:0.8 2:0.4 3:4.1372549 4:7.5454545 
-32 1:0.195 2:0.0097808368 3:4.744186 4:6.2960526 
-32 1:0.20740741 2:0.12349573 3:5.5775401 4:7.3313609 
-32 1:0.37777778 2:0.1952304 3:4.3432836 4:6.1376147 
-32 1:0.2775 2:0 3:4.4819277 4:6.0173611 
-32 1:0.15555556 2:0.29508197 3:5.5373134 4:7.3865546 
-32 1:0.18518519 2:0.0089292708 3:5.7058824 4:7.4516129 
-32 1:0.22222222 2:0.17557031 3:5.1791045 4:7.0344828 
-32 1:0.21481481 2:0 3:5.5347594 4:7.2908012 
-32 1:0.8 2:0.4 3:4.1372549 4:7.5454545 
-32 1:0.24 2:0.0086206897 3:4.5348837 4:6.1006711 
-32 1:0.2475 2:0.019387414 3:4.626506 4:6.1541096 
-32 1:0.25185185 2:0 3:5.3208556 4:7.0843373 
-32 1:0.255 2:0.062563068 3:4.4651163 4:6.0337838 
-27.85561366159324 1:0.255 2:0.06678368 3:4.5903614 4:6.1202749 
-32 1:0.28148148 2:0.047152421 3:5.1497326 4:6.9146341 
-32 1:0.8 2:0.35140998 3:4.1372549 4:7.5454545 
-32 1:0.8 2:0.23529412 3:4.1372549 4:7.5454545 
-32 1:0.21 2:0.075346993 3:4.6744186 4:6.2317881 
-32 1:0.27 2:0.046184739 3:4.5180723 4:6.0519031 
-32 1:0.35555556 2:0.042196305 3:4.4626866 4:6.2727273 
-32 1:0.26 2:0 3:4.5238095 4:6.0684932 
-32 1:0.26666667 2:0.28174084 3:4.9402985 4:6.7894737 
-32 1:0.255 2:0.12051419 3:4.4651163 4:6.0337838 
-32 1:0.22 2:0.0033810436 3:4.7142857 4:6.2466368 
-32 1:0.8 2:0.33027523 3:4.1372549 4:7.5454545 
-32 1:0.24 2:0 3:4.5348837 4:6.1006711 
-32 1:0.21 2:0.033983638 3:4.6744186 4:6.2317881 
-32 1:0.23703704 2:0.10881479 3:5.4064171 4:7.1676647 
-32 1:0.2 2:0.11149256 3:5.6203209 4:7.3716814 
-32 1:0.2625 2:0.085052094 3:4.5542169 4:6.0862069 
-32 1:0.33333333 2:0.17142857 3:4.5820896 4:6.4054054 
-32 1:0.2625 2:0.065296252 3:4.5542169 4:6.0862069 
-0.07774419784584959 1:0.75 2:0 3:7.540146 4:4.2393822 
-32 1:0.195 2:0.085007728 3:4.744186 4:6.2960526 
-32 1:0.2775 2:0 3:4.4819277 4:6.0173611 
-32 1:0.19259259 2:0.052369617 3:5.6631016 4:7.4117647 
-32 1:0.225 2:0.10909091 3:4.6046512 4:6.1666667 
-32 1:0.8 2:0.24289406 3:4.1372549 4:7.5454545 
-32 1:0.31111111 2:0.16060398 3:4.7014925 4:6.5357143 
-32 1:0.8 2:0.048780488 3:4.1372549 4:7.5454545 
-32 1:0.17037037 2:0 3:5.7914439 4:7.5306122 
-32 1:0.15555556 2:0.021948488 3:5.5373134 4:7.3865546 
-32 1:0.838913 2:2.0933231 3:6.1785714 4:3.7480315 
-32 1:0.28 2:0 3:4.4285714 4:5.9769585 
-32 1:0.22222222 2:0.13594677 3:5.1791045 4:7.0344828 
-32 1:0.28 2:0.11192214 3:4.4285714 4:5.9769585 
-32 1:0.27407407 2:0 3:5.1925134 4:6.9574468 
-32 1:0.22222222 2:0.080267559 3:5.1791045 4:7.0344828 
-32 1:0.28888889 2:0 3:5.1069519 4:6.8715596 
-32 1:0.18518519 2:0.032679739 3:5.7058824 4:7.4516129 
-32 1:0.20740741 2:0.047722343 3:5.5775401 4:7.3313609 
-32 1:0.2 2:0.086813351 3:5.2985075 4:7.1538462 
-32 1:0.23 2:0 3:4.6666667 4:6.2027027 
-32 1:0.21 2:0 3:4.6744186 4:6.2317881 
-32 1:0.23703704 2:0 3:5.4064171 4:7.1676647 
-32 1:0.17037037 2:0 3:5.7914439 4:7.5306122 
-32 1:0.2625 2:0.010205028 3:4.5542169 4:6.0862069 
-32 1:0.22962963 2:0.031109575 3:5.4491979 4:7.2089552 
-32 1:0.27 2:0 3:4.5180723 4:6.0519031 
-32 1:0.18 2:0 3:4.7272727 4:6.3017241 
-32 1:0.2 2:0.087542088 3:5.2985075 4:7.1538462 
-32 1:0.8 2:0.35140998 3:4.1372549 4:7.5454545 
-32 1:0.195 2:0.069397147 3:4.744186 4:6.2960526 
-32 1:0.19259259 2:0.0048192771 3:5.6631016 4:7.4117647 
-32 1:0.17777778 2:0.20447637 3:5.4179104 4:7.2711864 
-32 1:0.22222222 2:0.047738274 3:5.4919786 4:7.25 
-32 1:0.2962963 2:0.040744411 3:5.0641711 4:6.8282209 
-32 1:0.27 2:0 3:4.3953488 4:5.9659864 
-32 1:0.18 2:0.012652368 3:4.8139535 4:6.3594771 
-32 1:0.26666667 2:0.086780005 3:5.2352941 4:7 
-32 1:0.34074074 2:0.080686695 3:4.8074866 4:6.5625 
-32 1:0.11111111 2:0 3:5.7761194 4:7.6115702 
-32 1:0.195 2:0.1738651 3:4.744186 4:6.2960526 
-32 1:0.19259259 2:0.095717884 3:5.6631016 4:7.4117647 
-32 1:0.255 2:0.051219084 3:4.5903614 4:6.1202749 
-32 1:0.24 2:0 3:4.5348837 4:6.1006711 
-32 1:0.24 2:0.065224626 3:4.6190476 4:6.158371 
-32 1:0.225 2:0.15170365 3:4.6046512 4:6.1666667 
-32 1:0.83864558 2:1.9977691 3:7.28125 4:3.1055046 
-32 1:0.225 2:0.094517958 3:4.6046512 4:6.1666667 
-32 1:0.225 2:0.12923077 3:4.6046512 4:6.1666667 
-32 1:0.28 2:0.040744411 3:4.4285714 4:5.9769585 
-32 1:0.225 2:0.14427157 3:4.6046512 4:6.1666667 
-11.1338071009718 1:0.27 2:0.078642686 3:4.5180723 4:6.0519031 
-32 1:0.15555556 2:0.14690546 3:5.5373134 4:7.3865546 
-32 1:0.26 2:0.19919964 3:4.3636364 4:5.9553571 
-32 1:0.22962963 2:0 3:5.4491979 4:7.2089552 
-32 1:0.285 2:0.15724915 3:4.3255814 4:5.8972603 
-23.25904421642031 1:0.75 2:0 3:7.540146 4:4.2393822 
-32 1:0.22222222 2:0.094507518 3:5.4919786 4:7.25 
-32 1:0.22222222 2:0 3:5.1791045 4:7.0344828 
-32 1:0.25185185 2:0 3:5.3208556 4:7.0843373 
-32 1:0.24 2:0.11899689 3:4.6190476 4:6.158371 
-32 1:0.27 2:0.070225709 3:4.5180723 4:6.0519031 
-32 1:0.75 2:0 3:7.540146 4:4.2393822 
-32 1:0.75 2:0 3:7.540146 4:4.2393822 
-32 1:0.75 2:0 3:7.540146 4:4.2393822 
-32 1:0.2 2:0.16074189 3:4.6363636 4:6.2173913 
-32 1:0.17777778 2:0.063291139 3:5.7486631 4:7.4912281 
-32 1:0.75 2:0 3:7.540146 4:4.2393822 
-32 1:0.27 2:0.070322128 3:4.5180723 4:6.0519031 
-32 1:0.27 2:0.01350211 3:4.4761905 4:6.0229358 
-32 1:0.2 2:0.27705232 3:4.6363636 4:6.2173913 
-32 1:0.19259259 2:0.050725177 3:5.6631016 4:7.4117647 
-32 1:0.17037037 2:0 3:5.7914439 4:7.5306122 
-32 1:0.16 2:0.13453266 3:4.8181818 4:6.3846154 
-32 1:0.23 2:0.05519396 3:4.6666667 4:6.2027027 
-32 1:0.75 2:0 3:7.540146 4:4.2393822 
-32 1:0.25185185 2:0.059625753 3:5.3208556 4:7.0843373 
-32 1:0.2 2:0.096463023 3:4.6363636 4:6.2173913 
-32 1:0.75 2:0 3:7.540146 4:4.2393822 
-32 1:0.25185185 2:0.089978138 3:5.3208556 4:7.0843373 
-32 1:0.27 2:0.018054986 3:4.5180723 4:6.0519031 
-32 1:0.25185185 2:0.0071475595 3:5.3208556 4:7.0843373 
-32 1:0.28 2:0.089978138 3:4.4285714 4:5.9769585 
-32 1:0.19259259 2:0.0050921072 3:5.6631016 4:7.4117647 
-32 1:0.75 2:0 3:7.540146 4:4.2393822 
-32 1:0.23703704 2:0 3:5.4064171 4:7.1676647 
-32 1:0.35555556 2:0.16825374 3:4.4626866 4:6.2727273 
-32 1:0.8 2:0.4 3:4.1372549 4:7.5454545 
-32 1:0.2475 2:0 3:4.626506 4:6.1541096 
-32 1:0.75 2:0 3:7.540146 4:4.2393822 
-32 1:0.83645851 2:0.32321037 3:6.4482759 4:3.5684932 
-32 1:0.8 2:0 3:4.1372549 4:7.5454545 
-32 1:0.18 2:0.076794658 3:4.7272727 4:6.3017241 
-32 1:0.2 2:0.074990133 3:5.2985075 4:7.1538462 
-32 1:0.285 2:0.096753544 3:4.3255814 4:5.8972603 
-32 1:0.285 2:0 3:4.3255814 4:5.8972603 
-32 1:0.13333333 2:0.1480933 3:5.6567164 4:7.5 
-32 1:0.17777778 2:0.25285787 3:5.4179104 4:7.2711864 
-32 1:0.27407407 2:0 3:5.1925134 4:6.9574468 
-32 1:0.26666667 2:0 3:5.2352941 4:7 
-32 1:0.15555556 2:0.28006831 3:5.5373134 4:7.3865546 
-32 1:0.24 2:0.078018576 3:4.4545455 4:6.0442478 
-32 1:0.18 2:0 3:4.8139535 4:6.3594771 
-32 1:0.15555556 2:0.10437775 3:5.5373134 4:7.3865546 
-32 1:0.25185185 2:0.065224626 3:5.3208556 4:7.0843373 
-32 1:0.75 2:0 3:7.540146 4:4.2393822 
-32 1:0.26 2:0.1971831 3:4.3636364 4:5.9553571 
-32 1:0.37777778 2:0.1463096 3:4.3432836 4:6.1376147 
-32 1:0.255 2:0.071630537 3:4.4651163 4:6.0337838 
-32 1:0.195 2:0.13891362 3:4.744186 4:6.2960526 
-27.7388174228811 1:0.088888889 2:0.042926829 3:5.8955224 4:7.7213115 
-32 1:0.23 2:0.0065841041 3:4.6666667 4:6.2027027 
-32 1:0.8 2:0.25906736 3:4.1372549 4:7.5454545 
-32 1:0.75 2:0 3:7.540146 4:4.2393822 
-32 1:0.2775 2:0 3:4.4819277 4:6.0173611 
-32 1:0.27 2:0 3:4.5180723 4:6.0519031 
-32 1:0.26 2:0 3:4.5238095 4:6.0684932 
-32 1:0.24 2:0.10273296 3:4.4545455 4:6.0442478 
-32 1:0.75 2:0 3:7.540146 4:4.2393822 
-32 1:0.18 2:0.0064493013 3:4.7272727 4:6.3017241 
-32 1:0.22222222 2:0.11969732 3:5.1791045 4:7.0344828 
-32 1:0.27 2:0.0074481291 3:4.5180723 4:6.0519031 
-32 1:0.2962963 2:0.074613502 3:5.0641711 4:6.8282209 
-32 1:0.19259259 2:0.14925373 3:5.6631016 4:7.4117647 
-32 1:0.24444444 2:0.054844607 3:5.3636364 4:7.1261261 
-32 1:0.255 2:0.053729169 3:4.5903614 4:6.1202749 
-32 1:0.37777778 2:0.10273296 3:4.3432836 4:6.1376147 
-32 1:0.16 2:0.010008249 3:4.8181818 4:6.3846154 
-32 1:0.26 2:0 3:4.5238095 4:6.0684932 
-32 1:0.21481481 2:0.080237741 3:5.5347594 4:7.2908012 
-32 1:0.18 2:0 3:4.7272727 4:6.3017241 
-32 1:0.26666667 2:0 3:5.2352941 4:7 
-32 1:0.18 2:0 3:4.8139535 4:6.3594771 
-32 1:0.27 2:0.085392977 3:4.4761905 4:6.0229358 
-32 1:0.75 2:0 3:7.540146 4:4.2393822 
-32 1:0.25 2:0 3:4.5714286 4:6.1136364 
-32 1:0.20740741 2:0.00041949241 3:5.5775401 4:7.3313609 
-32 1:0.11111111 2:0.065365117 3:5.7761194 4:7.6115702 
-32 1:0.17777778 2:0.024822376 3:5.7486631 4:7.4912281 
-32 1:0.2 2:0 3:5.6203209 4:7.3716814 
-32 1:0.24 2:0 3:4.6190476 4:6.158371 
-32 1:0.21481481 2:0.094756791 3:5.5347594 4:7.2908012 
-32 1:0.23 2:0.012042884 3:4.6666667 4:6.2027027 
-32 1:0.15555556 2:0.10169492 3:5.5373134 4:7.3865546 
-32 1:0.23 2:0.047152421 3:4.6666667 4:6.2027027 
-32 1:0.28 2:0.00047551117 3:4.4285714 4:5.9769585 
-32 1:0.24 2:0 3:4.6190476 4:6.158371 
-32 1:0.25925926 2:0.096724138 3:5.2780749 4:7.0422961 
-32 1:0.75 2:0 3:7.540146 4:4.2393822 
-32 1:0.2 2:0.07537248 3:5.6203209 4:7.3716814 
-32 1:0.26 2:0.014948392 3:4.3636364 4:5.9553571 
-32 1:0.75 2:0 3:7.540146 4:4.2393822 
-32 1:0.22 2:0 3:4.7142857 4:6.2466368 
-32 1:0.75 2:0 3:7.540146 4:4.2393822 
-32 1:0.195 2:0 3:4.744186 4:6.2960526 
-32 1:0.22222222 2:0.044195019 3:5.1791045 4:7.0344828 
-32 1:0.75 2:0 3:7.540146 4:4.2393822 
-32 1:0.20740741 2:0 3:5.5775401 4:7.3313609 
-32 1:0.46666667 2:0.1167002 3:3.8656716 4:5.5714286 
-32 1:0.255 2:0.061538462 3:4.4651163 4:6.0337838 
-32 1:0.2 2:0.1850362 3:4.6363636 4:6.2173913 
-32 1:0.18518519 2:0.10714286 3:5.7058824 4:7.4516129 
-32 1:0.75 2:0 3:7.540146 4:4.2393822 
-32 1:0.22962963 2:0 3:5.4491979 4:7.2089552 
-32 1:0.23 2:0.071759259 3:4.6666667 4:6.2027027 
-32 1:0.27407407 2:0.085392977 3:5.1925134 4:6.9574468 
-32 1:0.22962963 2:0.092603728 3:5.4491979 4:7.2089552 
-32 1:0.75 2:0 3:7.540146 4:4.2393822 
-32 1:0.75 2:0 3:7.540146 4:4.2393822 
-32 1:0.28888889 2:0.13511104 3:5.1069519 4:6.8715596 
-32 1:0.2475 2:0 3:4.626506 4:6.1541096 
-32 1:0.24444444 2:0 3:5.3636364 4:7.1261261 
-32 1:0.27 2:0.040496169 3:4.3953488 4:5.9659864 
-32 1:0.225 2:0 3:4.6046512 4:6.1666667 
-32 1:0.75 2:0 3:7.540146 4:4.2393822 
-32 1:0.84663796 2:0.73722138 3:12.265625 4:4.3418972 
-32 1:0.75 2:0 3:7.540146 4:4.2393822 
-32 1:0.46666667 2:0.050134288 3:3.8656716 4:5.5714286 
-32 1:0.31111111 2:0.017905476 3:4.7014925 4:6.5357143 
-32 1:0.2 2:0.25421572 3:5.2985075 4:7.1538462 
-32 1:0.75 2:0 3:7.540146 4:4.2393822 
-32 1:0.225 2:0.051688112 3:4.6046512 4:6.1666667 
-32 1:0.26 2:0 3:4.5238095 4:6.0684932 
-32 1:0.75 2:0 3:7.540146 4:4.2393822 
-32 1:0.46666667 2:0.1971831 3:3.8656716 4:5.5714286 
-32 1:0.285 2:0.048484848 3:4.3255814 4:5.8972603 
-32 1:0.18 2:0.01298233 3:4.8139535 4:6.3594771 
-32 1:0.2625 2:0 3:4.5542169 4:6.0862069 
-32 1:0.18 2:0.11611855 3:4.7272727 4:6.3017241 
-32 1:0.2 2:0.17557031 3:4.6363636 4:6.2173913 
-32 1:0.21 2:0 3:4.6744186 4:6.2317881 
-32 1:0.195 2:0.1103884 3:4.744186 4:6.2960526 
-32 1:0.24 2:0.12352941 3:4.5348837 4:6.1006711 
-32 1:0.17777778 2:0.069825436 3:5.7486631 4:7.4912281 
-32 1:0.37777778 2:0.16332616 3:4.3432836 4:6.1376147 
-32 1:0.33333333 2:0.061582872 3:4.5820896 4:6.4054054 
-32 1:0.21481481 2:0.0059341763 3:5.5347594 4:7.2908012 
-32 1:0.8 2:0.27692308 3:4.1372549 4:7.5454545 
-32 1:0.75 2:0 3:7.540146 4:4.2393822 
-32 1:0.25925926 2:0.075783672 3:5.2780749 4:7.0422961 
-32 1:0.75 2:0 3:7.540146 4:4.2393822 
-32 1:0.2 2:0.046650718 3:4.6363636 4:6.2173913 
-32 1:0.24444444 2:0 3:5.3636364 4:7.1261261 
-32 1:0.195 2:0.24338624 3:4.744186 4:6.2960526 
-32 1:0.75 2:0 3:7.540146 4:4.2393822 
-32 1:0.2775 2:0 3:4.4819277 4:6.0173611 
-32 1:0.23 2:0.075783672 3:4.6666667 4:6.2027027 
-32 1:0.75 2:0 3:7.540146 4:4.2393822 
-32 1:0.21 2:0.11633688 3:4.6744186 4:6.2317881 
-32 1:0.22222222 2:0 3:5.4919786 4:7.25 
-31.14270136364308 1:0.75 2:0 3:7.540146 4:4.2393822 
-32 1:0.2962963 2:0 3:5.0641711 4:6.8282209 
-32 1:0.20740741 2:0.025822809 3:5.5775401 4:7.3313609 
-32 1:0.2 2:0.0091837691 3:4.6363636 4:6.2173913 
-32 1:0.2775 2:0 3:4.4819277 4:6.0173611 
-32 1:0.21481481 2:0 3:5.5347594 4:7.2908012 
-32 1:0.16 2:0.21158424 3:4.8181818 4:6.3846154 
-32 1:0.16 2:0.079407339 3:4.8181818 4:6.3846154 
-32 1:0.285 2:0.11596789 3:4.3255814 4:5.8972603 
-32 1:0.27407407 2:0.1034358 3:5.1925134 4:6.9574468 
-32 1:0.4 2:0.025734081 3:4.2238806 4:6 
-32 1:0.15555556 2:0.017492711 3:5.5373134 4:7.3865546 
-32 1:0.18518519 2:0.0068483379 3:5.7058824 4:7.4516129 
-32 1:0.26666667 2:0.040913134 3:4.9402985 4:6.7894737 
-32 1:0.13333333 2:0.16399768 3:5.6567164 4:7.5 
-32 1:0.27 2:0.14691943 3:4.3953488 4:5.9659864 
-32 1:0.2625 2:0.057193137 3:4.5542169 4:6.0862069 
-32 1:0.26666667 2:0.063936064 3:4.9402985 4:6.7894737 
-32 1:0.23703704 2:0.021071115 3:5.4064171 4:7.1676647 
-32 1:0.26666667 2:0.17316841 3:4.9402985 4:6.7894737 
-32 1:0.75 2:0 3:7.540146 4:4.2393822 
-32 1:0.75 2:0 3:7.540146 4:4.2393822 
-32 1:0.33333333 2:0.10294039 3:4.5820896 4:6.4054054 
-32 1:0.19259259 2:0 3:5.6631016 4:7.4117647 
-32 1:0.75 2:0 3:7.540146 4:4.2393822 
-32 1:0.255 2:0.017596522 3:4.4651163 4:6.0337838 
-32 1:0.255 2:0.037931631 3:4.5903614 4:6.1202749 
-32 1:0.28888889 2:0.098070375 3:4.8208955 4:6.6637168 
-32 1:0.24 2:0.1555193 3:4.4545455 4:6.0442478 
-32 1:0.28 2:0.050134288 3:4.2727273 4:5.8648649 
-32 1:0.28 2:0.012618814 3:4.4285714 4:5.9769585 
-32 1:0.25185185 2:0.043802971 3:5.3208556 4:7.0843373 
-32 1:0.2 2:0.018805715 3:4.6363636 4:6.2173913 
-32 1:0.20740741 2:0.11094453 3:5.5775401 4:7.3313609 
-32 1:0.26666667 2:0.030170316 3:4.9402985 4:6.7894737 
-32 1:0.24444444 2:0.050428308 3:5.3636364 4:7.1261261 
-32 1:0.75 2:0 3:7.540146 4:4.2393822 
-32 1:0.285 2:0.0011435106 3:4.3255814 4:5.8972603 
-32 1:0.225 2:0.16568047 3:4.6046512 4:6.1666667 
-32 1:0.22222222 2:0.0091837691 3:5.1791045 4:7.0344828 
-32 1:0.75 2:0 3:7.540146 4:4.2393822 
-32 1:0.8 2:0.25192802 3:4.1372549 4:7.5454545 
-32 1:0.19259259 2:0 3:5.6631016 4:7.4117647 
-32 1:0.8 2:0.4 3:4.1372549 4:7.5454545 
-32 1:0.8 2:0.29080119 3:4.1372549 4:7.5454545 
-32 1:0.75 2:0 3:7.540146 4:4.2393822 
-32 1:0.2625 2:0.083839396 3:4.5542169 4:6.0862069 
-32 1:0.75 2:0 3:7.540146 4:4.2393822 
-2.906871060476051 1:0.18 2:0.028489526 3:4.8139535 4:6.3594771 
-32 1:0.2775 2:0 3:4.4819277 4:6.0173611 
-32 1:0.24 2:0.083376222 3:4.4545455 4:6.0442478 
-32 1:0.8 2:0.4 3:4.1372549 4:7.5454545 
-32 1:0.75 2:0 3:7.540146 4:4.2393822 
-32 1:0.17777778 2:0.12350299 3:5.7486631 4:7.4912281 
-32 1:0.2 2:0.071428571 3:4.6363636 4:6.2173913 
-32 1:0.22962963 2:0.10014306 3:5.4491979 4:7.2089552 
-32 1:0.4 2:0.24719101 3:4.2238806 4:6 
-32 1:0.4 2:0.19963629 3:4.2238806 4:6 
-32 1:0.25 2:0 3:4.5714286 4:6.1136364 
-32 1:0.225 2:0 3:4.6046512 4:6.1666667 
-32 1:0.195 2:0.048860604 3:4.744186 4:6.2960526 
-32 1:0.48888889 2:0.14349468 3:3.7462687 4:5.4230769 
-32 1:0.34074074 2:0.095688961 3:4.8074866 4:6.5625 
-32 1:0.75 2:0 3:7.540146 4:4.2393822 
-32 1:0.75 2:0 3:7.540146 4:4.2393822 
-32 1:0.088888889 2:0 3:5.8955224 4:7.7213115 
-32 1:0.24444444 2:0.0060341112 3:5.3636364 4:7.1261261 
-32 1:0.42222222 2:0.13448162 3:4.1044776 4:5.8598131 
-32 1:0.75 2:0 3:7.540146 4:4.2393822 
-32 1:0.75 2:0 3:7.540146 4:4.2393822 
-32 1:0.26 2:0 3:4.5238095 4:6.0684932 
-32 1:0.4 2:0.05026455 3:4.2238806 4:6 
-32 1:0.27 2:0 3:4.5180723 4:6.0519031 
-32 1:0.23703704 2:0.11733289 3:5.4064171 4:7.1676647 
-32 1:0.15555556 2:0.1708815 3:5.5373134 4:7.3865546 
-32 1:0.24444444 2:0.030085628 3:5.3636364 4:7.1261261 
-32 1:0.28888889 2:0 3:4.8208955 4:6.6637168 
-32 1:0.24 2:0.10060976 3:4.4545455 4:6.0442478 
-32 1:0.255 2:0.041383606 3:4.5903614 4:6.1202749 
-32 1:0.27 2:0.097332709 3:4.3953488 4:5.9659864 
-32 1:0.15555556 2:0.08050183 3:5.5373134 4:7.3865546 
-32 1:0.17777778 2:0.09001552 3:5.4179104 4:7.2711864 
-32 1:0.255 2:0 3:4.4651163 4:6.0337838 
-32 1:0.75 2:0 3:7.540146 4:4.2393822 
-32 1:0.28888889 2:0.073923291 3:4.8208955 4:6.6637168 
-32 1:0.24 2:0.023424556 3:4.4545455 4:6.0442478 
-32 1:0.195 2:0 3:4.744186 4:6.2960526 
-32 1:0.25 2:0.050428308 3:4.5714286 4:6.1136364 
-32 1:0.24 2:0.014750542 3:4.5348837 4:6.1006711 
-32 1:0.25185185 2:0.17137961 3:5.3208556 4:7.0843373 
-32 1:0.18518519 2:0.12977099 3:5.7058824 4:7.4516129 
-32 1:0.25925926 2:0.056680162 3:5.2780749 4:7.0422961 
-32 1:0.23703704 2:0.11192214 3:5.4064171 4:7.1676647 
-32 1:0.20740741 2:0.11458481 3:5.5775401 4:7.3313609 
-32 1:0.20740741 2:0.087712367 3:5.5775401 4:7.3313609 
-32 1:0.17037037 2:0.0022705441 3:5.7914439 4:7.5306122 
-32 1:0.18518519 2:0.13479719 3:5.7058824 4:7.4516129 
-32 1:0.31111111 2:0.00047551117 3:4.9786096 4:6.7407407 
-32 1:0.2475 2:0 3:4.626506 4:6.1541096 
-32 1:0.15555556 2:0.19994461 3:5.5373134 4:7.3865546 
-26.3468329117054 1:0.75 2:0 3:7.540146 4:4.2393822 
-32 1:0.25185185 2:0.10695187 3:5.3208556 4:7.0843373 
-32 1:0.11111111 2:0.2055309 3:5.7761194 4:7.6115702 
-32 1:0.35555556 2:0.0023501763 3:4.4626866 4:6.2727273 
-32 1:0.195 2:0.11013884 3:4.744186 4:6.2960526 
-32 1:0.26666667 2:0.13192146 3:4.9402985 4:6.7894737 
-32 1:0.22222222 2:0.10749489 3:5.4919786 4:7.25 
-32 1:0.75 2:0 3:7.540146 4:4.2393822 
-32 1:0.24 2:0.030815342 3:4.6190476 4:6.158371 
-32 1:0.33333333 2:0.076794658 3:4.5820896 4:6.4054054 
-32 1:0.20740741 2:0.038027633 3:5.5775401 4:7.3313609 
-32 1:0.3037037 2:0.086580087 3:5.0213904 4:6.7846154 
-32 1:0.75 2:0 3:7.540146 4:4.2393822 
-32 1:0.34074074 2:0.041441172 3:4.8074866 4:6.5625 
-32 1:0.27 2:0 3:4.5180723 4:6.0519031 
-32 1:0.22962963 2:0.059472759 3:5.4491979 4:7.2089552 
-32 1:0.75 2:0 3:7.540146 4:4.2393822 
-32 1:0.8 2:0.30188679 3:4.1372549 4:7.5454545 
-32 1:0.19259259 2:0 3:5.6631016 4:7.4117647 
-32 1:0.8 2:0 3:4.1372549 4:7.5454545 
-32 1:0.2775 2:0.030193456 3:4.4819277 4:6.0173611 
-32 1:0.21 2:0.0083822297 3:4.6744186 4:6.2317881 
-32 1:0.8 2:0.25906736 3:4.1372549 4:7.5454545 
-32 1:0.75 2:0 3:7.540146 4:4.2393822 
-32 1:0.2 2:0.094279583 3:4.6363636 4:6.2173913 
-32 1:0.26666667 2:0.0044464206 3:4.9402985 4:6.7894737 
-32 1:0.22 2:0.16332616 3:4.5454545 4:6.1315789 
-32 1:0.22222222 2:0.10285937 3:5.4919786 4:7.25 
-32 1:0.2 2:0.15253787 3:5.6203209 4:7.3716814 
-32 1:0.83346684 2:0.12837927 3:26.164062 4:4.5652866 
-32 1:0.75 2:0 3:7.540146 4:4.2393822 
-32 1:0.2625 2:0.033100605 3:4.5542169 4:6.0862069 
-32 1:0.24 2:0.084994753 3:4.5348837 4:6.1006711 
-32 1:0.75 2:0 3:7.540146 4:4.2393822 
-32 1:0.31111111 2:0.09801877 3:4.7014925 4:6.5357143 
-32 1:0.38518519 2:0.023582257 3:4.5508021 4:6.2866242 
-32 1:0.75 2:0 3:7.540146 4:4.2393822 
-32 1:0.27 2:0.056488248 3:4.5180723 4:6.0519031 
-32 1:0.17777778 2:0.17751479 3:5.4179104 4:7.2711864 
-32 1:0.195 2:0.17305252 3:4.744186 4:6.2960526 
-32 1:0.26666667 2:0.2175164 3:4.9402985 4:6.7894737 
-32 1:0.22222222 2:0.17769719 3:5.1791045 4:7.0344828 
-32 1:0.75 2:0 3:7.540146 4:4.2393822 
-32 1:0.18518519 2:0.044631137 3:5.7058824 4:7.4516129 
-32 1:0.11111111 2:0 3:5.7761194 4:7.6115702 
-32 1:0.26666667 2:0.23217029 3:4.9402985 4:6.7894737 
-32 1:0.75 2:0 3:7.540146 4:4.2393822 
-32 1:0.84659377 2:2.1033935 3:5.12 4:3.1147541 
-32 1:0.25 2:0.0082795165 3:4.5714286 4:6.1136364 
-32 1:0.22222222 2:0.25960265 3:5.1791045 4:7.0344828 
-32 1:0.27 2:0.050290797 3:4.3953488 4:5.9659864 
-32 1:0.75 2:0 3:7.540146 4:4.2393822 
-32 1:0.2 2:0 3:5.6203209 4:7.3716814 
-32 1:0.48888889 2:0.084328883 3:3.7462687 4:5.4230769 
-32 1:0.8 2:0 3:4.1372549 4:7.5454545 
-32 1:0.75 2:0 3:7.540146 4:4.2393822 
-32 1:0.16 2:0.10393024 3:4.8181818 4:6.3846154 
-32 1:0.20740741 2:0.016570924 3:5.5775401 4:7.3313609 
-32 1:0.255 2:0 3:4.5903614 4:6.1202749 
-32 1:0.29 2:0.036590486 3:4.3809524 4:5.9305556 
-32 1:0.24 2:0.23615265 3:4.4545455 4:6.0442478 
-32 1:0.28888889 2:0.16074189 3:4.8208955 4:6.6637168 
-32 1:0.195 2:0.12729064 3:4.744186 4:6.2960526 
-32 1:0.75 2:0 3:7.540146 4:4.2393822 
-32 1:0.24 2:0.17137961 3:4.6190476 4:6.158371 
-32 1:0.17777778 2:0.12383901 3:5.7486631 4:7.4912281 
-32 1:0.26 2:0.19963629 3:4.3636364 4:5.9553571 
-32 1:0.25925926 2:0.0074402126 3:5.2780749 4:7.0422961 
-32 1:0.22962963 2:0.043810494 3:5.4491979 4:7.2089552 
-32 1:0.26 2:0 3:4.5238095 4:6.0684932 
-32 1:0.23 2:0.054844607 3:4.6666667 4:6.2027027 
-32 1:0.75 2:0 3:7.540146 4:4.2393822 
-32 1:0.75 2:0 3:7.540146 4:4.2393822 
-32 1:0.82533947 2:0.054964216 3:6.4285714 4:3.3290323 
-32 1:0.19259259 2:0.04318322 3:5.6631016 4:7.4117647 
-32 1:0.28888889 2:0.05070333 3:5.1069519 4:6.8715596 
-32 1:0.8 2:0.18050542 3:4.1372549 4:7.5454545 
-32 1:0.19259259 2:0 3:5.6631016 4:7.4117647 
-32 1:0.2625 2:0.0037735849 3:4.5542169 4:6.0862069 
-32 1:0.28888889 2:0 3:4.8208955 4:6.6637168 
-32 1:0.27 2:0 3:4.3953488 4:5.9659864 
-32 1:0.75 2:0 3:7.540146 4:4.2393822 
-32 1:0.37777778 2:0.046650718 3:4.3432836 4:6.1376147 
-32 1:0.22222222 2:0.010008249 3:5.1791045 4:7.0344828 
-32 1:0.75 2:0 3:7.540146 4:4.2393822 
-32 1:0.75 2:0 3:7.540146 4:4.2393822 
-32 1:0.225 2:0.0059410465 3:4.6046512 4:6.1666667 
-32 1:0.26 2:0.0089330025 3:4.5238095 4:6.0684932 
-32 1:0.27 2:0.063467584 3:4.5180723 4:6.0519031 
-32 1:0.27 2:0.13650683 3:4.3953488 4:5.9659864 
-19.96868856862044 1:0.84868578 2:0.56048343 3:13.788732 4:4.1735791 
-32 1:0.23 2:0.059625753 3:4.6666667 4:6.2027027 
-32 1:0.25185185 2:0.030106257 3:5.3208556 4:7.0843373 
-32 1:0.48888889 2:0 3:3.7462687 4:5.4230769 
-32 1:0.2625 2:0.065737993 3:4.5542169 4:6.0862069 
-32 1:0.22222222 2:0.081031073 3:5.4919786 4:7.25 
-32 1:0.19259259 2:0.15678553 3:5.6631016 4:7.4117647 
-32 1:0.75 2:0 3:7.540146 4:4.2393822 
-32 1:0.2 2:0.040016333 3:4.6363636 4:6.2173913 
-32 1:0.21 2:0.0074949553 3:4.6744186 4:6.2317881 
-32 1:0.18518519 2:0.092981511 3:5.7058824 4:7.4516129 
-32 1:0.17037037 2:0 3:5.7914439 4:7.5306122 
-32 1:0.285 2:0.14 3:4.3255814 4:5.8972603 
-32 1:0.26666667 2:0.1220545 3:5.2352941 4:7 
-32 1:0.48888889 2:0.13511763 3:3.7462687 4:5.4230769 
-32 1:0.75 2:0 3:7.540146 4:4.2393822 
-32 1:0.28888889 2:0.063492063 3:4.8208955 4:6.6637168 
-32 1:0.18 2:0 3:4.8139535 4:6.3594771 
-32 1:0.2775 2:0.036953659 3:4.4819277 4:6.0173611 
-32 1:0.29 2:0 3:4.3809524 4:5.9305556 
-32 1:0.255 2:0.042484321 3:4.4651163 4:6.0337838 
-32 1:0.2 2:0.003630337 3:5.6203209 4:7.3716814 
-32 1:0.2 2:0.05751902 3:5.6203209 4:7.3716814 
-32 1:0.19259259 2:0.0040424457 3:5.6631016 4:7.4117647 
-32 1:0.42222222 2:0.037072547 3:4.1044776 4:5.8598131 
-32 1:0.22962963 2:0 3:5.4491979 4:7.2089552 
-32 1:0.8 2:0.4 3:4.1372549 4:7.5454545 
-32 1:0.8 2:0.4 3:4.1372549 4:7.5454545 
-32 1:0.75 2:0 3:7.540146 4:4.2393822 
-32 1:0.75 2:0 3:7.540146 4:4.2393822 
-32 1:0.22962963 2:0 3:5.4491979 4:7.2089552 
-32 1:0.2625 2:0.045780149 3:4.5542169 4:6.0862069 
-32 1:0.255 2:0 3:4.4651163 4:6.0337838 
-32 1:0.22222222 2:0.080920823 3:5.4919786 4:7.25 
-32 1:0.21481481 2:0.0017354655 3:5.5347594 4:7.2908012 
-32 1:0.18518519 2:0 3:5.7058824 4:7.4516129 
-32 1:0.75 2:0 3:7.540146 4:4.2393822 
-32 1:0.11111111 2:0 3:5.7761194 4:7.6115702 
-32 1:0.2 2:0.16210355 3:5.6203209 4:7.3716814 
-32 1:0.41481481 2:0.1088647 3:4.3796791 4:6.0967742 
-32 1:0.255 2:0 3:4.5903614 4:6.1202749 
-32 1:0.18518519 2:0 3:5.7058824 4:7.4516129 
-32 1:0.8 2:0.30188679 3:4.1372549 4:7.5454545 
-32 1:0.195 2:0.0716677 3:4.744186 4:6.2960526 
-32 1:0.26 2:0.05070333 3:4.5238095 4:6.0684932 
-32 1:0.8 2:0.34594595 3:4.1372549 4:7.5454545 
-32 1:0.255 2:0 3:4.5903614 4:6.1202749 
-32 1:0.21 2:0.088197907 3:4.6744186 4:6.2317881 
-32 1:0.24444444 2:0.0033810436 3:5.3636364 4:7.1261261 
-32 1:0.75 2:0 3:7.540146 4:4.2393822 
-32 1:0.18 2:0.16315102 3:4.7272727 4:6.3017241 
-32 1:0.75 2:0 3:7.540146 4:4.2393822 
-32 1:0.18518519 2:0.0047114252 3:5.7058824 4:7.4516129 
-32 1:0.20740741 2:0.10951264 3:5.5775401 4:7.3313609 
-32 1:0.23 2:0.12003746 3:4.6666667 4:6.2027027 
-32 1:0.8 2:0.35140998 3:4.1372549 4:7.5454545 
-32 1:0.75 2:0 3:7.540146 4:4.2393822 
-32 1:0.26666667 2:0.1221374 3:4.9402985 4:6.7894737 
-32 1:0.2 2:0.080267559 3:4.6363636 4:6.2173913 
-32 1:0.75 2:0 3:7.540146 4:4.2393822 
-32 1:0.088888889 2:0.015645908 3:5.8955224 4:7.7213115 
-32 1:0.21481481 2:0.12003746 3:5.5347594 4:7.2908012 
-32 1:0.2 2:0.10901001 3:5.2985075 4:7.1538462 
-32 1:0.27 2:0.031459365 3:4.3953488 4:5.9659864 
-32 1:0.24444444 2:0.048484848 3:5.3636364 4:7.1261261 
-32 1:0.75 2:0 3:7.540146 4:4.2393822 
-32 1:0.24444444 2:0.031994312 3:5.3636364 4:7.1261261 
-32 1:0.42222222 2:0.19201995 3:4.1044776 4:5.8598131 
-32 1:0.26666667 2:0.089201878 3:4.9402985 4:6.7894737 
-29.47070188549866 1:0.75 2:0 3:7.540146 4:4.2393822 
-32 1:0.25185185 2:0 3:5.3208556 4:7.0843373 
-32 1:0.2 2:0.18271605 3:5.6203209 4:7.3716814 
-32 1:0.195 2:0.0098872849 3:4.744186 4:6.2960526 
-32 1:0.20740741 2:0.0082795165 3:5.5775401 4:7.3313609 
-32 1:0.83140974 2:0.97121064 3:5.962963 4:3.4 
-32 1:0.2625 2:0.063246662 3:4.5542169 4:6.0862069 
-32 1:0.26 2:0.037162162 3:4.5238095 4:6.0684932 
-32 1:0.21 2:0.014426111 3:4.6744186 4:6.2317881 
-32 1:0.18 2:0.026719014 3:4.8139535 4:6.3594771 
-32 1:0.22222222 2:0.077293007 3:5.4919786 4:7.25 
-32 1:0.225 2:0.085339168 3:4.6046512 4:6.1666667 
